%YAML:1.0
opencv_ml_svm:
   svmType: EPS_SVR
   kernel:
      type: LINEAR
   C: 1.0000000000000000e-02
   p: 1.0000000000000001e-01
   term_criteria: { epsilon:1.0000000000000000e-03, iterations:1000 }
   var_count: 7524
   sv_total: 1
   support_vectors:
      - [ -2.21767556e-03, -1.15044443e-02, -3.53492796e-04,
          3.43750715e-02, 2.27628853e-02, 1.80072878e-02,
          -1.59724224e-02, 3.01191676e-03, 1.98199367e-03,
          -1.29889173e-03, -6.70616329e-03, 6.30214578e-03,
          3.28960381e-02, 1.21889366e-02, 1.22987677e-03,
          -1.93535909e-02, 2.22418439e-02, 2.74010690e-05,
          -1.26872910e-02, -3.55460532e-02, -2.47313697e-02,
          1.12716621e-02, -1.26265464e-02, 7.06055248e-03,
          3.58053832e-03, 9.18838475e-03, 2.86876434e-03, 1.74920410e-02,
          -6.41672360e-03, -7.55785964e-03, 1.95183344e-02,
          -1.75421089e-02, 1.09216906e-02, -1.25390363e-06,
          3.36835906e-02, 2.05310490e-02, 9.60354134e-03, 5.75450482e-03,
          9.28674825e-03, 1.76087450e-02, 2.56191920e-02,
          -2.83717737e-03, -2.54256185e-02, 3.00414627e-03,
          2.76710419e-03, 2.31177714e-02, -1.19841462e-02,
          -3.79124773e-03, 1.39560178e-02, 3.61683592e-02,
          1.51348731e-03, -2.32700654e-03, 1.18156299e-02,
          -5.01765311e-03, 1.99267790e-02, -1.08806265e-03,
          -1.22155342e-02, 1.92996990e-02, 2.26117596e-02,
          7.90615939e-03, -1.03167654e-03, 1.77476071e-02,
          1.68013908e-02, 1.39627056e-02, 3.65999411e-03,
          -9.09979641e-03, 2.02647299e-02, 1.15729608e-02,
          3.80896544e-03, 1.05663845e-02, 5.80391381e-03,
          -1.02924565e-02, 2.68968232e-02, -7.04897859e-04,
          5.88686764e-03, 4.37687617e-03, 1.57239903e-02, 1.54576767e-02,
          1.00251706e-02, -1.54168240e-03, 4.71743784e-04,
          2.40931823e-03, -1.64903526e-03, -1.48123857e-02,
          -6.54149754e-03, 4.81552444e-03, 2.04263106e-02,
          7.79648311e-03, -2.48854049e-03, 4.10330202e-03,
          2.84717530e-02, 2.92967893e-02, -3.35664768e-03,
          5.88521222e-03, 1.77080519e-02, 1.43855456e-02,
          -6.82340749e-03, -5.29568875e-03, -4.83424868e-03,
          7.90704973e-03, 1.88591592e-02, -1.10507198e-02,
          2.03510597e-02, -5.22453664e-03, 7.00327940e-03,
          -2.76298039e-02, -1.37564503e-02, -1.13090714e-02,
          -8.70948192e-03, -4.65664594e-03, -2.00095512e-02,
          -3.07121268e-03, 6.35585608e-03, 1.10622933e-02,
          -3.14433011e-03, 7.98165891e-03, 1.21870423e-02,
          -7.79771479e-03, -7.67351920e-03, -2.19078884e-02,
          4.07020189e-03, -7.24840723e-03, 1.17956325e-02,
          5.62560372e-03, 4.22723591e-03, -1.01966560e-02,
          1.04645155e-02, 1.26854097e-02, -4.74597374e-03,
          2.58197375e-02, -8.41286220e-03, 4.76428214e-03,
          -9.51146241e-03, -1.42361298e-02, -8.14438611e-03,
          1.51759880e-02, -1.10673346e-03, -2.32500937e-02,
          -1.47844823e-02, -5.94128408e-02, -9.58954543e-03,
          -1.79862871e-03, 6.05347974e-04, -3.45689827e-03,
          3.09781427e-03, -1.39864171e-02, -7.82636181e-03,
          9.69373807e-03, 1.76274218e-02, 2.63315029e-02, 3.15596983e-02,
          9.55659803e-03, -2.23897006e-02, 2.11985093e-02,
          1.00613269e-03, -5.71020367e-03, 2.21692007e-02,
          -1.64665654e-02, 1.06207356e-02, 3.78264394e-03,
          3.37386923e-03, -7.40264263e-03, -4.23164386e-03,
          2.01712130e-03, -1.14635872e-02, -1.25911529e-03,
          -3.55145745e-02, 1.74040850e-02, 8.18412285e-03,
          -5.10657951e-03, -2.15185937e-02, -3.62306484e-03,
          6.95175026e-04, -1.70830600e-02, 2.15654750e-03,
          -3.30663584e-02, 3.64885526e-03, -2.72212783e-03,
          5.65756252e-03, -2.53155790e-02, 1.21904556e-02,
          -1.09154088e-02, -5.92130423e-03, 2.83445474e-02,
          1.85980760e-02, 1.54982880e-03, -2.82155797e-02,
          1.93399680e-03, 5.29302796e-03, 3.76298255e-03, 7.28069246e-03,
          -9.04507842e-03, 2.53432039e-02, 7.32660200e-03,
          2.88645527e-03, -2.03572121e-02, 1.46058081e-02,
          -1.01657771e-02, 4.47263476e-03, -1.17481519e-02,
          -3.49602737e-02, 1.79171085e-03, -9.26834531e-03,
          3.39463283e-03, -1.14112990e-02, 8.04044958e-03,
          -1.04019586e-02, -1.38928266e-02, 5.55206230e-03,
          -8.42508022e-03, 1.13046607e-02, -1.60836466e-02,
          -1.42655475e-02, -1.91590600e-02, 2.34391540e-02,
          -2.08782814e-02, 9.79786552e-03, 2.61653326e-02,
          -3.14993900e-03, 1.11451335e-02, 1.36757363e-02,
          1.26966545e-02, -1.22528933e-02, 2.62073381e-03,
          -3.54413968e-03, -8.23610928e-03, -2.14382168e-03,
          -2.67286543e-02, 2.32494548e-02, -9.09927487e-03,
          -5.56530524e-03, -3.63969170e-02, -2.68324725e-02,
          -1.01407403e-02, -7.00974884e-03, 3.50629576e-02,
          2.81616859e-03, 1.31845195e-02, 1.20580979e-02,
          -1.28755923e-02, -1.13593191e-02, 1.25573538e-02,
          -7.79152056e-03, -1.24745555e-02, 3.98672465e-03,
          -2.49552466e-02, 4.72239777e-03, -2.00817157e-02,
          -5.73176285e-03, -1.89085696e-02, -1.10891545e-02,
          -1.12043153e-02, 4.41067712e-03, 1.52296629e-02,
          -7.13646295e-04, 3.01756095e-02, 2.53922585e-02,
          -3.68533493e-03, -2.13880707e-02, -9.74118768e-04,
          3.81411263e-03, -1.34149324e-02, 1.30522251e-02,
          -1.43603375e-03, -8.09309352e-03, -2.92086620e-02,
          -4.44322191e-02, -1.77567732e-02, -1.88109949e-02,
          3.01064749e-04, -4.71027149e-03, 4.19295672e-03,
          -2.60548643e-03, 3.53792496e-03, 1.04374485e-03,
          -3.57198436e-03, -8.34524538e-03, 2.76357699e-02,
          6.01272238e-03, -3.96897011e-02, 2.35693739e-03,
          -9.19475500e-03, -3.09743863e-02, -3.18284072e-02,
          -3.79591882e-02, -1.23139378e-02, 4.67135198e-03,
          -1.75177772e-02, -1.46336779e-02, 4.30794386e-03,
          -1.84575263e-02, 2.04642361e-04, 1.32286490e-03,
          4.31175390e-03, 9.51849017e-03, 4.92793834e-03,
          -1.22129936e-02, -2.59646997e-02, -3.64907249e-03,
          -3.29202563e-02, -2.33991202e-02, -3.51916091e-03,
          -1.57484636e-02, -1.48667516e-02, 5.55879809e-03,
          5.60890976e-03, -1.22535909e-02, 1.88731998e-02,
          7.19069876e-03, -1.61145013e-02, -1.02611948e-02,
          5.73110301e-03, 4.33035707e-03, 9.57681146e-03,
          -7.79256411e-03, -1.46046383e-02, 2.08320655e-03,
          -2.27571949e-02, -2.23910287e-02, -1.25311781e-02,
          3.99177719e-04, -5.23516163e-03, 1.22473314e-02,
          1.20063033e-02, -1.78116616e-02, 3.98007594e-03,
          -1.32812057e-02, 2.51918822e-03, 1.96091495e-02,
          -6.11527916e-03, -1.87395122e-02, -1.06838588e-02,
          1.30178928e-02, -1.16979117e-02, 8.45502072e-04,
          -1.54337613e-02, -1.83891021e-02, -1.14864847e-02,
          -1.75273456e-02, -2.31233984e-02, -2.17922311e-02,
          -6.00899616e-03, 9.83920181e-04, -2.92545091e-03,
          -1.72081217e-02, -1.44617213e-02, -1.82388891e-02,
          4.94750310e-03, -5.12124132e-03, 8.43350368e-04,
          5.49804477e-04, -1.31425653e-02, 1.07854269e-02,
          9.04971734e-03, -8.69946275e-03, -3.08832508e-02,
          2.63394625e-03, -7.33588170e-03, -1.17831286e-02,
          -8.34359787e-03, -1.31283952e-02, -1.66016892e-02,
          -2.24748645e-02, -1.69574004e-02, -1.73017774e-02,
          -4.80629038e-04, -1.33160641e-02, -1.79453697e-02,
          -1.09895226e-02, -2.62260921e-02, -4.85508963e-02,
          -1.91667043e-02, -4.32474335e-04, -2.19059028e-02,
          5.58799226e-03, 2.13892590e-02, 7.07274815e-03,
          -7.27524888e-03, -8.96881893e-03, -1.69855282e-02,
          9.12286050e-04, 6.11193653e-04, -2.35073175e-03,
          -5.59165375e-03, 4.25529201e-03, -9.60939843e-03,
          -1.91857480e-02, -1.76027790e-02, -1.42632788e-02,
          -7.66407559e-03, -7.25350296e-03, -1.99332740e-02,
          -1.00737838e-02, 1.08039919e-02, -7.36597052e-04,
          -1.52450306e-02, -1.55204814e-02, -1.27706965e-02,
          2.43755821e-02, 1.85928363e-02, -2.42640190e-02,
          -1.56038878e-02, -3.47878481e-03, 2.12545646e-03,
          -3.24328733e-03, -2.72472948e-02, 9.59361158e-03,
          2.87932474e-02, -9.69678629e-03, 4.66499507e-04,
          -8.01222958e-03, -2.72912849e-02, -1.18705891e-02,
          -1.17186140e-02, -6.81132451e-03, 1.94928946e-03,
          2.26254892e-02, 1.38922120e-02, -2.53933016e-02,
          -2.06232071e-02, -6.17558649e-03, 6.98427495e-04,
          -1.77844020e-03, -2.79857107e-02, -2.40183827e-02,
          1.08861476e-02, -1.20609738e-02, -2.98809130e-02,
          -2.44724695e-02, -2.50400007e-02, -5.69467805e-03,
          -6.10073702e-03, -8.79237428e-03, 1.24202454e-02,
          -8.06592032e-03, -3.26318368e-02, -1.18108263e-04,
          9.40055307e-03, -1.03776921e-02, 9.75090358e-03,
          3.09726130e-03, -1.06318630e-02, 7.07160914e-03,
          -1.82046052e-02, -1.77956596e-02, -3.48498719e-03,
          1.33061269e-02, -1.45808477e-02, 1.56587791e-02,
          -4.05915082e-03, -1.99440103e-02, -2.75622122e-03,
          8.53994023e-03, -1.23307714e-02, -7.11852731e-03,
          -1.71784963e-02, -7.24554993e-03, 1.24180177e-02,
          1.90451124e-03, -9.41934902e-03, 2.00819969e-02,
          -1.15101654e-02, -5.21630794e-03, 1.08596031e-02,
          -9.51381121e-03, -2.32804157e-02, 3.04846186e-03,
          -2.23301817e-02, -2.26880573e-02, -7.49036763e-03,
          -7.84943439e-03, -1.23856869e-02, -1.94135832e-03,
          7.33043673e-03, -3.72926402e-03, 1.58139225e-02,
          5.52001316e-03, -1.50061082e-02, -6.80546742e-03,
          -2.12403922e-03, 1.30453268e-02, 1.00623220e-02,
          -3.35695199e-03, -8.34257621e-03, 5.85985091e-03,
          2.08875909e-02, 1.04314815e-02, 1.03491882e-03,
          -7.35421898e-03, -1.50089338e-02, 9.77554359e-03,
          -1.12417024e-02, -2.45749708e-02, 7.88147096e-03,
          -3.67949833e-04, -1.30260717e-02, -3.26333870e-03,
          -9.73762665e-03, -2.63351444e-02, -1.68510452e-02,
          -2.86114439e-02, -3.70340724e-03, -9.95429698e-03,
          5.86619833e-03, -9.79475118e-03, 2.18733624e-02,
          2.25573108e-02, 2.16575656e-02, 2.29663849e-02, 1.55805321e-02,
          -2.08642576e-02, -7.65739474e-04, 3.78062180e-03,
          -3.20393406e-02, -3.02594062e-03, 3.83776426e-03,
          -2.35680304e-03, -8.80527403e-03, -7.18196668e-03,
          -1.90010071e-02, 5.30836591e-03, -1.35000795e-02,
          -7.69827282e-03, 1.73902661e-02, 2.02295929e-02,
          -8.57409264e-04, -1.66623332e-02, 5.85967628e-03,
          -6.31517405e-03, -7.43296091e-03, -6.87168492e-03,
          -2.48313788e-02, -1.15482826e-02, -9.90820117e-04,
          -2.00750288e-02, -2.74359062e-02, -1.91157814e-02,
          -1.03419218e-02, 9.62077081e-03, -1.32716578e-02,
          -1.24106305e-02, -4.21470497e-03, -1.50457146e-02,
          -2.45838221e-02, -1.35606027e-03, 1.61229223e-02,
          -1.61653403e-02, 2.04812572e-03, -9.18754376e-03,
          -2.54447083e-03, -1.84666063e-03, -1.81874987e-02,
          -1.51393237e-02, -5.99218393e-03, 2.36728927e-03,
          -1.59597714e-02, -1.05151616e-03, 4.13510529e-03,
          -6.20032195e-03, 5.77094965e-03, 3.05078895e-04,
          -1.71982888e-02, -1.44946305e-02, -1.32574420e-02,
          -7.09705707e-03, 1.58442445e-02, -1.59217103e-03,
          1.30680995e-02, 1.52701268e-03, -4.50782338e-03,
          -1.44086545e-03, -5.31113660e-03, -1.84765607e-02,
          3.41075193e-03, 2.52956823e-02, 8.43828544e-03,
          -1.05160400e-02, 7.54679507e-03, 1.24364567e-03,
          -8.21932219e-03, -7.27502769e-03, -1.65945687e-03,
          -5.03003830e-03, -4.05637361e-03, -6.84995623e-03,
          -3.80300521e-03, 2.68890779e-03, -6.11622538e-03,
          -2.02362947e-02, -2.53629815e-02, -8.57053697e-03,
          1.53106283e-02, -7.23453471e-03, -3.17167869e-04,
          1.01564871e-02, 3.27690900e-03, -2.42486503e-03,
          -8.14202416e-04, 1.06291426e-02, -2.49668919e-02,
          -1.37121025e-02, 2.95064482e-03, 8.46324861e-03,
          -2.61628944e-02, -1.73464827e-02, -2.40640435e-02,
          -1.02017401e-02, -3.08277830e-02, -2.74214633e-02,
          1.09943049e-03, 1.44771105e-02, -8.85492843e-03,
          5.71712200e-03, 6.53691962e-03, 2.52024084e-03, 7.57088233e-03,
          -6.47090934e-03, 8.33491702e-03, 1.70546062e-02,
          -5.36552351e-03, 1.18956529e-02, -5.65550895e-03,
          1.89202616e-03, -5.22285060e-04, -2.67411973e-02,
          -2.93869264e-02, -1.03560332e-02, 2.51946575e-03,
          -1.32032624e-02, 8.42829142e-03, 9.92630050e-03,
          -4.04566806e-03, -8.63549206e-03, 1.62511468e-02,
          -2.84950286e-02, -9.64197703e-03, 3.93793778e-03,
          9.13196709e-03, 2.86956271e-03, 6.41739578e-04, 9.31826606e-03,
          1.45960180e-02, 2.44402071e-03, -2.08143070e-02,
          -1.02043115e-02, -2.63472646e-02, -2.13486571e-02,
          -5.40143484e-03, -1.03071639e-02, 7.11160901e-05,
          8.61663371e-03, -1.52816242e-02, -6.26870897e-03,
          -1.17928358e-02, -2.82096816e-03, -1.55344680e-02,
          -4.14068811e-03, -7.42822827e-04, -1.19793974e-02,
          -4.11688583e-04, -1.20515702e-02, 2.60409322e-02,
          -1.25691690e-03, -9.38826241e-03, -1.55340135e-02,
          1.80368545e-03, -2.65601062e-04, -1.73982314e-03,
          -5.52833895e-04, 3.20636644e-03, -7.57571636e-03,
          2.95939785e-03, -5.96699677e-03, -6.41932758e-03,
          6.53923396e-03, 1.09562846e-02, -4.04461240e-03,
          -1.66189193e-03, -1.30374767e-02, 1.78725496e-02,
          1.94011796e-02, 5.27697243e-03, 5.29145729e-03, 1.65667515e-02,
          1.63816921e-02, 2.82224733e-03, 4.41869907e-03, 1.50147919e-02,
          -1.86730199e-03, 7.21052289e-03, 3.32907052e-03,
          3.37525597e-03, 2.78209336e-02, 1.69391315e-02, 8.33369500e-04,
          2.04598904e-03, 4.21517566e-02, -2.67788582e-02,
          4.66677267e-03, 7.08252843e-03, 3.32853161e-02, 2.58875620e-02,
          2.64150165e-02, 1.37154041e-02, 1.24683380e-02, 9.52338520e-03,
          -3.46598476e-02, -3.08529497e-03, -9.49727558e-03,
          -5.97769348e-03, 2.21125837e-02, 9.23368055e-03,
          -5.24204131e-03, -1.84083953e-02, 2.66220719e-02,
          -3.79926451e-02, -2.38880725e-03, -4.66487417e-03,
          1.03998333e-02, 3.44479620e-03, 8.61160178e-03, 7.79462222e-04,
          -7.77746318e-03, 1.32281175e-02, 3.03947832e-03,
          1.62012950e-02, -5.80033055e-03, -2.48817168e-03,
          9.83771589e-03, 1.72402300e-02, -3.07771075e-03,
          7.01509370e-03, 4.22837446e-03, 7.15247728e-03, 2.04310529e-02,
          1.67470817e-02, -1.43692382e-02, 1.54830131e-03,
          -9.12863389e-03, -1.66097644e-03, -9.82354209e-03,
          4.17763088e-03, -1.75261833e-02, 8.69718351e-05,
          -2.15641595e-02, -1.66762676e-02, -1.18833240e-02,
          4.00618557e-03, -3.03349015e-03, -7.10939523e-04,
          -8.44893325e-03, -4.32078820e-03, 8.93473998e-03,
          5.43145882e-03, -2.60303244e-02, 8.20843223e-03,
          2.94958130e-02, 2.16949694e-02, 1.20823951e-02, 9.11784766e-04,
          8.81875865e-03, 2.09471826e-02, -6.84305094e-03,
          -3.94784333e-03, 2.19200877e-03, 6.59228070e-03,
          1.51512446e-02, -4.28758189e-03, 2.85850074e-02,
          4.45528189e-03, -3.60934203e-03, -6.09825132e-03,
          4.10897337e-04, 5.25165442e-03, -7.06261210e-03,
          -1.66516975e-02, -2.35514045e-02, -2.20898390e-02,
          -4.63392511e-02, -7.65538029e-03, 3.15490458e-03,
          -5.51685411e-03, 1.16700698e-02, -4.53233439e-03,
          -2.00496130e-02, -8.83369800e-03, -9.10253637e-03,
          -1.35646425e-02, 1.90097522e-02, 8.59098975e-03,
          1.61228888e-02, 1.30902380e-02, -2.61088088e-03,
          6.57838117e-03, -9.18343291e-03, 1.95829719e-02,
          1.16954872e-03, 1.34467147e-03, 6.60931517e-04, 7.70210754e-03,
          -1.64571626e-03, 7.43173622e-03, 2.87423492e-03,
          -2.06745788e-02, 7.77226058e-04, -4.43590060e-02,
          -2.30627526e-02, -1.35890103e-03, 1.65340155e-02,
          -1.38778854e-02, 1.57736596e-02, -1.65600050e-02,
          -5.80076920e-03, 1.74740627e-02, 7.48287933e-03,
          3.79865021e-02, 1.14702368e-02, 1.54032717e-02, 7.49839470e-03,
          -8.05149041e-03, -1.64375324e-02, -2.53694318e-02,
          7.32151046e-03, -2.80875191e-02, 1.41592685e-03,
          -8.08788987e-04, 1.79427601e-02, -1.40946927e-02,
          9.35620815e-03, 7.26352818e-03, 3.21296416e-03, 7.84399547e-03,
          -1.26709242e-03, 9.49162617e-03, -1.20233623e-02,
          1.82494055e-03, -8.69614817e-03, -1.17969851e-03,
          1.22065982e-03, -5.94537565e-03, -3.73534299e-03,
          -2.35417206e-02, 4.76825377e-03, -2.71859020e-02,
          -2.34891269e-02, -3.03076524e-02, 2.01309118e-02,
          1.58348288e-02, -7.22340913e-03, 7.83128664e-03,
          1.04581192e-02, 2.15558056e-02, -1.45957340e-03,
          1.61879081e-02, 8.81737750e-03, 1.08094783e-02,
          -5.40849334e-03, -3.51693742e-02, -1.24361869e-02,
          -2.33104695e-02, 7.97857624e-03, -5.46246395e-03,
          -1.49678560e-02, 1.99255273e-02, 6.59887970e-04,
          -1.30267609e-02, -2.00163443e-02, -8.04293621e-03,
          -9.67884902e-03, -6.91493042e-04, -1.31284138e-02,
          -4.92317462e-03, -2.21188879e-03, -8.12047441e-03,
          7.60476454e-04, -8.55704118e-03, -5.81550272e-03,
          -1.94182377e-02, -1.88602693e-02, -1.53376870e-02,
          3.72744165e-03, -8.91568419e-03, 1.30539034e-02,
          -7.83151016e-04, -2.34188158e-02, -1.48803834e-02,
          -1.61023177e-02, 3.09895817e-03, -3.90855683e-04,
          2.08151597e-03, 3.46823558e-02, 1.54838810e-04, 6.99550472e-03,
          -1.35236364e-02, -2.62953695e-02, -1.34239839e-02,
          4.36141714e-03, 1.00061647e-03, 7.85037875e-03, 5.67723624e-03,
          -6.13176124e-03, 3.70359011e-02, 1.94422938e-02,
          1.96596254e-02, 1.16002420e-02, -1.85387079e-02,
          -7.41074095e-03, 1.41704185e-02, -1.05842557e-02,
          -1.28051043e-02, 1.32574616e-02, -3.15594748e-02,
          -2.23085610e-03, -3.94228334e-03, -8.73509329e-03,
          -3.07696708e-03, 3.79944569e-03, -6.72964612e-03,
          -2.31452882e-02, 2.55795214e-02, 9.78566613e-03,
          1.64741278e-02, 1.53632164e-02, -5.32050105e-03,
          -3.86155187e-03, 4.83427569e-03, -2.09914315e-02,
          -1.65001322e-02, 3.89873108e-04, -1.51625723e-02,
          3.63987568e-03, -2.52982955e-02, -1.98369231e-02,
          -2.02444457e-02, -3.45456344e-03, -2.10399437e-03,
          -1.89578533e-02, -1.03074834e-02, -2.08064709e-02,
          -6.98015420e-03, -7.81052280e-03, 7.20710261e-03,
          1.03870770e-02, 2.60895416e-02, 2.09397860e-02,
          -1.94522012e-02, -7.44742248e-03, -1.75948776e-02,
          -1.27968043e-02, -2.81203333e-02, -3.43995471e-03,
          5.39645832e-03, 3.05634197e-02, -6.90082042e-03,
          -6.50367280e-03, -1.23560391e-02, -5.37059782e-03,
          8.53662565e-03, -2.28867251e-02, -3.43161239e-03,
          -5.39579848e-03, 9.49282013e-03, 8.97244550e-03,
          -7.05289841e-03, -1.48222642e-02, -2.04923451e-02,
          -3.15775466e-03, -1.09326784e-02, 1.86841507e-02,
          8.67240783e-03, 9.43032932e-03, 5.41886548e-03, 1.19982369e-03,
          1.47973001e-02, -1.92579832e-02, -6.90949429e-03,
          3.36775882e-03, 1.97199918e-02, -6.86777383e-03,
          1.29193449e-02, 9.19632986e-03, 1.48536935e-02, 1.35025987e-02,
          -1.92047451e-02, -1.65744126e-02, -1.09679624e-02,
          1.67740986e-03, -2.13081613e-02, 8.62032827e-03,
          2.55709179e-02, 1.86160821e-02, 9.49904614e-04,
          -1.29457209e-02, 2.09851451e-02, 1.79469660e-02,
          6.82067126e-03, -1.07958298e-02, -7.93193001e-03,
          5.83657390e-03, 1.38817858e-02, 1.75934017e-03,
          -2.18076166e-03, -3.38222133e-03, -1.67509951e-02,
          -2.00250037e-02, -3.00878119e-02, -1.63329057e-02,
          -1.28633510e-02, 2.46376824e-03, 1.07943043e-02,
          -1.45009505e-02, -8.50650761e-03, -1.82431471e-02,
          1.23529937e-02, -8.54718313e-03, -1.53850915e-03,
          -1.38011454e-02, -1.19461706e-02, 5.98947611e-03,
          1.39882024e-02, 1.38036469e-02, -1.67317293e-03,
          1.04477713e-02, 7.91872572e-03, -1.98227055e-02,
          5.23713930e-03, 8.14879022e-04, 3.01571883e-04,
          -7.59946462e-03, -1.08537134e-02, -1.49152819e-02,
          4.45335684e-03, 3.65606276e-03, -8.88464600e-03,
          -9.54012573e-03, -1.47978766e-02, -2.20746431e-03,
          8.36190488e-03, 7.48290261e-03, 1.58671718e-02, 2.06209347e-02,
          8.00375640e-03, -1.21564781e-02, -1.68816540e-02,
          -3.24293002e-02, -1.73543449e-02, 1.56023493e-02,
          2.25144029e-02, 2.86005381e-02, 9.04514454e-03,
          -1.57557167e-02, -8.11900571e-03, -1.06659187e-02,
          -1.76018942e-02, 3.97633575e-03, -1.00843580e-02,
          -5.58109256e-03, -1.28709525e-03, -1.49014881e-02,
          -1.90060306e-02, -1.23220533e-02, -2.95207743e-03,
          -1.42183853e-02, -2.08980702e-02, 1.19799171e-02,
          1.18818190e-02, 2.04482488e-02, 1.46349948e-02,
          -1.92213003e-02, -1.73059106e-02, 4.95030358e-03,
          -5.11088921e-03, -1.44155035e-02, -3.11077852e-02,
          -1.76018197e-02, -3.04002184e-02, -1.97156612e-02,
          -2.12620646e-02, 6.53501041e-03, -8.83931201e-03,
          9.30820871e-03, 1.78817865e-02, 7.77073344e-03, 1.72610837e-03,
          -1.95457693e-02, -1.37491757e-02, -1.24132270e-02,
          8.60351417e-03, 7.32814567e-03, -1.12675559e-02,
          -2.86450125e-02, -7.82909617e-03, -1.65315624e-02,
          -1.67826246e-02, -7.27334153e-03, -9.11166891e-03,
          -2.66175717e-04, -6.78593060e-03, 2.43294518e-02,
          -3.08635202e-03, -3.76648232e-02, -2.78922152e-02,
          -5.69658121e-03, 4.85382741e-04, -1.01395762e-02,
          1.21483980e-02, -1.83645915e-03, 3.22910259e-03,
          -2.06414666e-02, -2.69466434e-02, -2.43928935e-02,
          2.21993309e-02, 1.43582560e-03, -2.08870508e-02,
          -2.82750670e-02, -1.02483220e-02, -1.21127935e-02,
          -2.45664828e-03, 5.06334566e-03, 7.36037968e-04,
          -1.20206280e-02, -1.80379581e-02, -5.21093747e-03,
          8.97882972e-04, 3.92137794e-03, -1.98955014e-02,
          5.06445719e-03, 2.03736383e-03, 1.40790613e-02,
          -9.50696599e-03, -2.63055805e-02, -2.60233004e-02,
          -7.76835531e-03, -2.27311235e-02, 9.08461120e-03,
          1.57161132e-02, 2.00461620e-03, 5.18793846e-03,
          -3.67807900e-03, 1.85695924e-02, -5.16988290e-03,
          -3.03622521e-03, -7.45889312e-03, -1.45713780e-02,
          -2.83421157e-03, 1.80949327e-02, 1.31824529e-02,
          -1.69113278e-02, -3.59330163e-03, -7.10922619e-03,
          7.11497804e-03, 2.57138652e-03, -4.60269395e-03,
          -5.31377364e-03, -1.68907398e-03, 3.40017700e-03,
          -9.07950941e-03, -1.98132284e-02, -1.15603795e-02,
          7.80859403e-03, 6.85616210e-03, -1.61798578e-02,
          -1.13865677e-02, -1.99897233e-02, -6.38043554e-03,
          -1.99846476e-02, -2.69278474e-02, -7.86936004e-03,
          -1.18175400e-02, -2.68234853e-02, -1.02558844e-02,
          -3.01457639e-03, 1.48343351e-02, 1.51160629e-02,
          -9.01408400e-03, -8.43739975e-03, 7.35404389e-03,
          2.57584862e-02, 1.27371112e-02, -2.39836574e-02,
          -9.18715354e-03, 1.50715944e-03, 5.54531463e-04,
          -1.08566545e-02, -1.80603843e-02, 7.09327962e-03,
          -1.15449335e-02, -1.85129363e-02, -1.89864095e-02,
          -3.78036126e-03, -1.61317009e-02, 5.38501376e-03,
          -5.82466368e-03, 6.63210545e-03, 3.72880348e-03,
          -8.99005029e-03, -3.23702977e-03, -2.99188662e-02,
          -1.33739905e-02, -1.06538553e-02, -1.17318816e-02,
          -1.12775136e-02, -2.39891484e-02, -6.87814597e-03,
          -6.18778076e-03, -1.99280381e-02, -1.50343701e-02,
          -9.89495683e-03, -2.31474619e-02, 9.08547174e-03,
          1.01682413e-02, 2.11803913e-02, 1.99167933e-02, 3.15017533e-03,
          -1.08112684e-02, -6.70643197e-03, 9.89931729e-03,
          -6.66184537e-03, 3.63875926e-03, 1.73327513e-02,
          -1.31792584e-02, 1.07038291e-02, 1.33192856e-02,
          -2.56065764e-02, -1.36235468e-02, 3.97778256e-03,
          -4.13418235e-03, 5.52244252e-03, -7.65755819e-03,
          -1.76294968e-02, -4.30121057e-04, -2.53088423e-03,
          -4.06928267e-03, 3.88502656e-03, -1.08419815e-02,
          -1.46799712e-02, -1.87773560e-03, -2.13921978e-03,
          -2.24735644e-02, 5.52523741e-03, 1.68800342e-03,
          -1.40897953e-03, -1.07352445e-02, 2.95591466e-02,
          2.84823286e-03, 1.48016466e-02, 5.97834762e-04,
          -2.93977093e-02, -1.03521626e-02, 1.31222522e-02,
          -1.14777116e-02, -9.03980527e-03, 1.50229270e-03,
          -1.54031487e-02, 5.69736410e-04, 1.00682583e-02,
          -1.47264833e-02, -7.23517686e-03, -2.24366621e-03,
          -1.16170309e-02, 1.68805905e-02, -6.06514700e-03,
          -1.53149143e-02, -1.70309993e-03, -1.40307573e-04,
          -2.48996969e-02, -8.36749561e-03, -1.96785037e-03,
          6.57243608e-03, -2.06471048e-02, -1.22293402e-02,
          -2.92968452e-02, -4.31885524e-03, -1.66874621e-02,
          -2.35660356e-02, -1.14309248e-02, 3.10640200e-03,
          -1.20453779e-02, 1.02104433e-02, 5.81516139e-03,
          -2.08718423e-02, 1.79934141e-03, 9.56203882e-03,
          -1.03341145e-02, -1.25822583e-02, -3.05644772e-03,
          -9.82187968e-03, -9.74294823e-03, -2.58089206e-03,
          -2.25884523e-02, 1.92428827e-02, -5.51864784e-03,
          -3.00632566e-02, -1.86585635e-02, -5.56517672e-03,
          -2.76431888e-02, -8.42901133e-03, 8.45047925e-03,
          -5.58006903e-03, 1.96193606e-02, -4.64968896e-03,
          -4.75765159e-03, 7.01708999e-03, 6.17898908e-03,
          3.32090142e-03, 2.18306319e-03, 1.03352349e-02, 1.72391292e-02,
          7.19196396e-03, 9.90280183e-04, 1.56146139e-02, 1.50296874e-02,
          -1.42934006e-02, -1.55587238e-03, 1.61109166e-03,
          1.12707624e-02, -5.03189582e-03, 2.22593322e-02,
          2.76382058e-03, -1.18936561e-02, -1.03967134e-02,
          -8.84004869e-03, -1.07323157e-03, -2.62895320e-02,
          -3.70887865e-04, 5.81399910e-03, -8.68289825e-03,
          4.38883901e-03, 8.23652372e-03, 1.61924269e-02,
          -1.86206363e-02, -1.96997114e-02, -5.90155646e-03,
          4.35413886e-03, 1.54682668e-02, -1.15141622e-03,
          1.14793312e-02, 1.79762803e-02, 2.87600271e-02, 4.50971490e-03,
          -4.10856353e-03, 8.00349936e-03, -8.52570590e-03,
          4.06367192e-03, -1.11826863e-02, 7.03152595e-03,
          1.58301163e-02, 2.39247084e-02, 7.48210214e-03, 9.92026180e-03,
          -2.11551599e-02, -3.48953274e-03, 1.37081873e-02,
          -1.04257744e-02, 7.70590408e-03, 4.69688879e-04,
          2.85321083e-02, -5.65465726e-03, -3.15921120e-02,
          2.25125104e-02, -2.47470867e-02, -5.02208667e-03,
          -2.96241082e-02, 2.20629126e-02, 9.86863510e-04,
          1.99026987e-02, 4.49836301e-03, 1.34629430e-02, 3.27313840e-02,
          3.24368514e-02, 3.45859267e-02, 1.41229564e-02,
          -4.64477343e-03, -7.39885448e-03, -9.46830586e-03,
          -1.08138071e-02, 2.32640691e-02, 2.05766298e-02,
          1.69229433e-02, 6.37174724e-03, 2.10108627e-02, 1.75176526e-03,
          -1.55442383e-03, 8.47032107e-03, 1.52994618e-02,
          2.26876121e-02, 2.39271671e-02, -1.94541402e-02,
          -1.82992890e-02, 6.15622196e-03, -1.83977489e-03,
          6.13782881e-03, 2.10505706e-04, -2.58772093e-06,
          2.39692815e-02, -1.54541684e-02, -1.30327735e-02,
          -1.15297232e-02, 1.19253397e-02, 4.50344570e-03,
          6.09459775e-03, 8.34052637e-03, 7.72111211e-03,
          -2.84974021e-03, -1.66229587e-02, -1.99778192e-03,
          1.19197008e-03, 4.36136778e-03, 1.45294378e-02, 6.18968019e-03,
          4.16588131e-03, 9.28471237e-03, -1.07295113e-02,
          -1.39334491e-02, -1.78632140e-02, -1.29371537e-02,
          3.79573903e-04, 1.89998820e-02, 1.20320041e-02, 7.21444795e-03,
          -2.46691015e-02, -2.20828503e-03, -3.18174586e-02,
          -1.06385984e-02, 3.75210959e-03, 2.37143692e-02,
          6.01776643e-03, 2.88943779e-02, 1.74213399e-03, 1.03475051e-02,
          -3.01100537e-02, 3.08303023e-03, -2.04353221e-02,
          1.56453997e-02, 5.57579705e-03, 5.15229581e-03,
          -9.68088745e-04, -6.31190464e-03, -1.43741095e-03,
          -1.46851619e-03, -6.68314472e-03, -2.74905339e-02,
          -5.39893517e-03, 4.57303319e-03, -4.63359524e-03,
          -1.81183815e-02, 9.08421353e-03, -1.44315828e-02,
          5.88139379e-03, -2.26863790e-02, -3.77747640e-02,
          2.35667755e-03, 9.89857130e-03, -2.04782933e-03,
          2.23653279e-02, 6.63307495e-03, -8.01099464e-03,
          -2.04610880e-02, 2.54193600e-02, -1.99962240e-02,
          1.13833193e-02, 5.42694842e-03, -1.39383543e-02,
          -1.34666739e-02, -1.13566862e-02, -1.15498621e-02,
          2.06565708e-02, -9.61817708e-03, -2.04068404e-02,
          1.28090626e-03, 7.18996255e-03, -1.58442464e-02,
          -7.33583514e-03, -1.25977341e-02, -1.00360531e-02,
          -1.56632196e-02, -4.60702600e-03, -6.65600598e-03,
          1.27739524e-02, 2.21960433e-02, 8.81047454e-03, 1.47910053e-02,
          -7.17684207e-03, -1.07060466e-02, -2.99892831e-03,
          -1.31759942e-02, 4.01160261e-03, -8.75675958e-03,
          1.84921883e-02, -4.72329091e-03, 1.05351722e-02,
          -7.41453050e-03, 5.57615887e-04, -1.95961706e-02,
          1.00007455e-03, 3.23303463e-03, -8.28683842e-04,
          3.20774131e-02, 8.57510822e-05, 7.98727106e-03,
          -4.69987234e-03, -5.42088179e-03, -3.33096460e-03,
          7.47723388e-04, -4.34279302e-03, -2.00041961e-02,
          1.37143796e-02, 1.00003760e-02, 7.95807876e-03, 1.02739539e-02,
          4.92173107e-03, -1.66642631e-03, 1.28998961e-02,
          4.04051552e-03, -3.66589800e-03, 1.25450771e-02,
          8.43145978e-03, 2.73038335e-02, 5.37463184e-03, 5.97223360e-03,
          -2.14843564e-02, 6.67934632e-03, -1.55598875e-02,
          -1.51458364e-02, -1.73716282e-03, -6.70409249e-03,
          1.13486806e-02, 8.45505483e-03, -2.58253491e-03,
          8.85885581e-03, 1.10823950e-02, 4.26355377e-03,
          -1.09278895e-02, 3.64424754e-03, 6.78154966e-03,
          2.64860932e-02, 4.46535088e-03, 1.13136647e-02,
          -1.00480272e-02, 4.18430567e-03, -5.75812906e-03,
          -3.44735081e-03, -1.59743661e-03, -1.84248723e-02,
          6.46967441e-03, 3.94613278e-04, 8.85723997e-03, 1.12893125e-02,
          -1.88657306e-02, -1.02260057e-02, -8.82641412e-03,
          7.26817735e-03, -4.97409422e-03, 3.06521950e-04,
          -7.30025209e-03, -1.63040664e-02, 3.16339685e-03,
          -4.35981117e-02, -2.25827768e-02, -8.32276233e-03,
          -2.39318144e-03, 6.94388617e-03, 1.30497108e-04,
          -1.43048475e-02, -8.72355420e-03, -2.93954294e-02,
          -2.03342803e-04, -5.88825671e-03, 5.81377558e-03,
          1.43620539e-02, -1.41728893e-02, -1.75295826e-02,
          -2.84241955e-03, 1.09375324e-02, -6.97764393e-04,
          -2.89124902e-03, -1.69540588e-02, 5.79404272e-03,
          -1.84946265e-02, -5.21327108e-02, -1.74198393e-02,
          -6.39393576e-04, 1.32861082e-02, -6.32178131e-03,
          -4.16989215e-02, 1.26722436e-02, 1.33597674e-02,
          4.83116554e-03, 2.78934091e-02, -1.54015431e-02,
          -2.07062550e-02, -6.24469481e-04, -3.55468281e-02,
          -2.07386911e-02, -1.56719480e-02, 7.63921998e-04,
          5.05142147e-04, -5.77944051e-03, -1.96273159e-02,
          -2.10177433e-02, 6.86751911e-04, -1.43827610e-02,
          -1.74196120e-02, 2.40627136e-02, 2.86892802e-02,
          -6.46398775e-03, -1.85097046e-02, -8.49537365e-03,
          2.98594614e-03, 2.41957325e-02, 7.44837977e-04,
          -1.73087455e-02, 4.27323487e-03, 3.09365196e-03,
          -5.63202053e-03, -1.61075946e-02, -1.67215001e-02,
          -5.75079676e-03, 2.41591986e-02, -4.79203358e-04,
          7.29897805e-03, -2.33834665e-02, 2.79619126e-03,
          1.53102344e-02, 3.44157056e-03, -3.10621620e-03,
          -8.08838662e-03, 1.10221319e-02, 6.55785715e-03,
          5.60023496e-03, -2.49510203e-02, -1.06656766e-02,
          3.75163136e-03, -2.44121570e-02, -5.98317385e-03,
          1.57484552e-03, -8.35697073e-03, -6.30440144e-03,
          4.48201038e-02, 1.81241538e-02, 1.75156561e-03, 1.67388264e-02,
          2.10302379e-02, 1.54715711e-02, -6.30810318e-05,
          2.08202824e-02, -3.07221338e-03, 7.38328788e-03,
          1.61111262e-02, 7.59534398e-03, -3.95877939e-03,
          -3.76391131e-03, -1.35107394e-02, -4.57439059e-03,
          -9.13019944e-03, -8.90555885e-03, 2.04515923e-02,
          -1.42914737e-02, 5.14799543e-03, 2.18986217e-02,
          7.26779085e-03, -5.25164604e-03, -8.18915665e-03,
          -1.29304174e-02, 1.28631787e-02, 4.92671365e-03,
          -8.67138710e-03, -3.28490860e-05, 5.20646712e-03,
          -2.40483768e-02, -1.08016878e-02, -2.13542730e-02,
          -1.46833528e-02, -1.67343095e-02, 7.96607509e-03,
          -1.45581933e-02, -1.59755200e-02, 2.08605919e-03,
          8.29654187e-03, 1.22007690e-02, -1.19607430e-03,
          5.98438876e-03, 4.52775927e-03, -2.67181955e-02,
          -2.48410739e-02, -2.98447572e-02, -2.78743468e-02,
          -3.53379175e-02, 1.04953544e-02, 4.60726256e-03,
          1.27279498e-02, -2.74486952e-02, -1.63251371e-03,
          1.61797029e-03, -3.16596800e-03, -1.51550220e-02,
          -3.11622070e-03, 1.01384604e-02, -1.10335574e-02,
          -2.23145578e-02, -2.02007983e-02, -2.30378583e-02,
          -1.90168880e-02, -1.53235970e-02, -2.28520948e-02,
          -1.12382174e-02, 2.74136085e-02, 1.02311680e-02,
          -4.32225689e-03, -1.02951648e-02, -2.05176007e-02,
          1.06624886e-02, 6.87276991e-03, -3.32702184e-03,
          -4.91848029e-03, 1.29585443e-02, 1.71029232e-02,
          1.43341385e-02, -1.14822723e-02, -2.73425411e-02,
          -4.74834582e-03, -1.39554190e-02, -1.96673106e-02,
          -3.91705520e-02, -7.36074755e-03, 1.24713005e-02,
          2.62107030e-02, -1.07282782e-02, -2.24731173e-02,
          -3.21852812e-03, -1.57861747e-02, -9.93353035e-03,
          -1.89056415e-02, 9.06641223e-03, 1.98984053e-03,
          9.78510175e-03, 7.50767998e-03, -2.08087992e-02,
          -1.39602097e-02, -1.49153853e-02, -1.05137480e-02,
          -3.40826735e-02, -4.82530566e-03, -1.36974792e-03,
          -1.19207730e-03, -1.48160309e-02, -1.83510222e-02,
          -8.78797553e-04, -3.29307374e-03, -1.27923144e-02,
          -2.77678147e-02, -3.30926254e-02, -2.14413390e-03,
          3.08372974e-02, 7.46875070e-03, -7.56180612e-03,
          -9.26224049e-03, 2.68684272e-02, 4.70491871e-03,
          -1.34105347e-02, -1.09588811e-02, -6.20692270e-03,
          -2.24595983e-03, 9.48575966e-04, 8.45809747e-03,
          -1.38696712e-02, -2.80438308e-02, -1.32538844e-02,
          -2.01184936e-02, -1.55779105e-02, -1.31046614e-02,
          -9.85453022e-04, 1.78610273e-02, 7.44361384e-03,
          -8.72262847e-03, -4.71910015e-02, -2.88356543e-02,
          -4.95033432e-03, -2.24552862e-03, -2.82552503e-02,
          -2.55418494e-02, 4.39078605e-04, 2.11073756e-02,
          5.08207828e-03, 1.41912792e-02, 1.61259957e-02,
          -1.29177831e-02, -8.81029200e-03, -4.14125388e-03,
          1.23529388e-02, 1.86558086e-02, -1.55203985e-02,
          1.58703774e-02, -2.18706075e-02, -1.76208317e-02,
          -2.46395320e-02, 7.27018621e-03, -1.00949798e-02,
          9.63477010e-04, -1.21423451e-03, -1.40636386e-02,
          3.35456309e-04, -3.50782238e-02, -1.62500422e-02,
          -1.31305186e-02, 1.55939599e-02, 1.76071608e-03,
          -8.18824582e-03, -2.27713562e-03, -7.63782207e-03,
          -2.04835087e-02, -1.61610241e-03, 5.26201492e-03,
          -1.72168855e-02, -1.67291798e-03, -1.08053125e-02,
          1.78106839e-03, 4.90128947e-03, -1.33318305e-02,
          2.36569364e-02, 2.56858976e-03, -2.74100713e-02,
          -7.58995593e-05, -2.05269177e-03, -2.40097521e-03,
          9.95664112e-03, -1.08097410e-02, -1.79101236e-03,
          4.22481401e-03, 1.10036926e-02, 1.34225525e-02,
          -1.23195825e-02, -1.95916016e-02, -8.94821249e-03,
          1.81778967e-02, -3.11754132e-03, -5.29886270e-03,
          -1.11284954e-02, -6.91480644e-04, 2.80354749e-02,
          -9.25123878e-03, -4.39562881e-03, -1.63759962e-02,
          1.18607599e-02, 1.19272787e-02, -1.43631641e-02,
          -2.65863966e-02, -1.44732445e-02, -3.16054747e-03,
          -3.75003479e-02, 5.93003165e-03, 3.66468658e-03,
          -1.67475045e-02, -8.51402339e-03, 9.97623894e-04,
          -7.07360159e-04, 1.82337046e-03, 3.96967307e-02,
          -7.52318231e-03, -2.95794965e-03, 1.41586049e-03,
          2.84228176e-02, 9.64144152e-03, -1.58673674e-02,
          -1.60504505e-02, -2.52615544e-03, 1.57372076e-02,
          -2.14732252e-02, 2.47876719e-02, 2.03318410e-02,
          1.44534220e-03, 2.55684252e-03, -1.60685517e-02,
          -6.42454205e-03, -8.90274253e-03, 3.85559420e-03,
          -1.41789559e-02, 3.97163033e-02, 4.12612548e-03,
          -2.10702606e-02, -2.54497603e-02, -2.55814102e-02,
          -5.02369087e-03, -1.14876218e-02, -1.50159579e-02,
          -1.84956677e-02, 4.03485121e-03, -1.55631787e-04,
          -8.37812386e-03, -3.59989256e-02, 3.59284901e-03,
          7.72559410e-03, 7.82810804e-03, 1.66250132e-02,
          -5.33996988e-03, 3.38087529e-02, 1.99939888e-02,
          1.36065977e-02, 2.10971124e-02, -1.83863647e-03,
          5.64477453e-03, 9.98069160e-03, -1.49929849e-02,
          -1.60274785e-02, -3.52117978e-03, 8.14744737e-03,
          7.25765899e-03, -1.03542516e-02, -2.15694308e-02,
          2.50955187e-02, 1.80737078e-02, 7.84399826e-03,
          -5.85612934e-03, -2.44843755e-02, -1.32958563e-02,
          3.64646525e-03, -9.89993941e-03, -2.68102195e-02,
          -5.54408785e-03, -6.60292339e-03, -1.33823976e-03,
          2.83869356e-03, -7.53405970e-03, -2.66533159e-02,
          -2.82760710e-02, -2.08953731e-02, -4.34859330e-03,
          3.76368351e-02, 4.40284126e-02, 8.03671312e-03, 9.21957381e-03,
          -8.48037098e-03, -1.18304472e-02, 2.41045933e-03,
          1.26802968e-03, -2.19968874e-02, 6.84894621e-03,
          3.48910838e-02, 1.06972214e-02, 1.57244469e-03,
          -9.73107945e-03, -1.69813633e-02, -2.15490423e-02,
          -1.27323279e-02, 6.09487528e-03, 9.74745955e-03,
          -1.21089295e-02, 9.34994430e-04, -8.51289183e-03,
          1.51431244e-02, -1.33783382e-03, -1.00850519e-02,
          -1.03942154e-03, -6.54692994e-03, -1.39536231e-03,
          -2.55669113e-02, -3.52233672e-03, -2.70895865e-02,
          -2.06737928e-02, -9.86275543e-03, 5.85317519e-03,
          -1.11334929e-02, -6.33412600e-03, -8.56530573e-03,
          7.56876217e-03, 1.41282636e-03, -1.81120168e-02,
          8.80914013e-05, -1.56875455e-03, -7.65897566e-03,
          -1.19168963e-02, -9.03972145e-03, -8.45620688e-03,
          -1.12307752e-02, -1.38835777e-02, -2.41550617e-02,
          7.68331904e-03, 1.02807321e-02, 9.68202949e-03,
          -1.11029614e-02, 3.80211603e-03, 7.89332669e-03,
          -1.72555465e-02, -1.16509721e-02, -3.92990522e-02,
          -3.18077542e-02, -1.43092852e-02, -5.73949423e-03,
          2.30474323e-02, -8.84554442e-03, 4.00784984e-03,
          -7.81658664e-03, -1.96773745e-02, -5.75296301e-03,
          3.76645476e-03, 1.51943590e-03, -1.05448477e-02,
          1.78879611e-02, 4.70272778e-03, -1.57416030e-03,
          -5.88660501e-03, -2.65167304e-03, -1.60140973e-02,
          1.03463838e-02, 9.86837875e-03, 2.83280038e-03, 4.49803798e-03,
          -3.33008636e-03, 4.04619891e-03, -8.62790924e-03,
          -1.06281275e-02, 7.77744921e-03, 1.80427097e-02,
          1.72941219e-02, 1.45434709e-02, 9.07636527e-03,
          -8.29642918e-03, -5.54319425e-03, -3.20084603e-03,
          -1.29725533e-02, -4.97738877e-03, -1.17030339e-02,
          1.11288112e-02, -1.03413174e-02, 1.69001482e-02,
          2.29504164e-02, -4.61634342e-03, -1.03643844e-02,
          -2.11255681e-02, 1.19965393e-02, -1.84217107e-03,
          3.20346770e-03, -1.37102725e-02, 3.21162418e-02,
          3.49039002e-03, 1.03098042e-02, -6.95146387e-03,
          -1.16555532e-02, -9.39205568e-03, 1.98412058e-03,
          1.15078408e-02, 1.02143595e-02, 1.05021484e-02, 1.71094369e-02,
          1.85847003e-02, 2.14570612e-02, 1.45988101e-02, 1.49693387e-02,
          -4.50573768e-03, -1.48600177e-03, -2.98167057e-02,
          5.98901999e-04, 2.48937402e-02, -1.36932535e-02,
          -9.29361209e-03, 2.19342522e-02, 2.93772016e-02,
          1.10592181e-02, -8.82726628e-03, 4.27561067e-03,
          1.73874553e-02, -4.85131983e-03, -1.36861168e-02,
          8.34376551e-03, 4.75965999e-02, 3.92976776e-02, 1.75746717e-03,
          -9.98467579e-03, 6.75233873e-03, -1.42256054e-03,
          2.80491747e-02, -3.59351514e-03, 2.28596833e-02,
          2.70427037e-02, 6.96210098e-03, 2.18881890e-02,
          -2.33018231e-02, -8.78049806e-03, 8.93978029e-03,
          1.37104914e-02, -7.32643902e-03, -3.13498802e-03,
          2.30717156e-02, 7.85758719e-03, -2.52336692e-02,
          -3.28097045e-02, -3.06677097e-03, 1.09153688e-02,
          -5.74667379e-03, -1.65185649e-02, 1.43716065e-02,
          4.23302017e-02, 2.47641206e-02, -4.00169007e-03,
          -2.63754092e-02, -1.19134132e-03, 3.41428793e-03,
          2.06002127e-02, -2.53352895e-02, 2.75814044e-03,
          2.03947648e-02, 3.22740860e-02, 3.27072199e-03,
          -4.64475155e-03, 8.65051709e-03, 2.83340439e-02,
          -1.17816366e-02, -1.02296397e-02, -9.66320373e-03,
          2.76516229e-02, 9.27601103e-03, -1.52437855e-02,
          -3.32490206e-02, -2.64532659e-02, 3.40554491e-03,
          -9.28429142e-03, -1.16339894e-02, -1.84366293e-02,
          6.08753273e-03, 3.66056012e-03, 5.02660405e-03,
          -1.64543826e-03, -3.05562504e-02, 2.47106813e-02,
          2.41470244e-02, -4.25988669e-03, -7.89620169e-03,
          -4.93041473e-03, -5.29537676e-03, -9.91675444e-03,
          -5.24739316e-03, 3.51589825e-03, 1.01613244e-02,
          1.07704010e-02, 2.00841315e-02, 8.47629085e-03, 1.69662833e-02,
          5.11576561e-03, 1.46584939e-02, 5.80877531e-03, 1.06963040e-02,
          -3.45149101e-03, 4.67225816e-03, 8.34492128e-03,
          -3.27916117e-03, -1.85753368e-02, -1.81502104e-02,
          -2.10407190e-02, -3.06951231e-03, -4.12472989e-03,
          1.43833635e-02, 4.56624292e-03, 1.88263264e-02, 4.59185475e-03,
          -1.75471082e-02, -3.43050770e-02, 6.82955049e-03,
          1.06572015e-02, -1.25283818e-03, 7.43075740e-03,
          -3.97557131e-04, -8.35120864e-03, -1.96505766e-02,
          4.07096650e-03, -1.19280759e-02, 1.27559500e-02,
          -2.80580670e-03, 6.71242550e-03, -2.97450053e-04,
          -1.97382295e-03, -6.93101715e-03, -2.82415450e-02,
          -1.75582129e-03, -2.19641514e-02, 1.67933349e-02,
          6.29865006e-03, -5.74551104e-03, -7.45076640e-03,
          2.33973190e-02, 1.16974236e-02, 7.20989017e-04, 2.67971260e-03,
          -7.88803678e-03, 1.39202289e-02, -2.42723105e-03,
          -1.37641877e-02, -1.33447279e-03, 3.72754894e-02,
          1.44070564e-02, 1.71032343e-02, 1.87030137e-02,
          -4.24597003e-02, 2.42705783e-03, -1.50094554e-02,
          -2.44986545e-02, 1.86472684e-02, -1.27980020e-02,
          -1.87294825e-03, -2.01883521e-02, -2.29193103e-02,
          4.50377725e-03, 1.91183500e-02, -8.01987760e-03,
          -1.95607804e-02, -3.59439626e-02, -1.35338027e-02,
          -1.13957906e-02, 1.49951840e-03, 2.06244702e-04,
          7.73797801e-04, 4.93073091e-03, -1.42371086e-02,
          -8.67818110e-03, -2.59066466e-02, 6.73006289e-03,
          2.03430336e-02, 7.05043366e-03, 1.07911816e-02,
          -1.51780155e-02, 2.44342946e-02, -1.00438570e-04,
          6.83778524e-03, 1.22594228e-02, -1.14873340e-02,
          2.19563618e-02, -1.55801717e-02, 9.99004464e-04,
          -5.53279091e-03, 2.04202533e-02, 8.59982893e-03,
          3.71655449e-02, 4.49572597e-03, -2.57652756e-02,
          -6.22476125e-03, 7.66577851e-03, 4.21715388e-03,
          8.81415140e-03, -5.66077651e-03, -1.53120710e-02,
          -1.48263490e-02, -2.29424667e-02, -1.98338963e-02,
          -1.71279553e-02, -4.43547219e-03, -3.46380174e-02,
          -5.45705743e-02, -1.11068375e-02, -2.79993732e-02,
          -2.46184804e-02, -2.46059466e-02, 1.02801444e-02,
          2.18211729e-02, -2.30160286e-03, -8.83661036e-04,
          2.12241672e-02, 9.83453449e-03, 2.93550477e-03, 2.31999885e-02,
          1.48927858e-02, -9.83939227e-03, 2.19240654e-02,
          -1.14379991e-02, -2.14640554e-02, -1.78757869e-02,
          -1.46052137e-03, -2.42336672e-02, -1.13028325e-02,
          -2.51596817e-03, -8.40837974e-03, 2.27563493e-02,
          2.20952686e-02, -1.83759090e-02, -1.79576445e-02,
          1.83262229e-02, -1.33425612e-02, -1.47947213e-02,
          -1.03352414e-02, -2.17062943e-02, 1.15520218e-02,
          -1.20665291e-02, -2.55191457e-02, -2.38923654e-02,
          -6.71228068e-03, -1.37252063e-02, 8.76455940e-03,
          1.23321355e-04, 9.98638384e-03, 2.82198694e-02, 3.18065621e-02,
          -3.35011655e-03, -9.48270317e-03, 3.60595286e-02,
          -1.67640764e-03, 1.24837179e-02, -3.55352275e-03,
          -8.65631504e-04, 1.43057946e-02, 3.03262263e-03,
          -2.47750133e-02, -3.44498269e-02, -1.45411156e-02,
          -3.07814730e-03, 3.46454345e-02, -7.67754027e-05,
          2.60140933e-02, 3.03699542e-02, -9.00917780e-03,
          5.59391978e-04, 4.52981293e-02, 1.19535802e-02, 4.01231600e-03,
          2.29841303e-02, 1.58182383e-02, -4.82020574e-03,
          6.23123627e-03, -9.95446742e-03, 9.09651723e-03,
          2.26906445e-02, -2.39425688e-03, -1.70714166e-02,
          -6.70350017e-03, -1.52106909e-02, 1.37698399e-02,
          2.80040856e-02, 1.79167278e-03, -1.54936006e-02,
          -1.14045078e-02, -2.12315675e-02, 3.73769668e-04,
          4.13365401e-02, 1.37712955e-02, 9.11371782e-03, 9.26395319e-03,
          -1.79510545e-02, -1.05334877e-03, -2.44547203e-02,
          -2.27070227e-02, 1.76460680e-03, 3.47517547e-03,
          -1.07509578e-02, -8.35306756e-03, -8.96178838e-03,
          -1.55955795e-02, 1.09853772e-02, 1.82382371e-02,
          1.80820143e-03, -1.82703659e-02, 6.35856413e-04,
          -9.29435808e-03, -1.71801262e-02, 6.19740109e-04,
          -9.70778894e-03, -2.72762701e-02, 6.16418431e-03,
          -3.08476796e-04, -4.73211799e-03, 1.83614176e-02,
          -1.24875270e-02, 2.52816528e-02, 2.86303237e-02,
          8.32417980e-03, 1.21014668e-02, 1.14693195e-02, 4.38989559e-03,
          2.85857997e-04, -4.62980336e-03, -2.51239864e-03,
          3.38788107e-02, 4.31550145e-02, 3.72265372e-03,
          -1.59023032e-02, 5.17243845e-03, -6.78551942e-03,
          -7.98245054e-03, -3.89006687e-03, -7.16634793e-03,
          2.17812462e-03, 1.38536533e-02, 1.31776799e-02,
          -2.97870417e-03, -1.94866036e-03, -5.48094232e-03,
          8.22086073e-03, 1.92706790e-02, -1.24556385e-02,
          -3.14234011e-02, 4.03746823e-03, -5.59431734e-03,
          -1.71466591e-03, -2.61048414e-02, -2.90657599e-02,
          -8.61744862e-03, 1.36677045e-02, -1.72750931e-02,
          2.27095261e-02, 4.80115190e-02, 3.88411875e-03,
          -9.11591854e-03, -2.01193932e-02, -9.00847465e-03,
          -5.47692995e-04, -1.04502365e-02, -6.55024685e-03,
          1.50513975e-02, 3.41317207e-02, -9.62450344e-04,
          -1.24526592e-02, -4.53843065e-02, -1.69471558e-02,
          1.16381394e-02, -4.75019589e-03, 7.20693171e-03,
          -4.42091376e-02, -1.23190740e-02, -2.11467203e-02,
          4.09690384e-03, 1.13970099e-03, -3.12546417e-02,
          -3.12305875e-02, 8.12878925e-03, -3.36208940e-03,
          -1.56667233e-02, -1.24526937e-02, -4.29679407e-03,
          1.98854804e-02, 2.82514133e-02, -3.59715940e-03,
          -9.52160079e-03, -1.86933838e-02, -5.25193475e-03,
          -1.72153879e-02, 4.18409985e-03, -1.12741785e-02,
          -7.84720294e-03, -2.38014513e-06, 2.20088549e-02,
          1.23410420e-02, -2.75458512e-03, -5.20684151e-03,
          1.01172896e-02, 2.02877857e-02, 1.26834237e-03, 2.86180526e-03,
          1.31620131e-02, -6.85962988e-03, -1.89402187e-03,
          -2.13248748e-03, -1.57877710e-02, 3.71888513e-03,
          -4.11766488e-03, -1.55008547e-02, -2.31923047e-03,
          1.14746951e-02, -3.19803599e-03, 4.75572655e-03,
          3.05399601e-03, -1.00316312e-02, -1.07864244e-02,
          -3.77872773e-03, -1.71569269e-02, -1.97372437e-02,
          -8.37399345e-03, 4.19289758e-03, -7.40931882e-03,
          -1.14613827e-02, -2.40289066e-02, 1.70491561e-02,
          2.29772087e-02, -3.74713633e-03, -8.12390819e-03,
          -3.28667229e-03, -9.99301951e-03, 1.56205129e-02,
          1.29994676e-02, -1.65445842e-02, 7.03632366e-04,
          1.19163850e-02, 2.90073873e-03, 1.68731622e-02,
          -7.67846778e-03, -1.16355950e-02, -9.94260516e-03,
          1.02186892e-02, 4.96312790e-03, -2.38732155e-02,
          1.71969123e-02, -1.51681546e-02, -2.80587301e-02,
          2.33900826e-02, 1.60755944e-02, -8.01462401e-03,
          -8.09362065e-03, -2.40690913e-02, -2.06849910e-02,
          -2.52797408e-03, -2.02130936e-02, 5.34054125e-03,
          4.69163898e-03, -1.03912223e-02, -2.75603272e-02,
          -7.27840839e-03, -1.54495079e-04, -1.33365989e-02,
          2.07297765e-02, -4.65168199e-03, 1.02777109e-02,
          2.52095275e-02, 1.91137735e-02, 8.21504835e-03, 9.81097296e-03,
          2.26931111e-03, -2.41715666e-02, 1.50433769e-02,
          -3.55036231e-03, 1.85251851e-02, 3.48236971e-02,
          2.60014124e-02, -1.61288504e-03, 1.53944027e-02,
          -1.23938667e-02, -5.48899313e-03, -8.59789958e-04,
          -4.21411404e-03, 1.29201291e-02, -1.00937141e-02,
          -6.79599680e-03, -1.31256562e-02, 9.68601275e-03,
          1.35291703e-02, -6.98079029e-03, 1.37593253e-02,
          6.50276488e-04, -7.24429591e-03, -4.08044830e-02,
          -6.89585693e-03, 4.79693012e-03, 4.55310522e-03,
          -1.40386857e-02, 9.13585164e-03, 2.50240676e-02,
          1.03549929e-02, 2.24829349e-03, 1.17067182e-02, 1.82643346e-02,
          -1.65108424e-02, 4.50874912e-03, 1.08466474e-02,
          1.82927437e-02, 3.31105888e-02, 2.04651318e-02, 1.02820788e-02,
          -2.25961450e-02, 1.00251008e-02, 2.11801194e-03,
          1.18075255e-02, 7.56714633e-03, -1.42810587e-02,
          5.59408870e-03, -7.15062302e-03, -1.55338645e-02,
          -1.59367528e-02, -9.41774866e-04, 5.50809829e-03,
          1.27708474e-02, -3.43909301e-03, -2.28798464e-02,
          -2.68013477e-02, -1.98245607e-02, -1.77295338e-02,
          -2.65151747e-02, -5.78334322e-03, -3.30630364e-03,
          1.40996492e-02, -2.18899213e-02, 5.25002275e-03,
          2.41264775e-02, 8.59252270e-03, -5.12732186e-05,
          1.90189034e-02, 3.63434218e-02, 5.49678132e-03, 2.62849908e-02,
          1.01758968e-02, -1.89245492e-02, -8.77145585e-03,
          -1.66302714e-02, 4.00320906e-03, 1.51429791e-03,
          2.17939708e-02, 1.34762691e-03, 4.21531796e-02,
          -8.06530099e-03, -5.82907675e-03, 5.05023124e-03,
          2.03824416e-02, 6.04347466e-03, -1.55299958e-02,
          -2.17522332e-03, 1.47135966e-02, 1.19372047e-02,
          -5.22134453e-03, -2.88910102e-02, -1.57780084e-03,
          9.66427289e-03, 1.53899682e-03, -2.01806929e-02,
          -2.82481518e-02, -1.54062444e-02, -2.19475757e-02,
          -2.45719515e-02, 1.37409219e-03, -3.65451514e-03,
          -3.78604676e-03, 1.99236348e-02, 1.01786209e-02,
          3.53167648e-03, 2.50614639e-02, 2.72929948e-02,
          -3.20589473e-03, -2.55465209e-02, -1.91703457e-02,
          -1.96301322e-02, -3.20026255e-03, 9.41602420e-03,
          -7.85131566e-03, -1.91439013e-03, 3.96363810e-03,
          -1.83895510e-02, -1.25889918e-02, -8.69343989e-03,
          -6.30874565e-05, 2.14752695e-03, -2.21058866e-03,
          -1.96661167e-02, -1.03499033e-02, 3.81206075e-04,
          -3.26480065e-03, -2.62130164e-02, -3.04419380e-02,
          -3.21511365e-02, 3.92495794e-03, -1.56662520e-02,
          -9.61740036e-03, -8.69598892e-03, -5.70332259e-03,
          -1.09772105e-02, -8.21282901e-03, 2.74180993e-03,
          8.12864490e-03, -1.67421252e-02, 1.85335288e-04,
          -2.04153210e-02, -1.32038333e-02, 1.76670365e-02,
          1.01189623e-02, -3.84167321e-02, -9.85811697e-04,
          2.62476060e-05, 1.74277071e-02, 1.02224050e-03,
          -1.49202440e-02, -1.37399863e-02, -1.91755537e-02,
          -4.64693606e-02, 4.11782088e-03, -2.39466764e-02,
          -1.34197110e-02, 1.81835121e-03, -1.11159291e-02,
          2.02676300e-02, -5.97633701e-03, -1.49961486e-02,
          1.91151944e-03, -7.56715750e-03, -1.52766397e-02,
          -7.98230898e-03, -5.59174549e-03, 1.45008473e-03,
          2.19788030e-02, -2.36392324e-03, -2.94345082e-03,
          -1.45892249e-02, -5.77577809e-03, -1.58842979e-03,
          -8.87476653e-03, 2.10086349e-02, -3.88793135e-03,
          1.53105976e-02, -3.58483917e-03, -3.44774574e-02,
          -3.59089524e-02, -4.31996025e-03, -2.42880802e-03,
          6.22827047e-03, 2.62795780e-02, -2.47082789e-03,
          6.09316025e-03, -1.90649286e-03, -3.32059972e-02,
          -4.26665246e-02, 3.14517412e-03, -1.29318573e-02,
          -1.99914295e-02, -2.08147783e-02, -1.99577678e-02,
          1.35884210e-02, 6.77248323e-03, -4.27043810e-03,
          -1.31968304e-03, 1.83267891e-02, 9.56966658e-04,
          1.32888183e-03, -8.16341117e-03, -2.61566835e-04,
          -1.34332096e-02, -1.73939597e-02, -3.56255434e-02,
          2.18541338e-03, 1.90949198e-02, -3.59918969e-03,
          -1.35403976e-03, 1.90003030e-02, -4.80862800e-03,
          -1.22683328e-02, 1.58764180e-02, -1.27085699e-02,
          -1.61168519e-02, 3.67581472e-02, 4.49609151e-03,
          2.29968643e-03, -8.98976903e-03, -6.36075996e-03,
          -2.30181888e-02, -1.70503892e-02, -1.79810543e-02,
          1.07455039e-02, -1.98874320e-03, -1.07636424e-02,
          5.54853631e-03, 1.14768501e-02, 2.62905681e-03, 2.02918220e-02,
          -7.94653839e-04, 1.18326833e-02, 6.47427049e-03,
          -7.47173280e-03, -1.70190502e-02, -1.02100968e-02,
          1.09408256e-02, 2.16802265e-02, 1.72586588e-03,
          -1.29841277e-02, 1.70692801e-02, 1.48811480e-02,
          1.10857813e-02, -1.33074094e-02, -1.12934671e-02,
          -5.35775954e-03, 1.64949875e-02, 1.31946206e-02,
          -8.99547059e-03, 9.13501345e-03, 3.27403657e-02,
          3.35052572e-02, 1.52780507e-02, -2.21913457e-02,
          1.28683960e-03, 2.10451297e-02, 2.24578176e-02, 1.37386583e-02,
          2.67826114e-02, 3.66605036e-02, -3.00705004e-02,
          2.72395299e-03, -2.47905776e-02, 9.42270085e-03,
          2.70066559e-02, 1.15561467e-02, -2.47053243e-02,
          3.40691884e-04, -1.39052002e-03, -8.15823954e-03,
          1.23497574e-02, -1.08854845e-02, 1.79350451e-02,
          3.41521762e-02, 2.74106488e-02, 3.67305847e-03,
          -1.58178601e-02, 3.76318302e-03, 1.01682311e-02,
          1.19167455e-02, -1.10114133e-02, -9.96816088e-04,
          2.80213682e-03, 1.81740914e-02, 1.91275310e-03, 1.42519902e-02,
          2.49880552e-03, 1.14105949e-02, 2.27872990e-02, 8.80864169e-03,
          3.58996703e-03, -7.11280433e-03, 7.89115392e-03,
          4.61244164e-03, 6.39927061e-03, 7.72455567e-03,
          -2.94794748e-03, 2.16103788e-03, -1.59590244e-02,
          -1.22169266e-02, 2.91255722e-03, -1.98962037e-02,
          -7.70097179e-03, -1.28896125e-02, -1.26485908e-02,
          1.27319796e-02, 1.22424047e-02, -7.29244808e-03,
          1.20339431e-02, -1.60180591e-02, 5.09795919e-03,
          -7.77572300e-03, -3.45376600e-03, -1.65949427e-02,
          1.65658947e-02, 7.55482120e-03, -1.13274790e-02,
          5.24669653e-03, 1.73744261e-02, -1.50727648e-02,
          -1.30617628e-02, -4.86342842e-03, 1.34816337e-02,
          1.32538565e-02, 2.03721244e-02, 7.81906303e-03, 3.08883414e-02,
          -3.78032424e-03, 1.98791083e-02, -2.49904301e-02,
          -8.72802362e-03, 1.36784371e-02, -1.11925108e-02,
          5.31070819e-03, -6.20282721e-03, 1.69325806e-02,
          -9.78202675e-04, -2.80673383e-03, -3.06034423e-02,
          -3.97234522e-02, -4.04328518e-02, 2.30699754e-03,
          2.42671389e-02, 2.86909416e-02, 5.75373024e-02,
          -1.38047412e-02, -1.95335057e-02, -3.88510823e-02,
          -3.29165459e-02, -2.61461809e-02, 9.38322581e-03,
          1.32489335e-02, 1.84701774e-02, 3.30213457e-02, 8.77252221e-03,
          1.62035413e-02, -2.54980680e-02, -3.90569754e-02,
          -2.31707022e-02, 3.15843374e-02, 6.45368919e-02,
          6.31704330e-02, 7.65356347e-02, 1.74404662e-02, 3.61540914e-02,
          2.31873933e-02, 1.37714380e-02, 1.66327357e-02, 5.05114952e-03,
          1.56934951e-02, -6.41458435e-04, 6.18298305e-03,
          -2.88075600e-02, -1.09385215e-02, -2.40350459e-02,
          8.20835028e-03, -2.95664812e-03, -2.86058597e-02,
          1.64944325e-02, 1.59164798e-02, 5.13752457e-03,
          -3.27839181e-02, -1.63235404e-02, -7.14121806e-03,
          2.63926499e-02, -2.60180160e-02, 2.83916909e-02,
          7.68286884e-02, 3.56476940e-02, 2.81651355e-02, 1.25469267e-02,
          1.17526669e-02, 1.34604899e-02, 4.43049334e-02, 3.16225402e-02,
          8.92902957e-04, 5.00076003e-02, 5.50913326e-02, 4.63529341e-02,
          -9.42567084e-03, 1.77225145e-03, 2.32244842e-02,
          6.57570735e-02, -9.89725348e-03, 5.01408009e-03,
          7.32175037e-02, 6.44416511e-02, 3.16190049e-02, 4.89272352e-04,
          -6.35512127e-03, 2.02482357e-03, 2.25216132e-02,
          -3.15188337e-03, -1.14861073e-03, 5.20715788e-02,
          1.37082180e-02, -9.06477962e-03, -3.71135622e-02,
          -3.66177261e-02, -4.19092961e-02, -1.24228336e-02,
          -9.51653905e-03, -1.25372577e-02, 8.73433724e-02,
          1.03320882e-01, 6.68244883e-02, 8.15342925e-03, 1.74510982e-02,
          2.25556530e-02, 4.52231243e-02, -1.02850115e-02,
          -3.62159647e-02, 4.26594168e-02, 2.07632501e-02,
          -7.13594817e-03, -4.50693630e-02, -2.99222898e-02,
          -1.83400735e-02, -2.30841804e-02, -5.84724694e-02,
          3.71106318e-03, 3.98551524e-02, 2.48097349e-02, 2.03465298e-02,
          -2.68835947e-03, 2.61106659e-02, 1.37906400e-02,
          2.05668975e-02, -1.03213480e-02, -4.12628427e-03,
          3.61537747e-02, 1.92506835e-02, -2.05770656e-02,
          -4.50147316e-02, -8.25169962e-03, 1.93987545e-02,
          2.18143277e-02, -5.55635337e-03, -6.75763981e-03,
          3.75421159e-02, 1.94416232e-02, -8.98960792e-03,
          -3.90964039e-02, 2.79745553e-03, 7.66721461e-03,
          -8.06228071e-03, -2.40476523e-02, -1.20475320e-02,
          2.14640070e-02, -7.55724451e-03, -3.93282957e-02,
          -6.40164167e-02, -2.40178946e-02, -4.26415121e-03,
          -4.49090730e-03, -1.44060412e-02, 2.69395337e-02,
          3.26638073e-02, 6.24301890e-03, -1.93117019e-02,
          -3.91653851e-02, -3.73334400e-02, 1.92788953e-04,
          4.08795998e-02, 1.89918298e-02, 1.80269424e-02, 1.30305421e-02,
          -3.02766147e-03, -1.64623000e-02, -4.88030948e-02,
          -1.86692104e-02, 1.48027362e-02, 4.62249741e-02,
          -4.05251794e-03, 1.84009094e-02, 3.67452465e-02,
          -1.81196816e-02, -2.82447226e-02, -3.20762098e-02,
          -4.13865186e-02, -1.78592987e-02, 1.81508698e-02,
          1.38431499e-02, 2.08681375e-02, 1.08447587e-02,
          -2.73043923e-02, -3.11119817e-02, -2.81274412e-02,
          -4.00010832e-02, -1.68480687e-02, 1.60998758e-02,
          8.99306405e-03, 6.46373024e-03, 2.15781536e-02, 7.85672199e-03,
          7.31845526e-03, -2.70536412e-02, 1.30578801e-02,
          3.79536580e-03, 1.52803091e-02, -5.18410141e-03,
          1.62148383e-02, 1.02930041e-02, -1.73573997e-02,
          -2.52077542e-02, -1.44618973e-02, -1.74138125e-03,
          3.88047099e-03, -6.77396683e-03, -1.66637171e-02,
          2.08177860e-03, 6.12529414e-03, -4.48870845e-03,
          -1.07034305e-02, -2.52243150e-02, 1.80089020e-03,
          1.42098346e-03, 2.24262960e-02, 1.53198792e-02,
          -1.56738888e-02, -2.76665739e-03, -1.98875293e-02,
          -1.31173078e-02, -8.55059270e-03, 1.56007637e-03,
          -1.30087212e-02, 1.18987560e-02, 4.55558021e-03,
          2.17941999e-02, 2.56628320e-02, -2.65317806e-03,
          -2.74556782e-02, -3.43712643e-02, -7.70576065e-03,
          -1.29591115e-02, -1.57713946e-02, 1.03640351e-02,
          4.07321602e-02, 3.55961584e-02, -3.17536737e-03,
          -4.17413637e-02, -2.63413340e-02, -5.06037567e-03,
          -7.46769598e-03, -7.62588112e-03, 2.86216270e-02,
          1.43919848e-02, 2.84675900e-02, -3.18002049e-03,
          -8.96685012e-03, -1.49161723e-02, -8.28615669e-03,
          -8.16441700e-03, 5.68473479e-03, -8.02217342e-04,
          4.84746695e-03, 2.10126024e-02, -1.98030490e-02,
          -3.25157605e-02, -6.18996972e-04, -8.62229057e-03,
          -1.62310414e-02, 1.35520182e-03, -3.28218825e-02,
          4.79037091e-02, 3.07608824e-02, -1.94632150e-02,
          -3.98860909e-02, 8.29258934e-03, 4.23430372e-03,
          -9.03913472e-03, 2.30155885e-03, 2.50167884e-02,
          4.00598831e-02, 4.20182832e-02, -2.08396651e-02,
          -3.63194346e-02, 6.80345064e-03, -2.77905315e-02,
          9.38014407e-03, 1.14317075e-03, 7.64367462e-04, 1.12268655e-02,
          2.61078384e-02, -3.97017486e-02, -4.73035499e-02,
          -2.00157575e-02, -3.36741954e-02, -1.15333553e-02,
          1.59118809e-02, 1.93688995e-03, -2.28608842e-03,
          9.85823572e-03, -3.83679532e-02, -5.55853806e-02,
          -3.18249464e-02, -3.76646966e-02, -1.02435462e-02,
          1.01944581e-02, -1.89440995e-02, 3.69099192e-02,
          3.01808286e-02, 3.49126337e-03, -1.56052792e-02,
          -1.62197538e-02, -4.98711877e-02, -4.87580523e-03,
          2.52796765e-02, 5.00768935e-03, 3.74806486e-02, 2.67293211e-02,
          1.43161342e-02, -1.49932234e-02, -1.89243052e-02,
          -4.49880920e-02, -2.64399853e-02, 1.23471916e-02,
          3.14696729e-02, 1.18523203e-02, 3.04795429e-02,
          -2.80634249e-05, -3.32009196e-02, -4.41483893e-02,
          -5.07566296e-02, -5.67714823e-03, 3.06807719e-02,
          -2.46294178e-02, 2.76560392e-02, 2.77650375e-02,
          4.37363982e-03, -5.33322655e-02, -4.15140428e-02,
          -5.37353754e-02, -1.91515777e-02, 4.60202852e-03,
          1.26594482e-02, 9.21242218e-03, 3.50370556e-02,
          -4.57353517e-03, -7.89788458e-03, 2.83479993e-03,
          -2.38423352e-03, -2.70332694e-02, 2.83714477e-03,
          1.27325226e-02, 8.78407434e-03, 3.13343704e-02,
          -6.22163480e-03, -2.77181459e-03, 3.07378097e-04,
          1.92663734e-04, -1.45106455e-02, 4.23182966e-03,
          1.21078147e-02, 8.31665820e-04, 4.74910140e-02, 1.48428336e-03,
          -3.73356603e-02, -2.60879342e-02, -1.85751393e-02,
          -5.32432867e-04, 1.43177435e-02, 1.11127859e-02,
          1.42092546e-02, 4.93812934e-02, 1.65725488e-03,
          -3.22889201e-02, -1.85334962e-02, 1.56811962e-03,
          7.77221797e-03, 1.98846944e-02, 1.99507121e-02, 3.37417144e-03,
          1.25372484e-02, -1.14534516e-02, -1.83874983e-02,
          -1.87898874e-02, -1.70127526e-02, -3.05000301e-02,
          2.35807896e-03, 5.58260176e-03, 1.14327129e-02, 1.71772260e-02,
          -5.55017451e-03, -1.60562862e-02, -9.67016164e-03,
          -8.15995783e-03, -1.62277892e-02, 1.44758867e-02,
          2.08733156e-02, 3.86831909e-02, 3.01600136e-02, 6.50677038e-03,
          -3.15964669e-02, -4.32528891e-02, -2.61702556e-02,
          -7.20589422e-03, 3.28523889e-02, 3.68217416e-02,
          1.86289903e-02, 2.70358194e-02, 2.55511235e-02, 9.85400379e-03,
          -6.37241174e-03, -2.05092076e-02, -8.51987954e-03,
          2.98366193e-02, 5.49870506e-02, -1.84836183e-02,
          1.68061331e-02, -1.73449237e-02, -2.17069648e-02,
          -6.87178411e-03, 1.25830425e-02, -1.15819694e-02,
          -5.54387178e-03, 1.54110219e-03, -6.23285882e-02,
          -1.57519598e-02, -1.76887866e-02, -1.58628181e-03,
          4.14368417e-03, -6.72033580e-04, -1.58938542e-02,
          -1.62055977e-02, -4.87692095e-02, 6.56601973e-03,
          2.92722583e-02, 1.91590451e-02, 1.71235006e-03,
          -2.29125749e-03, -2.01083515e-02, -2.20314302e-02,
          1.83214210e-02, 3.66297737e-02, -3.35421413e-02,
          2.26292686e-04, -4.95026400e-03, 5.13750478e-04,
          1.77748948e-02, 1.26851341e-02, -3.78122670e-04,
          7.70738861e-03, -1.08495820e-02, -1.31011913e-02,
          6.04345184e-03, 1.03854388e-03, 3.94380316e-02, 3.23895998e-02,
          -6.58992212e-03, 1.81863811e-02, -1.77656731e-03,
          -1.60932057e-02, -3.00251804e-02, -2.48483568e-02,
          -4.36820649e-02, -2.49747932e-02, 1.43944826e-02,
          -2.46885070e-03, -1.63257085e-02, -3.16309705e-02,
          -3.86910252e-02, 1.62755940e-02, 4.19943705e-02,
          1.44587122e-02, 3.51231731e-02, 7.08258674e-02, 3.36806625e-02,
          3.61136459e-02, 3.50897163e-02, 2.14275792e-02,
          -2.39940342e-02, -3.25976945e-02, -4.04749438e-02,
          -1.50333839e-02, -1.13504451e-04, 7.96755869e-03,
          -1.12940175e-02, -2.15070136e-02, -3.11808810e-02,
          5.41914348e-03, 1.81884803e-02, 3.18671591e-05,
          -1.40396738e-02, -4.08300152e-03, 3.79025773e-03,
          -9.26059671e-04, 1.22261755e-02, 1.27318986e-02,
          -3.05834711e-02, 4.39124042e-03, -3.59403086e-03,
          9.65320878e-03, -1.68066528e-02, 8.99610016e-03,
          2.01228377e-03, -1.54660353e-02, -2.21150909e-02,
          -1.58999802e-03, -6.40021730e-03, -2.48197503e-02,
          -1.43985236e-02, -6.54050102e-03, 2.17270572e-02,
          2.09514592e-02, -1.95101765e-03, 2.63658911e-03,
          -1.41825145e-02, -1.55465640e-02, -3.42072323e-02,
          -1.08710118e-02, -3.56692411e-02, 9.38937254e-03,
          1.98809826e-03, -1.96365686e-03, -8.25558789e-03,
          2.64659058e-03, 1.14838444e-02, -8.94658675e-04,
          1.08934930e-02, -6.91215554e-03, 1.94919687e-02,
          1.18406804e-03, -1.58690028e-02, -5.93745615e-03,
          -6.64598821e-03, -9.33916401e-03, -2.29114271e-03,
          2.39661690e-02, -5.20914001e-03, 2.30585676e-04,
          8.03768542e-03, -1.35309864e-02, -2.81371381e-02,
          -7.72521412e-03, 9.71748959e-04, -9.79491509e-03,
          -6.60494668e-04, -2.85834819e-02, 4.32770001e-03,
          -1.01324054e-03, 5.09524534e-06, -2.33420730e-03,
          -6.56377012e-03, -6.79525733e-03, 8.19685776e-03,
          6.32025674e-03, 7.57886888e-03, -1.57252396e-03,
          1.05364798e-02, -6.19773939e-03, -2.11649127e-02,
          -1.23162232e-02, -9.49295610e-03, 5.59705170e-03,
          3.03602107e-02, -6.11348171e-03, -1.91943944e-02,
          -1.93421356e-03, -1.36296721e-02, -2.72767860e-02,
          1.40028959e-02, -4.80552437e-03, 9.61404666e-03,
          4.52315761e-03, -1.67554859e-02, -9.02527478e-03,
          -1.71470866e-02, -1.06667131e-02, 1.12041663e-02,
          -1.59334391e-02, -3.81261595e-02, -2.04058620e-03,
          3.44851054e-03, 5.09848446e-03, -1.17108719e-02,
          4.90299053e-03, -4.47278796e-03, -3.46422382e-02,
          -1.29591059e-02, -4.20965515e-02, -3.31558473e-03,
          1.28483009e-02, -6.81990758e-03, 6.57922123e-03,
          1.62835065e-02, -9.04406514e-03, -9.51757189e-03,
          5.01685496e-03, 1.81329460e-03, 4.88415034e-03, 8.28755647e-03,
          1.59547739e-02, 1.62312929e-02, -5.29539539e-03,
          -9.92080849e-03, 1.47133693e-02, 1.78291313e-02,
          1.21934349e-02, -6.56975061e-03, 3.00574861e-03,
          7.25607737e-04, 1.73436645e-02, 8.88980925e-03, 4.80858935e-03,
          1.70390680e-02, 1.71188060e-02, -1.76452473e-02,
          -1.45867532e-02, 3.21838818e-03, 3.63914249e-03,
          9.92273726e-03, 5.00946585e-03, -6.10658713e-03,
          1.35061173e-02, 1.01910429e-02, -8.11670814e-03,
          1.35177346e-02, 2.32061781e-02, -4.77851043e-03,
          -4.99393744e-03, -1.79518724e-03, 2.25282628e-02,
          1.07560260e-02, -4.01384430e-03, -2.57302052e-03,
          -3.93811660e-03, -4.78113024e-03, -6.46843435e-03,
          3.90552985e-03, -8.74819607e-03, -5.54843992e-03,
          -3.43864062e-03, 1.82403754e-02, 5.95756946e-03,
          4.23664786e-03, -1.60218822e-03, 5.00706350e-03,
          -1.02127669e-02, 3.65355145e-03, 1.14364196e-02,
          2.04951968e-02, -2.47957697e-03, -5.08486852e-03,
          1.70730092e-02, 1.78006440e-02, -7.90816208e-04,
          -8.98161251e-03, -7.99916591e-03, 1.52094858e-02,
          1.54336827e-04, 1.79699361e-02, 2.51489654e-02, 1.19751142e-02,
          -4.40646661e-03, -1.46903691e-03, -1.18687516e-02,
          9.43555404e-03, 2.01816577e-02, 5.74815180e-03,
          -1.40811782e-04, -2.30674222e-02, -2.79208589e-02,
          -8.90448876e-03, 4.67110629e-04, -9.56751406e-03,
          -3.23569626e-02, -1.51635883e-02, 1.20907780e-02,
          -1.08262047e-03, -1.43432058e-02, -4.04834794e-03,
          4.05683555e-02, 3.64291333e-02, 5.63989803e-02,
          -5.03515219e-03, -2.41379552e-02, 2.61650141e-03,
          1.38756819e-02, 4.34758281e-03, -3.00291590e-02,
          -2.24394780e-02, -8.01454205e-03, -1.34966867e-02,
          -1.90547630e-02, -3.49249691e-03, 1.57275721e-02,
          -4.69366409e-04, -1.73070058e-02, -1.72793381e-02,
          2.99977064e-02, 2.26352643e-02, 4.91205156e-02, 4.91072936e-03,
          -5.00215404e-03, 1.68431029e-02, 2.56245467e-03,
          -7.21650245e-03, -4.32690186e-03, 1.91182345e-02,
          -6.74415659e-03, 2.80570220e-02, -1.33105619e-02,
          -2.88668666e-02, -8.24527629e-03, 2.78104953e-02,
          5.91274649e-02, 5.34567572e-02, 4.49855104e-02, 2.94099981e-03,
          4.21858281e-02, 3.52160037e-02, 3.76630798e-02, 3.14034596e-02,
          -2.27133110e-02, -1.13941645e-02, -2.46674474e-02,
          2.82328972e-03, 5.83805563e-03, 1.37521839e-02,
          -8.11403224e-05, -2.93050762e-02, -1.61645412e-02,
          2.03039311e-02, 2.32976563e-02, 1.40685393e-02, 2.90170107e-02,
          -1.49695026e-02, 4.23060581e-02, 5.53468205e-02,
          4.83671799e-02, 1.77303180e-02, 1.42669156e-02, 6.17527850e-02,
          3.40622179e-02, 1.24288946e-02, -7.04074884e-03,
          2.12032087e-02, 2.49694027e-02, 4.85902056e-02, 1.74693707e-02,
          -2.21615471e-02, 4.67080958e-02, 4.03026417e-02,
          2.36280821e-02, -2.69084405e-02, 1.19738197e-02,
          2.69784220e-02, 3.37473787e-02, -1.97372306e-02,
          8.51446576e-03, 4.02372740e-02, 1.85359120e-02, 1.52355339e-02,
          -1.35946963e-02, 3.14757526e-02, 5.57037555e-02,
          6.61695376e-02, 2.69719493e-02, -2.26592775e-02,
          3.82963270e-02, 3.40561084e-02, 2.89003290e-02,
          -3.66545618e-02, 1.79537907e-02, 5.38890436e-02,
          3.12838741e-02, -2.25797296e-02, -3.35925743e-02,
          6.84856027e-02, 7.02751353e-02, 6.58877045e-02, 2.28816289e-02,
          5.86880259e-02, 4.84132916e-02, 4.78832051e-02,
          -1.67160966e-02, -8.02427009e-02, 2.73380079e-03,
          7.34632695e-03, -9.94569436e-03, -2.44186502e-02,
          -4.75405995e-03, 1.62301250e-02, -5.11316396e-03,
          -6.50671571e-02, -2.39947606e-02, 5.99852465e-02,
          6.27839416e-02, 6.25227839e-02, 1.69774052e-02, 7.47639686e-02,
          8.30199569e-02, 6.41505346e-02, -4.15359139e-02,
          -8.33053440e-02, -1.68972891e-02, 1.67068988e-02,
          -2.39029098e-02, -3.21312100e-02, 5.97470393e-03,
          1.68342125e-02, -1.01867178e-03, -9.54582319e-02,
          -3.10351886e-02, 2.33003553e-02, 3.39077273e-03,
          -9.09535959e-03, -3.31448577e-02, 7.37311202e-04,
          7.37221073e-03, -6.94134273e-03, -2.52789669e-02,
          -3.56858596e-02, -1.57541614e-02, -3.13412622e-02,
          -3.06340549e-02, -5.02201393e-02, -8.36504251e-03,
          -1.01697305e-02, -6.74458360e-03, -3.07269092e-03,
          -3.50807123e-02, 7.62619497e-03, 1.96486600e-02,
          -1.23420050e-02, -3.44659649e-02, 4.48612869e-03,
          2.97176628e-03, 1.08344397e-02, -2.90495846e-02,
          3.66621884e-04, -1.13653736e-02, -2.45394558e-02,
          -2.74312925e-02, -6.01846501e-02, -2.27639219e-03,
          -2.12127138e-02, -2.90047992e-02, -1.14099532e-02,
          -3.13066654e-02, -2.27928683e-02, -1.94976740e-02,
          -1.41739268e-02, 1.03810970e-02, 1.00418944e-02,
          -8.43367819e-03, -7.94961769e-03, -1.57764163e-02,
          -4.16098051e-02, -1.64196566e-02, -2.70827133e-02,
          -1.84944905e-02, -2.21990165e-03, -1.78061388e-02,
          -1.41959172e-02, -3.55153368e-03, -3.91453579e-02,
          -1.55219249e-02, -1.05276816e-02, -2.28210445e-02,
          -1.88511778e-02, -4.98726638e-03, 1.11043053e-02,
          -1.23122856e-02, -2.58844439e-02, -1.45791937e-02,
          -2.81229634e-02, -5.53471642e-03, -1.37815438e-02,
          -1.43732913e-02, -1.32791791e-02, -1.90768857e-02,
          -2.96910852e-02, -1.70190837e-02, -2.64737997e-02,
          -4.12240699e-02, -5.30910213e-03, -1.33185480e-02,
          -1.16489176e-03, 2.36233454e-02, 8.36022384e-03,
          -1.14812292e-02, 2.12817336e-03, -3.85408923e-02,
          -3.71528566e-02, -2.59228740e-02, -3.28394361e-02,
          5.44382166e-03, 4.98786755e-03, 7.25376559e-03,
          -3.40572074e-02, -3.29680071e-04, -4.34793718e-02,
          -3.37009355e-02, 5.17000910e-03, -7.79355702e-04,
          -2.21098377e-03, 1.10188816e-02, -8.62904781e-05,
          -1.58420280e-02, -7.60751870e-03, -3.28686573e-02,
          -5.23692667e-02, -1.02129141e-02, -1.34249683e-02,
          -3.00562428e-03, -7.96581153e-03, 1.77623592e-02,
          -4.83845435e-02, -3.12392339e-02, -5.75300679e-02,
          -1.66685488e-02, -1.26322750e-02, -1.28181446e-02,
          7.99568556e-03, 7.01231649e-03, -2.60273670e-03,
          -3.00681163e-02, -2.51629855e-03, -2.04413608e-02,
          -3.48790251e-02, -1.14508690e-02, -4.11503129e-02,
          -7.81572773e-04, 2.45518181e-02, -2.72790738e-03,
          -4.67730034e-03, -1.07400324e-02, -3.97728123e-02,
          -3.10170539e-02, -1.00173801e-02, -2.15560943e-03,
          4.76436364e-03, -1.95289426e-03, 4.31519933e-04,
          -2.94297896e-02, -1.52905751e-02, -3.88760567e-02,
          -4.05951776e-02, -2.39850897e-02, -1.76327489e-02,
          -3.24363075e-02, 1.69758238e-02, -7.90021569e-03,
          -3.26093137e-02, -1.18539743e-02, -3.38690504e-02,
          -3.25869024e-02, 1.83391757e-02, -1.74672492e-02,
          -2.21050791e-02, 5.80052333e-03, -2.42543146e-02,
          -8.53490084e-03, 2.47167181e-02, -4.42124344e-03,
          -1.94034930e-02, 1.91872788e-03, -1.45564061e-02,
          -1.93912219e-02, 1.17848022e-02, -2.26702020e-02,
          -6.90829568e-03, 1.38492519e-02, -1.63310021e-02,
          -3.18683335e-03, 1.61929131e-02, -1.43584833e-02,
          -3.69575918e-02, -7.88152684e-03, -3.80190648e-02,
          -2.05821078e-02, 1.24951405e-02, -3.17033455e-02,
          -2.09165998e-02, 8.16837605e-03, -1.27730332e-02,
          -3.01921964e-02, 1.09630805e-02, -3.86729911e-02,
          -2.15382744e-02, -6.66851550e-03, -1.49784246e-02,
          -9.30723362e-03, 3.24133262e-02, 7.80467456e-03,
          -1.71527930e-03, -2.91909487e-03, -1.47132529e-02,
          1.73507556e-02, 5.01177274e-02, -1.49086444e-02,
          1.22737279e-02, 3.14372629e-02, 1.43942013e-02,
          -3.92012224e-02, -2.82856338e-02, -3.01475562e-02,
          2.43292134e-02, 5.81218340e-02, 3.61349504e-03,
          -1.25487177e-02, 4.36611772e-02, -3.24153272e-03,
          -1.96084082e-02, 3.92001966e-04, -2.12069228e-02,
          2.78890319e-03, 3.26316468e-02, -6.39482122e-03,
          -9.41816310e-04, 4.47745770e-02, -1.39841111e-02,
          -4.54228148e-02, -2.93850340e-02, -5.05206101e-02,
          2.36817114e-02, 2.42080055e-02, -2.73329765e-03,
          1.87816955e-02, 4.20427360e-02, 1.23047205e-02,
          -3.37751620e-02, -2.24058684e-02, -3.05082891e-02,
          4.78933705e-03, 5.21910973e-02, -1.83556962e-03,
          2.81835087e-02, 4.28670682e-02, -1.36243701e-02,
          -2.76559852e-02, -1.09484112e-02, -1.22297965e-02,
          3.26489261e-03, 3.00792810e-02, 1.22214695e-02, 1.08241774e-02,
          4.67200279e-02, -9.50769801e-03, -3.96788977e-02,
          -2.68473420e-02, -6.11750223e-02, 8.64495616e-03,
          4.09359746e-02, 2.50362325e-02, 2.43061893e-02, 1.51743609e-02,
          -7.34060910e-03, -2.58750422e-03, -1.39440726e-02,
          -3.68381068e-02, -1.42082879e-02, 4.35954556e-02,
          4.08805124e-02, 1.16939377e-02, 2.56644990e-02,
          -8.60655960e-03, -3.92922983e-02, -3.28886285e-02,
          -3.76610905e-02, -1.75921805e-02, 2.19474845e-02,
          2.02788338e-02, 8.96415487e-03, 3.00257523e-02, 2.12066304e-02,
          -2.31076940e-03, -2.53367312e-02, -3.23168375e-02,
          -2.13248539e-03, 3.04255038e-02, 3.30702923e-02,
          2.59917304e-02, 4.22189152e-03, -2.65949070e-02,
          -2.97306534e-02, -2.81165093e-02, -4.14986350e-02,
          -1.34229297e-02, 3.41871083e-02, 1.58784371e-02,
          2.77310722e-02, 2.20262744e-02, 1.33006787e-02,
          -1.68288182e-02, -1.74068809e-02, -3.41122039e-03,
          1.27754621e-02, 3.01072169e-02, 5.93372295e-03,
          -3.32026407e-02, 6.40529394e-03, 2.36943401e-02,
          7.10516749e-03, -1.36735868e-02, -2.40541641e-02,
          -2.13844255e-02, 1.36209354e-02, 1.44777149e-02,
          -7.06106350e-02, -2.40844907e-03, 6.27676584e-03,
          -9.45201796e-03, 2.11475212e-02, 1.06974551e-02,
          -9.63062979e-04, 1.38778295e-02, -3.83951329e-02,
          7.96323549e-03, 5.75252017e-03, -3.91110824e-03,
          -9.46974382e-03, -1.35140270e-02, 1.68551039e-02,
          1.67918496e-03, -6.20316714e-04, -1.66190807e-02,
          -4.08165790e-02, -5.30627510e-03, -2.47543794e-03,
          1.17561631e-02, 1.04263630e-02, 9.91068501e-03, 2.16911873e-03,
          -1.81555506e-02, -5.28334156e-02, -1.90146472e-02,
          3.18073928e-02, 1.59309395e-02, 1.35639291e-02, 4.46230024e-02,
          4.85613830e-02, 4.23968136e-02, 3.11318375e-02,
          -9.55841097e-04, -3.74292471e-02, -3.13320681e-02,
          -4.30124141e-02, -1.65692940e-02, -1.94421802e-02,
          -2.38902081e-04, -1.71468444e-02, -2.91751754e-02,
          -3.83573547e-02, -4.33426118e-03, 3.41974646e-02,
          3.55502851e-02, 5.02516814e-02, 4.52517234e-02, 4.08381373e-02,
          4.32512388e-02, 3.28891538e-02, 2.06254699e-04,
          -4.43237722e-02, -2.32960116e-02, -2.03650352e-02,
          1.36913164e-02, -4.60313400e-03, -1.41570801e-02,
          -3.49694118e-02, -2.50717234e-02, -4.16133106e-02,
          1.38135301e-02, 5.39242383e-03, -4.78664553e-03,
          2.13824008e-02, 2.29850272e-03, 2.12584678e-02, 1.25429491e-02,
          4.95725777e-03, 7.67248264e-03, -1.20621535e-03,
          1.12737296e-03, -3.32808569e-02, -1.23884343e-02,
          -2.96788979e-02, 2.37661856e-03, -1.14070531e-02,
          7.86079932e-03, -6.36485498e-03, 7.41018122e-03,
          2.67158728e-02, 2.05774065e-02, 5.62957488e-02, 2.11330652e-02,
          3.13534215e-02, -1.26423249e-02, 2.90924381e-03,
          -1.16553940e-02, -6.64143404e-03, 3.97550054e-02,
          6.00809976e-03, 5.88410487e-03, -4.37760213e-03,
          -1.01009663e-02, -3.61358337e-02, 3.34742968e-03,
          -2.67774630e-02, -7.08123203e-03, 2.72018049e-04,
          -1.29421428e-02, 2.19768635e-03, -2.53909118e-02,
          1.34177087e-02, 3.12115555e-03, 5.64471725e-03,
          -5.31011587e-03, -6.70678727e-03, -9.92573146e-03,
          1.25192618e-03, 3.03091411e-03, 5.58373140e-05, 4.65508504e-03,
          1.02916192e-02, -3.66844703e-03, -7.12936698e-03,
          -9.89849120e-03, 9.01321508e-03, 9.19629633e-03,
          1.50211034e-02, 9.50336456e-04, 7.06758304e-03, 8.93041026e-03,
          1.28935650e-02, -4.11432935e-03, 6.66069798e-03,
          -6.77669467e-03, 6.15291670e-03, 8.40154476e-03,
          1.54830860e-02, 2.24382896e-02, 2.28588115e-02,
          -9.24511440e-03, 1.19232478e-04, -1.68999434e-02,
          -2.75106542e-02, -1.00869173e-02, -1.03878379e-02,
          1.02546467e-02, -4.71092062e-03, -2.75290199e-03,
          -6.44403370e-03, -1.38103804e-02, -7.28079525e-04,
          -1.71775185e-02, -7.64562457e-04, 5.36137773e-03,
          -1.87158007e-02, -8.31125956e-03, 1.18138418e-02,
          -2.73981551e-03, -4.11161687e-03, -2.29897629e-03,
          5.97648963e-04, -1.35484347e-02, -6.29022717e-03,
          2.02452373e-02, 4.29890491e-03, -1.00373244e-02,
          -2.82539520e-02, -1.38407676e-02, 7.08672777e-03,
          -1.11994985e-03, 2.55869096e-03, -1.07417931e-03,
          -1.35518732e-02, 2.51740159e-04, -1.91414147e-03,
          -1.18197314e-02, 1.11309690e-02, 1.27896182e-02,
          5.44940401e-03, -1.25280791e-03, -4.69469838e-03,
          1.16769094e-02, 1.33579113e-02, 8.65257066e-03, 1.78019691e-03,
          -1.49452826e-03, 1.48122068e-02, 7.74139864e-03,
          1.65685154e-02, 1.72910523e-02, 3.26181576e-02,
          -7.66261853e-03, -1.21069215e-02, 2.60073524e-02,
          1.37973456e-02, 1.40949357e-02, 8.94330349e-03, 6.85275858e-03,
          6.75467448e-03, 7.89870566e-04, 2.27496475e-02, 5.27228694e-03,
          -1.72391459e-02, -2.32121814e-03, 2.90500112e-02,
          6.44886820e-03, -1.84851326e-02, -3.16827325e-03,
          3.70616838e-02, -3.40833096e-04, 2.42841998e-04,
          -7.56824017e-03, -6.56294869e-03, -1.47541212e-02,
          -3.01430095e-03, 5.18666673e-03, 2.69389972e-02,
          2.09828131e-02, -2.23332867e-02, -1.72817428e-02,
          1.43865077e-02, 3.40956380e-03, 6.67280634e-04, 1.77961532e-02,
          1.38907414e-02, 1.80755870e-03, -7.67628371e-04,
          -1.23453531e-02, 1.78031698e-02, 3.07036135e-02,
          -4.06406727e-03, 4.48617444e-04, -1.33055905e-02,
          -3.53443176e-02, 7.47239776e-03, 2.82962322e-02,
          -7.30646634e-03, -1.27845891e-02, -1.31013291e-03,
          -4.03080396e-02, 7.08197989e-03, -9.83103644e-03,
          1.11844931e-02, 1.21886749e-02, 2.54871068e-03, 4.52294992e-03,
          -1.70808658e-02, 5.48614049e-03, -9.02624056e-03,
          3.78444209e-03, -1.34462176e-03, -1.64927710e-02,
          -2.53810696e-02, -6.91804709e-03, 7.11747818e-03,
          5.99734904e-03, 1.38982935e-02, 1.72537740e-03,
          -7.03526428e-03, -1.73756368e-02, -2.75215544e-02,
          2.08107252e-02, 3.70417535e-03, 2.73651704e-02, 7.88666401e-03,
          1.78868696e-02, 1.62836798e-02, -1.15999160e-02,
          -3.43813002e-03, -2.79495097e-03, -2.32472084e-02,
          -1.85842626e-02, -1.00882826e-02, -1.92007832e-02,
          -1.90839563e-02, -1.72331911e-02, -1.90322865e-02,
          -1.25182644e-02, -6.17563678e-03, 1.44727565e-02,
          -6.72580732e-04, 1.68207940e-02, 2.25421712e-02,
          -6.51097298e-03, -1.18947856e-03, -3.60101126e-02,
          -2.97138020e-02, -1.89145822e-02, 6.60450896e-03,
          3.18835415e-02, 2.72410084e-02, 1.04992986e-02,
          -3.56829842e-03, -1.20053324e-03, 3.63374315e-03,
          1.06513016e-02, 7.03537045e-03, 2.28941906e-02, 2.49672383e-02,
          7.81321228e-02, 6.79662004e-02, 4.97981459e-02, 3.14509645e-02,
          -5.44465929e-02, -4.60551828e-02, -3.27053331e-02,
          3.38115450e-03, -8.92994087e-03, 2.13221684e-02,
          2.04262026e-02, -1.08303912e-02, -1.58178192e-02,
          -2.39718203e-02, -1.90443099e-02, -3.57658751e-02,
          -1.47004770e-02, -1.90893915e-02, 4.84011173e-02,
          3.92707922e-02, 1.81146562e-02, 1.69011124e-03, 1.76617652e-02,
          2.79451627e-02, -8.92585516e-03, 9.87862609e-03,
          1.27323037e-02, 2.98564117e-02, 3.54877189e-02, 4.70545180e-02,
          3.13211121e-02, 1.21256681e-02, 5.41997701e-02, 1.76485889e-02,
          1.77590512e-02, -8.01223330e-03, 1.92525033e-02,
          6.11532480e-02, 5.13718352e-02, 6.34679012e-03, 5.97326271e-03,
          -8.40370602e-04, -3.75401974e-02, -1.24022150e-02,
          -1.14548430e-02, 2.53410108e-04, 1.33766839e-02,
          1.04968650e-02, 9.31541715e-03, -3.97274364e-03,
          2.03758050e-02, -1.70399118e-02, -6.63015619e-03,
          -2.62470692e-02, -2.30963323e-02, 2.49838494e-02,
          3.51144113e-02, -4.92046587e-03, -8.99514928e-03,
          4.45558280e-02, 2.47480553e-02, 1.34660741e-02, 1.16831260e-02,
          4.68703136e-02, 8.02012533e-02, 9.38574597e-02,
          -1.55475773e-02, -5.74745908e-02, -1.45727573e-02,
          -1.27770538e-02, -3.95170115e-02, -3.26542221e-02,
          6.72051357e-03, 2.57353038e-02, 6.17728233e-02,
          -2.28355639e-02, -4.89658769e-03, 2.66328324e-02,
          -1.07789375e-02, -1.35206031e-02, -7.32915383e-03,
          2.47212332e-02, 7.11447895e-02, 8.41789991e-02, 2.11052205e-02,
          -1.36203347e-02, 1.74519635e-04, -5.47832400e-02,
          -5.60887679e-02, -4.33596373e-02, -2.48025451e-02,
          2.03218814e-02, 4.79726829e-02, -8.85711424e-03,
          -1.11888731e-02, 7.33067049e-03, 2.27169576e-03,
          -1.85770374e-02, -2.92449072e-02, 6.61831768e-03,
          3.43917981e-02, 5.67386486e-02, 7.13407993e-03, 1.53802158e-02,
          4.92005842e-03, -8.29105265e-03, -3.09198461e-02,
          -5.96023761e-02, -8.95385072e-03, -3.90018127e-03,
          1.46011636e-02, 5.71131613e-03, -3.94387124e-03,
          2.45745312e-02, -5.91353141e-03, -1.06280250e-02,
          -3.56530957e-03, 1.77673418e-02, 3.35753448e-02,
          4.21023257e-02, 6.90935762e-04, -1.70019083e-02,
          5.82100218e-03, 2.49236561e-02, -2.55613700e-02,
          -2.07570549e-02, -4.45209444e-03, 3.37051833e-03,
          2.71642301e-02, -9.44787264e-03, 6.76534837e-03,
          1.48112960e-02, -1.65942311e-02, -4.08897549e-02,
          -4.21722047e-02, -2.67223851e-03, -1.55464401e-02,
          2.62822267e-02, 2.07481049e-02, 4.24633006e-04, 9.40113701e-03,
          -4.65632929e-03, -3.59995440e-02, -3.52241434e-02,
          -2.90794335e-02, -1.71068069e-02, 1.48878498e-02,
          6.62200095e-04, -6.64689671e-03, 1.94631703e-02,
          1.49948066e-02, -3.04046962e-02, -3.84975858e-02,
          -1.15551325e-02, -2.02172343e-02, 2.51459684e-02,
          2.55592428e-02, -4.30947728e-03, 1.13070402e-02,
          2.00617407e-03, -3.21216919e-02, -4.89048064e-02,
          -2.60203965e-02, -1.59597434e-02, 3.07021048e-02,
          2.50549056e-02, 1.87809300e-02, 2.64531467e-02, 1.75404195e-02,
          5.26570063e-03, -1.49283493e-02, -5.81523962e-03,
          8.59409012e-03, 6.74255658e-03, -4.14237547e-05,
          -9.31011513e-03, 1.36666289e-02, 3.60058807e-03,
          -3.42665566e-03, -9.25347861e-03, -9.58531536e-03,
          -2.35256068e-02, 7.53428927e-03, -1.61856059e-02,
          9.85937379e-03, 1.06974971e-02, 1.51100578e-02, 5.22144744e-03,
          -2.04273686e-03, -1.07095875e-02, 9.42866132e-03,
          3.69119719e-02, 1.60806905e-02, -2.37044524e-02,
          -3.14019434e-03, 4.69378708e-03, -6.96470775e-03,
          -1.54693164e-02, -4.87470962e-02, -2.14064401e-02,
          1.91028304e-02, 7.02830357e-03, -1.34339873e-02,
          1.02877924e-02, 1.71472635e-02, 4.95947723e-04,
          -9.38452780e-03, -1.32453395e-02, -1.70901641e-02,
          3.92128788e-02, 1.45003237e-02, -3.11069302e-02,
          -9.94767062e-03, -4.30686399e-03, -1.92375854e-02,
          2.87485425e-03, -4.69387285e-02, -2.62943730e-02,
          3.42534743e-02, -1.29573874e-03, -1.88925508e-02,
          -9.82255396e-03, -4.42169514e-03, -8.93692672e-03,
          -1.93020608e-02, -3.28994058e-02, -1.31085077e-02,
          3.03195529e-02, 2.55688056e-02, 1.13995485e-02, 2.73765269e-04,
          1.39820985e-02, -3.98854073e-03, -3.34348716e-02,
          -4.94787432e-02, -2.48542186e-02, 4.89113815e-02,
          2.70505399e-02, -1.20860785e-02, 6.10521715e-03,
          -1.67659693e-03, -1.68381333e-02, -1.59974229e-02,
          -5.39872497e-02, -3.30132060e-02, 4.21166494e-02,
          1.70986447e-02, -2.01864410e-02, 6.37948560e-03,
          -1.67206302e-02, -2.91165896e-02, -8.04738700e-03,
          -5.68031929e-02, -2.81028114e-02, 1.70567650e-02,
          1.52166598e-02, 1.54580222e-02, 1.19213890e-02, 1.04157226e-02,
          7.79419672e-03, 1.78236736e-03, -3.54990624e-02,
          -2.75689047e-02, 3.44182886e-02, 3.37666087e-02,
          1.00954873e-02, 1.12681351e-04, -8.88835115e-04,
          -2.71802600e-02, 2.00447049e-02, -4.35761809e-02,
          -2.32782364e-02, 2.39816792e-02, 3.62666026e-02,
          -2.04722602e-02, 3.27807069e-02, -1.06408391e-02,
          -3.02110463e-02, -1.05293458e-02, -4.30724472e-02,
          -1.67605598e-02, 2.11042035e-02, 1.41284335e-02,
          1.06130885e-02, 2.46539339e-03, -3.18637677e-02,
          -4.30660881e-02, -2.28396226e-02, -5.00400923e-02,
          1.92926335e-03, 1.97053291e-02, 3.36087681e-03, 9.30502266e-03,
          1.43447239e-02, 7.07606925e-03, -2.14307606e-02,
          1.13431923e-02, -3.07463072e-02, -9.38775018e-03,
          2.30572354e-02, 3.29818763e-02, 1.21551175e-02,
          -5.53271873e-03, -2.12960932e-02, -2.95913704e-02,
          -5.71799418e-03, -4.23505604e-02, -3.04151163e-03,
          2.05645263e-02, 2.69618500e-02, 4.73686075e-03, 5.77395735e-03,
          -3.36001813e-03, -2.38818061e-02, -7.48956203e-03,
          -3.92531268e-02, -1.43576283e-02, 2.45361496e-02,
          -1.28791025e-02, 3.68246958e-02, 2.31679734e-02,
          1.01529276e-02, 6.34532934e-03, 9.46911052e-03,
          -1.31410714e-02, -1.29960058e-02, 4.62034829e-02,
          4.06723283e-02, 2.90478324e-03, 4.88332659e-03,
          -2.18879618e-02, -6.99230889e-03, 1.18828835e-02,
          -3.14546786e-02, -3.14045697e-02, 1.99979842e-02,
          4.84882388e-03, 1.08351083e-02, 1.09137902e-02,
          -1.56285129e-02, 7.52423715e-04, 2.20549777e-02,
          -1.38511499e-02, -3.29098292e-02, 1.00121181e-02,
          2.49285717e-02, 4.30716909e-02, 1.75673943e-02,
          -1.79189313e-02, -3.80342156e-02, -2.58715488e-02,
          -1.81947928e-02, 6.97913871e-04, 4.11941446e-02,
          5.10461815e-02, 4.81557623e-02, 3.31551433e-02, 2.96341162e-03,
          -2.32006162e-02, 9.90955858e-04, 1.06135625e-02,
          2.95852013e-02, 3.49289812e-02, 1.84989795e-02,
          -9.39727412e-04, -1.24178070e-03, -4.58804965e-02,
          -3.17842141e-02, -2.25541964e-02, -2.00837310e-02,
          -3.62846954e-03, 7.74140889e-03, 2.38468908e-02,
          -3.67281726e-03, 9.00001079e-03, -1.21691106e-02,
          -2.02754028e-02, -7.50045897e-03, 3.46827251e-03,
          1.10265110e-02, 2.93220300e-02, 1.86257381e-02, 2.44120378e-02,
          1.96367837e-02, 1.68339093e-03, -9.90132056e-03,
          1.59762241e-02, 2.23894194e-02, 2.78402083e-02, 3.82521190e-02,
          9.80436150e-03, -1.37841152e-02, 3.61307152e-03,
          -8.64318863e-04, -8.96734768e-04, 3.26418057e-02,
          1.90047380e-02, -2.29188800e-03, 7.16392789e-03,
          -1.86269805e-02, 6.78900909e-03, 3.97251965e-03,
          -7.48449564e-03, -7.32750725e-03, 3.51276831e-03,
          -1.90310385e-02, -8.14595353e-03, 2.40580998e-02,
          -1.51461083e-03, -3.59751694e-02, -1.32987704e-02,
          -1.24219367e-02, -6.38901349e-03, 1.04447100e-02,
          -9.98677034e-03, -2.84626056e-02, -2.01792493e-02,
          -5.07233664e-02, 1.21486969e-02, 4.37727347e-02,
          4.19404320e-02, 2.43568495e-02, 6.52520731e-02, 3.21815424e-02,
          1.23991668e-02, 4.36585695e-02, 2.83819232e-02,
          -2.57063378e-02, -2.69353716e-03, -1.34161050e-02,
          1.34925693e-02, 1.22316862e-02, -1.11616682e-02,
          -3.33436877e-02, -6.50811847e-03, -1.96600035e-02,
          -1.43505754e-02, -2.47429591e-03, 1.71719454e-02,
          8.73919763e-03, 2.98099257e-02, 2.98113674e-02,
          -4.07649856e-03, 5.12791914e-04, -1.57706551e-02,
          -4.05247435e-02, -2.69375760e-02, -3.03944498e-02,
          -1.38736852e-02, 9.97482892e-03, -5.98503137e-03,
          -1.91090871e-02, -7.42750242e-03, -2.57011056e-02,
          4.92629828e-04, 2.27099154e-02, 1.38724260e-02, 2.71648914e-02,
          -1.00255450e-02, 5.07903937e-03, -1.33328941e-02,
          8.04836396e-03, -1.28497966e-02, -3.12515646e-02,
          2.97806151e-02, 2.96166111e-02, 1.28114037e-02,
          -2.21958999e-02, -5.26576943e-04, -2.41703521e-02,
          -1.44699868e-02, -4.43967320e-02, 4.31318441e-03,
          2.41816696e-02, -1.06046610e-02, 7.42043974e-03,
          -1.01183774e-02, 5.10119309e-04, 2.30092481e-02,
          3.97494249e-02, 1.06243603e-02, -2.02210303e-02,
          -7.29910331e-03, 1.16886459e-02, 1.76663287e-02,
          -1.27841078e-03, 2.20374856e-03, -4.66625858e-03,
          4.27167537e-03, -3.43027264e-02, -7.06733484e-03,
          9.21769068e-03, 2.70053353e-02, 1.84875133e-03,
          -3.77315395e-02, -7.63006182e-03, -1.03533291e-03,
          2.42343266e-03, -2.66116066e-03, -2.14399840e-03,
          -1.89011684e-03, -2.66976102e-04, -3.23169469e-03,
          -1.13590099e-02, 2.43241135e-02, 1.65154655e-02,
          -3.57391243e-03, 1.70399901e-02, -2.42138486e-02,
          -2.90030781e-02, 2.83110701e-03, 9.14461631e-03,
          1.23835320e-03, -4.52280790e-03, -1.12172011e-02,
          -6.56528864e-03, -7.84586556e-03, -3.19763236e-02,
          -2.31221095e-02, 1.96132399e-02, -2.44045956e-03,
          -7.32090231e-03, 1.71845723e-02, 1.27054248e-02,
          -1.62813235e-02, -3.95247899e-03, -1.84330977e-02,
          -9.61823855e-03, 2.78591091e-04, -1.78390387e-02,
          -8.41794815e-03, 1.49279600e-02, -3.96779459e-03,
          -2.63048224e-02, 6.26934040e-03, 1.78913004e-03,
          -1.97075699e-02, 1.70321250e-03, 3.09487479e-03,
          -4.96160844e-03, -3.27060116e-03, -9.55453422e-03,
          -1.86766796e-02, 4.72932035e-04, -2.11522188e-02,
          -1.73304789e-02, 1.82011425e-02, -7.70060113e-03,
          1.56213893e-02, 1.82954930e-02, -1.10083981e-03,
          -2.47197188e-02, -1.54705169e-02, 1.91663690e-02,
          -1.02080256e-02, 5.44799492e-03, 2.71691149e-03,
          5.81794512e-03, 5.01493132e-03, -1.07460888e-02,
          -5.35439886e-03, 1.47583308e-02, -7.85456563e-04,
          5.83427446e-03, -5.68446703e-03, 3.66439810e-03,
          8.42698675e-04, 2.13936493e-02, 1.79801434e-02,
          -1.05872108e-02, 1.94378719e-02, -6.82844222e-03,
          -1.75232510e-03, -4.30938639e-02, -2.27239076e-02,
          2.19077542e-02, 1.14946943e-02, -3.92181845e-03,
          -1.80686004e-02, -2.23824307e-02, 2.52302829e-02,
          1.85146427e-03, -1.24295251e-02, -6.16613310e-03,
          1.27087962e-02, 1.41885635e-02, 6.86318148e-03,
          -2.77851359e-03, 4.05101478e-02, 6.70263078e-03,
          -4.51076683e-03, -1.61575787e-02, -8.16205982e-03,
          2.53783017e-02, 3.88402790e-02, 1.66256540e-02,
          -1.71487909e-02, -1.91063061e-03, -9.77902953e-03,
          -1.74885709e-02, -3.49671505e-02, -2.93177832e-03,
          2.04559583e-02, 1.64474547e-02, -5.96533529e-03,
          -2.08064504e-02, -3.82815190e-02, 2.28304863e-02,
          -2.04914510e-02, -2.76260148e-03, 9.38483980e-04,
          -6.30014623e-03, -5.92749752e-03, -2.46502608e-02,
          -2.35922951e-02, -1.24968020e-02, 1.00041274e-02,
          3.54625797e-03, -8.40370636e-03, -2.06272257e-03,
          3.74079542e-03, 2.67826598e-02, -9.19060130e-03,
          -1.89854689e-02, -2.01943349e-02, 3.91774476e-02,
          -2.22099433e-03, -3.60912550e-03, -1.66912994e-03,
          4.41288808e-03, 2.66206171e-02, 1.17559610e-02,
          -9.09562223e-03, 2.81458697e-03, 7.95382727e-03,
          -1.23457322e-02, -1.29789142e-02, -2.40179189e-02,
          -2.69111376e-02, -2.77822316e-02, -2.43588071e-02,
          -1.92978624e-02, -1.19096739e-02, 1.96520928e-02,
          -9.30522161e-04, -4.14963439e-03, 2.18887324e-03,
          2.13645445e-03, -7.13421032e-03, 2.73820255e-02,
          8.41108430e-03, 1.73588116e-02, 6.69431081e-03,
          -1.12587409e-02, -2.33048573e-02, -1.77341364e-02,
          -1.37204099e-02, -1.66815368e-03, 2.76172603e-03,
          -4.66751121e-03, 1.07618310e-02, 7.36281602e-03,
          5.89261390e-03, -1.14271240e-02, 1.04687307e-02,
          -3.65396542e-03, 9.79873445e-03, 2.54378840e-02,
          6.95180474e-03, 1.80024132e-02, -1.48061961e-02,
          -2.75995322e-02, -2.48342697e-02, 1.21574905e-02,
          -6.65391842e-03, 9.51894559e-03, 1.39161292e-02,
          7.71546876e-03, 2.41500023e-03, 2.50688065e-02,
          -1.58866365e-02, -1.83355696e-02, -1.75953936e-03,
          -2.81897429e-02, 5.49377454e-03, 7.01990211e-03,
          1.04507087e-02, 2.20814925e-02, 6.74444810e-03,
          -2.53200502e-04, -2.47881431e-02, 1.39712123e-02,
          3.82325234e-04, 1.59693211e-02, 5.34988381e-03,
          -1.13310022e-02, -7.27661885e-03, 1.83692370e-02,
          -5.72433695e-03, 9.50235035e-03, 3.65602807e-03,
          -1.49774551e-02, 1.42333275e-02, -1.03152487e-02,
          2.61540932e-04, -1.44895911e-02, 2.50266865e-02,
          4.43661725e-03, -3.18660308e-03, 1.96839552e-02,
          -4.68250643e-03, -8.07180069e-04, 3.20095103e-03,
          -3.34743946e-03, 3.28536215e-03, 6.32260693e-03,
          1.37588847e-02, -8.80337413e-03, 1.21976631e-02,
          9.47494339e-03, 6.56402251e-03, -1.28014162e-02,
          -1.69926009e-03, -1.41821774e-02, -1.15442900e-02,
          -5.55200363e-03, -4.48467350e-03, 2.48813303e-03,
          3.53620923e-03, 6.91141328e-03, -1.36368414e-02,
          -1.73475835e-02, -2.67217159e-02, -2.00021602e-02,
          4.38419823e-03, -1.66760553e-02, -1.28335897e-02,
          8.19806289e-03, 1.47530902e-02, -1.46142282e-02,
          -2.44859587e-02, -2.92279925e-02, 1.58544313e-02,
          1.43927811e-02, -6.47518784e-03, -6.44834386e-03,
          1.10770017e-02, 2.21148413e-02, 1.39580108e-02, 5.45860361e-03,
          3.44929809e-04, 2.87787523e-03, -1.08613679e-02,
          -2.73958016e-02, -2.04903372e-02, -1.69588570e-02,
          -2.01412737e-02, -4.84140916e-03, 7.30159320e-03,
          -1.54833859e-02, -1.71334855e-02, -1.51164001e-02,
          -1.94123015e-02, -5.21084480e-03, 8.99772160e-03,
          1.40375132e-02, 1.31156230e-02, -9.84185003e-03,
          -1.92212090e-02, -1.31287491e-02, -1.39488624e-02,
          -3.13020609e-02, -3.05753928e-02, -3.67281847e-02,
          -4.11707535e-02, 5.81663894e-03, -1.38096530e-02,
          -2.31984891e-02, 2.14199582e-03, 1.55849438e-02,
          1.66268519e-03, 9.60250571e-03, 1.02602001e-02,
          -6.54681353e-03, 3.50296199e-02, 2.56253984e-02,
          -3.68300069e-04, -1.73216052e-02, 2.57781297e-02,
          5.79528697e-03, -8.18460807e-03, -1.35602907e-03,
          -2.53614057e-02, -1.43745134e-03, 1.14900302e-02,
          -1.89523660e-02, -1.01229292e-03, 8.88417382e-03,
          -6.85737282e-03, -6.67501334e-03, -4.43069404e-03,
          -3.29961404e-02, 2.32667979e-02, 2.48943958e-02,
          7.66928075e-04, -6.98446622e-03, 1.47562772e-02,
          -1.45581672e-02, -5.09973941e-03, -2.08507366e-02,
          -4.81793024e-02, -1.35138659e-02, 2.07850896e-02,
