%YAML:1.0
opencv_ml_svm:
   svmType: EPS_SVR
   kernel:
      type: LINEAR
   C: 1.0000000000000000e-02
   p: 1.0000000000000001e-01
   term_criteria: { epsilon:1.0000000000000000e-03, iterations:1000 }
   var_count: 7524
   sv_total: 1
   support_vectors:
      - [ 4.56864461e-02, -5.21704964e-02, -7.94415697e-02,
          -1.53211765e-02, 8.38465989e-02, -2.98550706e-02,
          -1.30966663e-01, -9.35230479e-02, 4.65123393e-02,
          1.21734124e-02, -6.67335242e-02, -8.46491829e-02,
          -2.57143341e-02, 3.56631242e-02, -5.08621223e-02,
          -1.35314822e-01, -8.43077675e-02, 2.19395813e-02,
          9.24610421e-02, -4.53166813e-02, -8.93292055e-02,
          -2.50459127e-02, 8.99318457e-02, -1.09344693e-02,
          -1.07596070e-01, -9.35655087e-02, 1.01705156e-01,
          5.41871749e-02, -4.75495271e-02, -8.67499188e-02,
          -2.05553789e-02, 5.00377379e-02, -1.35198273e-02,
          -9.70254242e-02, -7.75800049e-02, 5.76692037e-02,
          1.57631245e-02, -4.58102822e-02, -5.66448122e-02,
          -3.53661440e-02, 7.28661790e-02, -2.68349275e-02,
          -1.03685759e-01, -6.11060001e-02, 1.31517882e-02,
          1.80265270e-02, -2.93393359e-02, -5.35237156e-02,
          -2.78236382e-02, 8.35866705e-02, -4.88700531e-02,
          -1.04352497e-01, -7.54238889e-02, 1.64818822e-03,
          5.59253283e-02, -3.31808962e-02, -6.05096295e-02,
          -1.42573314e-02, 8.23435560e-02, 1.02545209e-02,
          -8.36213678e-02, -5.84957227e-02, 4.02471982e-02,
          3.75357941e-02, -2.42160875e-02, -5.42648882e-02,
          -8.97788070e-03, 8.03544894e-02, -8.61971825e-03,
          -8.62322152e-02, -7.41274804e-02, 2.84877773e-02,
          -1.04778365e-03, -4.46134284e-02, -6.05654158e-02,
          -4.42482270e-02, 6.68618008e-02, -4.35164683e-02,
          -8.56683925e-02, -7.01987669e-02, -3.08374665e-03,
          -1.19487308e-02, -4.20597531e-02, -5.10610864e-02,
          -2.15172321e-02, 7.58273751e-02, -5.25209308e-03,
          -4.41807322e-02, -3.69329415e-02, -1.10886758e-02,
          1.77638251e-02, -2.67056078e-02, -4.53305133e-02,
          -1.56821217e-02, 6.11693040e-02, -2.04479229e-02,
          -7.27472529e-02, -5.91158085e-02, 1.17318367e-03,
          2.91857012e-02, -3.42420139e-03, -1.03699295e-02,
          2.26247553e-02, 8.42169523e-02, 3.84706073e-02,
          -2.91336272e-02, -2.23522726e-02, 1.71271563e-02,
          -5.63973151e-02, -4.98067997e-02, -5.13760559e-02,
          -1.97567753e-02, 7.06040710e-02, -1.89998057e-02,
          -6.60780072e-02, -5.01556173e-02, -4.98014092e-02,
          -6.91146627e-02, -4.07837816e-02, -2.45416723e-02,
          2.84656626e-03, 6.09624386e-02, -2.93968469e-02,
          -7.00390637e-02, -5.63343950e-02, -8.69813934e-02,
          -9.28973686e-03, -2.01868415e-02, -4.23373878e-02,
          5.03360434e-03, 6.31317720e-02, 2.41699070e-02,
          -2.21100710e-02, -1.69509668e-02, -1.20176403e-02,
          -1.90420225e-02, 1.64707191e-02, -2.08069980e-02,
          2.95184124e-02, 7.84627572e-02, 4.16543297e-02,
          -7.91155268e-03, 5.24634914e-03, -2.77165100e-02,
          -8.25972632e-02, -3.55632454e-02, -1.11300824e-02,
          1.66336372e-02, 7.44898170e-02, -1.60571299e-02,
          -4.15473394e-02, -3.77386548e-02, -9.26987156e-02,
          -7.05624893e-02, -2.12621745e-02, -1.97784156e-02,
          -1.60446588e-03, 5.57286888e-02, -2.49062609e-02,
          -4.29010540e-02, -1.99349895e-02, -7.64172748e-02,
          -3.49238031e-02, 3.35151888e-02, 2.06277203e-02,
          3.49274501e-02, 7.41936639e-02, 3.40757817e-02, 3.84065718e-03,
          8.83727614e-03, -3.47131081e-02, -3.51966359e-02,
          2.37467475e-02, 2.36904211e-02, -1.30109312e-02,
          3.76949906e-02, 1.54934023e-02, -3.49091570e-04,
          1.47481775e-02, -4.42873202e-02, -4.98015992e-02,
          -9.15500708e-03, -3.64928097e-02, -2.15975568e-03,
          1.07358679e-01, 1.07712261e-02, -3.19259129e-02,
          -1.18813720e-02, -5.01125641e-02, -5.11985309e-02,
          5.17476816e-03, -4.71059866e-02, -2.62771528e-02,
          5.42028509e-02, -1.85488537e-02, -7.09070489e-02,
          -6.63609505e-02, -9.37176198e-02, -2.43682992e-02,
          8.25551618e-03, -7.91937765e-03, -2.87914276e-02,
          6.65419623e-02, 1.85423624e-02, -9.13011748e-03,
          2.04424486e-02, -3.39673571e-02, -4.89858165e-02,
          -1.53213572e-02, -5.60279861e-02, -2.91381069e-02,
          2.19108090e-02, -1.96114369e-02, -5.82037717e-02,
          -2.24460345e-02, -7.90324360e-02, -1.72462985e-02,
          4.47393581e-02, -8.68733786e-03, 1.76595675e-03,
          8.87905285e-02, 7.46812718e-03, -5.32558598e-02,
          -4.18164954e-02, -4.41531315e-02, -4.18666862e-02,
          -5.37814014e-03, -5.37400544e-02, -7.33033195e-02,
          1.16209500e-02, -6.68613836e-02, -6.73045591e-02,
          -3.29166315e-02, -4.06666882e-02, -4.33968753e-03,
          2.75945384e-02, -1.85007248e-02, -1.03231077e-03,
          4.71565649e-02, 1.08585898e-02, -3.99859846e-02,
          -1.32419746e-02, -4.01218794e-02, -3.30058187e-02,
          -2.22913921e-02, -7.43171126e-02, -8.88233334e-02,
          -3.08539141e-02, -9.22086015e-02, -6.74795285e-02,
          -2.85432953e-02, -3.50160822e-02, -8.43206886e-04,
          -9.48540308e-03, -5.93582317e-02, -6.89274445e-02,
          6.29057884e-02, -4.02000695e-02, -3.55520211e-02,
          1.18007697e-02, 5.59302419e-03, -2.06078161e-02,
          -3.35973836e-02, -8.50647986e-02, -9.13901329e-02,
          3.39588188e-02, -8.31289366e-02, -7.40320981e-02,
          -3.65382731e-02, -1.52320238e-02, -7.82848708e-03,
          2.67713843e-03, -5.66232465e-02, -6.38741106e-02,
          1.68670956e-02, -5.38977906e-02, -3.64196412e-02,
          2.40451321e-02, 1.43004358e-02, -3.40425745e-02,
          -4.57185470e-02, -8.63683447e-02, -7.00851753e-02,
          3.33076925e-03, -7.50712678e-02, -8.98177177e-02,
          -1.89666916e-02, -1.13799060e-02, -2.22961884e-02,
          -4.04756479e-02, -6.82469830e-02, -3.03034820e-02,
          1.03944913e-01, -4.85937186e-02, -6.07216358e-02,
          -2.54611969e-02, 9.97012202e-03, -7.56729543e-02,
          -7.32421428e-02, -9.62143764e-02, -2.74886545e-02,
          1.04924127e-01, -6.98428303e-02, -1.05019115e-01,
          -5.72365113e-02, -5.88449575e-02, -2.98593920e-02,
          -5.12763262e-02, -7.35613555e-02, -3.51202153e-02,
          8.71939957e-02, -3.94145660e-02, -6.76816478e-02,
          -1.69237852e-02, 1.23233290e-03, -7.16375411e-02,
          -7.90635049e-02, -1.17709875e-01, -4.47966158e-02,
          8.14450085e-02, -6.71921968e-02, -1.05055407e-01,
          -5.67266792e-02, -6.42739385e-02, -8.18480104e-02,
          -6.51517287e-02, -8.44713748e-02, -5.17334498e-04,
          1.58169031e-01, -4.30454984e-02, -9.65605751e-02,
          -6.60360679e-02, -6.73173666e-02, -1.12548813e-01,
          -9.68424380e-02, -1.09351724e-01, -3.34456190e-02,
          1.32226124e-01, -1.27931247e-02, -9.43919271e-02,
          -6.78563118e-02, -9.73735824e-02, -7.76354223e-02,
          -9.08152238e-02, -9.67248008e-02, -2.17872560e-02,
          1.21898629e-01, -1.99339706e-02, -9.04422402e-02,
          -6.09803088e-02, -6.90876395e-02, -1.04687780e-01,
          -1.02554001e-01, -1.20497078e-01, -3.26828510e-02,
          8.73727053e-02, -1.93147939e-02, -1.00994118e-01,
          -6.33635148e-02, -7.68047273e-02, -1.18764371e-01,
          -1.05355300e-01, -1.02176167e-01, -2.37106103e-02,
          1.73512757e-01, 1.84462667e-02, -9.40818265e-02,
          -6.18098527e-02, -8.53535384e-02, -1.30552605e-01,
          -1.02231041e-01, -1.12082839e-01, -4.35731560e-02,
          1.29224628e-01, -3.85837033e-02, -1.13733910e-01,
          -6.74252063e-02, -1.10169590e-01, -9.57311988e-02,
          -1.14469841e-01, -1.26057759e-01, -2.86431219e-02,
          1.24968097e-01, 4.48916201e-03, -1.01083495e-01,
          -5.95663190e-02, -7.34374821e-02, -8.94505382e-02,
          -1.16212577e-01, -1.24800868e-01, -3.29944566e-02,
          9.58459899e-02, -4.39463295e-02, -1.11527242e-01,
          -8.92993286e-02, -6.77531809e-02, -1.01039462e-01,
          -8.46467912e-02, -9.47458744e-02, -1.86263062e-02,
          1.14044763e-01, -4.14611474e-02, -9.90814641e-02,
          -7.78830498e-02, -8.08188766e-02, -9.39046293e-02,
          -9.93628427e-02, -1.24150887e-01, -4.32047509e-02,
          9.84807983e-02, -7.01018944e-02, -1.19602710e-01,
          -1.06804885e-01, -8.87991339e-02, -5.37491031e-02,
          -8.66276175e-02, -1.05003409e-01, -1.56244542e-02,
          1.12813316e-01, -2.54884567e-02, -1.01761699e-01,
          -8.51936787e-02, -4.61700000e-02, -7.67841935e-02,
          -9.09515843e-02, -1.35943457e-01, -4.91883904e-02,
          9.34879929e-02, -5.87256290e-02, -1.13409571e-01,
          -7.72088617e-02, -6.32014051e-02, -7.65840560e-02,
          -7.71736428e-02, -1.09135114e-01, -4.82074320e-02,
          9.73555595e-02, -5.20132147e-02, -1.24372840e-01,
          -9.50697064e-02, -8.09031650e-02, -9.22415704e-02,
          -8.14206302e-02, -9.44382846e-02, -3.37725617e-02,
          1.15436018e-01, -2.71601379e-02, -1.04132622e-01,
          -9.32575241e-02, -1.07842445e-01, -5.57068847e-02,
          -6.24178946e-02, -1.28214136e-01, -4.37190607e-02,
          8.04422200e-02, -3.39843109e-02, -1.00269802e-01,
          -4.33990955e-02, -4.80325408e-02, -7.04366267e-02,
          -7.42378309e-02, -1.01090550e-01, -4.50893268e-02,
          1.13444358e-01, -1.43571291e-02, -9.12509561e-02,
          -5.53317145e-02, -8.23797584e-02, -1.09168723e-01,
          -8.53509530e-02, -8.87320116e-02, -1.88324209e-02,
          1.47318795e-01, -2.30420846e-02, -9.50970575e-02,
          -8.35637301e-02, -1.10455893e-01, -1.55055210e-01,
          -1.20294958e-01, -9.97060612e-02, -1.90793015e-02,
          1.54516205e-01, -1.52596431e-02, -1.06910400e-01,
          -9.89016220e-02, -1.35890141e-01, -7.25497976e-02,
          -8.84328410e-02, -1.11861952e-01, -2.64046732e-02,
          1.27837360e-01, -1.26253357e-02, -8.48133639e-02,
          -6.68405965e-02, -8.67127776e-02, -1.26339272e-01,
          -1.06024161e-01, -1.10375047e-01, -3.83698717e-02,
          1.38815239e-01, -1.39913906e-03, -1.06035553e-01,
          -1.03650168e-01, -1.17094494e-01, -1.55422404e-01,
          -1.12699136e-01, -9.92187262e-02, -1.31718516e-02,
          2.00779542e-01, -4.78106132e-03, -1.02609009e-01,
          -8.50480273e-02, -1.42032430e-01, -2.21897945e-01,
          -1.38425753e-01, -1.15179732e-01, 3.79652862e-04,
          2.30121031e-01, 1.24998251e-02, -1.24500513e-01,
          -1.14370599e-01, -1.92407325e-01, -1.44607082e-01,
          -1.16574399e-01, -1.11565553e-01, -1.35766091e-02,
          1.88746855e-01, 3.03771682e-02, -9.01754946e-02,
          -8.02617371e-02, -1.24239080e-01, -1.77021384e-01,
          -1.50048137e-01, -1.42119333e-01, 1.37829566e-02,
          2.27822959e-01, 5.24056070e-02, -9.21284631e-02,
          -7.54687339e-02, -1.43287823e-01, -2.10503146e-01,
          -1.30404592e-01, -8.07661042e-02, 5.88617213e-02,
          3.10753077e-01, 5.81523627e-02, -9.37234014e-02,
          -1.04497686e-01, -1.79559574e-01, -2.22554028e-01,
          -1.84098303e-01, -1.30331919e-01, -3.03538106e-02,
          1.90949574e-01, -5.67114875e-02, -1.51348189e-01,
          -1.60034090e-01, -2.11080730e-01, -1.72024593e-01,
          -1.22117355e-01, -1.00365549e-01, 1.04892164e-01,
          3.09330344e-01, 9.23445895e-02, -6.29156157e-02,
          -7.64570907e-02, -1.37724966e-01, -2.12477967e-01,
          -1.72059357e-01, -1.41381383e-01, 1.62775610e-02,
          2.16571525e-01, -3.62226479e-02, -1.34503022e-01,
          -1.56000465e-01, -1.84556186e-01, -1.59112036e-01,
          -1.37663335e-01, -8.82238820e-02, 4.60015563e-03,
          2.34667301e-01, -2.30707228e-02, -1.12728633e-01,
          -1.28281698e-01, -1.40462011e-01, -1.34230241e-01,
          -1.39975071e-01, -1.15909524e-01, -4.52054702e-02,
          1.60884112e-01, -3.66627015e-02, -1.13871425e-01,
          -1.41139239e-01, -1.29654229e-01, -1.38802052e-01,
          -1.30406365e-01, -8.64289999e-02, 4.15422358e-02,
          2.49451086e-01, -1.53665021e-02, -1.22179925e-01,
          -1.40679762e-01, -1.29669622e-01, -1.13818377e-01,
          -1.51396319e-01, -1.06335960e-01, -4.14607003e-02,
          1.62263170e-01, -5.59298359e-02, -1.11419424e-01,
          -1.38352707e-01, -1.10197663e-01, -8.79685879e-02,
          -1.31055295e-01, -1.06107563e-01, -5.14076464e-02,
          1.71572998e-01, -3.28443050e-02, -1.03559904e-01,
          -1.06767222e-01, -7.39233196e-02, -8.72896686e-02,
          -1.62495106e-01, -1.18838616e-01, -6.65060058e-02,
          1.18776180e-01, -7.88442492e-02, -1.25109076e-01,
          -1.30608872e-01, -6.89080283e-02, -6.73389062e-02,
          -1.34763688e-01, -9.37318355e-02, -5.64010069e-02,
          1.42242581e-01, -3.77871916e-02, -8.86873081e-02,
          -1.09689400e-01, -4.49300520e-02, -7.35382289e-02,
          -1.77116081e-01, -1.27385616e-01, -7.87199587e-02,
          1.04526140e-01, -7.71285072e-02, -1.17376454e-01,
          -1.45013466e-01, -4.25728448e-02, -3.58194076e-02,
          -1.32509574e-01, -8.99643973e-02, -5.42931184e-02,
          1.09271549e-01, -8.24498087e-02, -1.18717462e-01,
          -1.28912702e-01, -2.77936384e-02, 3.93072106e-02,
          -1.57672063e-01, -1.44014657e-01, -1.09151691e-01,
          2.51031835e-02, -1.08477287e-01, -1.30752981e-01,
          -1.42892554e-01, 3.79327349e-02, -4.69845440e-03,
          -1.63864851e-01, -1.25132024e-01, -6.86921030e-02,
          1.09930612e-01, -8.67571533e-02, -1.29017368e-01,
          -1.50988057e-01, 4.46742168e-03, 5.50051145e-02,
          -1.88037649e-01, -1.53500676e-01, -1.32995635e-01,
          1.79617126e-02, -1.22727491e-01, -1.42477438e-01,
          -1.74192414e-01, 6.30889609e-02, 6.78781271e-02,
          -6.16079867e-02, -9.11068618e-02, -2.87641250e-02,
          3.70822325e-02, -8.11571628e-03, -8.99927169e-02,
          -6.80976287e-02, 8.17192718e-02, 4.65435684e-02,
          -4.70048413e-02, -8.87405425e-02, -3.23585942e-02,
          9.81717184e-03, -4.17574914e-03, -8.22213590e-02,
          -6.13839626e-02, 3.91607247e-02, 9.40832049e-02,
          -5.79143614e-02, -7.70372972e-02, -2.67194910e-03,
          2.32657213e-02, 2.52178516e-02, -4.87219803e-02,
          -5.27906455e-02, 9.23781320e-02, 9.05173346e-02,
          -5.57203293e-02, -7.08357766e-02, -7.37650925e-03,
          1.11932931e-02, 2.65824255e-02, -4.54551391e-02,
          -3.36696543e-02, 8.91408473e-02, 4.01771367e-02,
          -4.72858101e-02, -8.79470408e-02, -2.46420354e-02,
          4.40595523e-02, 6.56926353e-03, -7.37102404e-02,
          -6.46731034e-02, 3.56113538e-02, 1.51330391e-02,
          -6.03822768e-02, -8.96490067e-02, -2.73462031e-02,
          4.02053595e-02, -1.58693977e-02, -8.77216756e-02,
          -6.30855858e-02, 2.16565225e-02, 7.56925270e-02,
          -5.21113575e-02, -7.01478645e-02, -1.05165048e-02,
          3.99800651e-02, 3.35453637e-02, -5.33184074e-02,
          -5.04905507e-02, 7.38577023e-02, 6.43973127e-02,
          -4.54127192e-02, -7.08140656e-02, -7.26079708e-03,
          2.23764367e-02, -2.86673964e-03, -6.22053668e-02,
          -4.13624272e-02, 8.19369629e-02, 3.21195484e-03,
          -5.12772053e-02, -7.72703886e-02, -2.20689084e-02,
          2.97178794e-02, -3.29104364e-02, -6.61057532e-02,
          -4.07498702e-02, 1.45391021e-02, -1.79357489e-03,
          -3.81313413e-02, -4.53089438e-02, 1.72805805e-02,
          5.23897819e-02, 3.22383456e-02, -3.67631726e-02,
          -3.46225202e-02, 7.45194219e-03, 6.05254993e-02,
          -4.10764478e-02, -8.01941454e-02, -1.26735019e-02,
          1.58296507e-02, -2.16865148e-02, -5.47578633e-02,
          -3.46135534e-02, 5.82017116e-02, 5.00951819e-02,
          -1.59999169e-02, -5.25718518e-02, 1.09147234e-02,
          3.12142018e-02, 5.55877015e-02, -1.79429296e-02,
          -1.73836574e-02, 5.31911924e-02, -3.08690425e-02,
          -3.55330184e-02, -5.58429621e-02, -9.33863595e-03,
          2.71473639e-02, 3.41360830e-02, -2.58677918e-02,
          -2.04033516e-02, -6.05105096e-03, -3.72073129e-02,
          1.07586279e-03, -4.18392569e-02, 6.40639616e-03,
          3.02522443e-02, 3.47193629e-02, 1.65506452e-02, 1.54618798e-02,
          -2.18844004e-02, -7.47681735e-03, -4.00222465e-02,
          -4.72708121e-02, -1.09963985e-02, 8.03190377e-03,
          5.12842126e-02, -1.33853462e-02, -1.18790809e-02,
          4.44224384e-03, -3.75462323e-03, -5.11882594e-03,
          -2.70983707e-02, 6.72544492e-03, -4.60610306e-03,
          5.21904156e-02, 3.77663597e-02, 1.83982495e-02,
          -1.07429074e-02, -4.56839614e-02, 2.37909127e-02,
          4.05038847e-03, 1.90115124e-02, 3.49969640e-02, 2.95976307e-02,
          5.03186369e-03, 8.45145341e-03, -2.90244743e-02,
          -3.21485661e-02, 2.81338580e-02, 9.70365573e-03,
          -3.76264714e-02, -2.80510001e-02, 5.47115877e-03,
          -7.75642740e-03, 1.24185234e-02, -3.30545604e-02,
          -9.43029486e-03, 2.14880127e-02, -1.08957384e-02,
          1.90189481e-02, 8.64778366e-03, 3.65521647e-02, 2.84739025e-02,
          2.70339157e-02, -1.63154062e-02, -1.22677125e-02,
          2.11680681e-02, -3.41387503e-02, -2.02061851e-02,
          -3.95775177e-02, 6.02639932e-03, -6.02155272e-03,
          2.08480936e-02, 2.67397682e-03, -2.78595667e-02,
          1.30103035e-02, -4.98204539e-03, -1.96472183e-02,
          1.41511401e-02, 1.46426065e-02, -9.14405100e-03,
          2.33687144e-02, -2.77448073e-02, -4.42346446e-02,
          -2.68554203e-02, -6.26199916e-02, -2.95102969e-02,
          -2.57958397e-02, -3.63493711e-02, -5.69852330e-02,
          -1.35351177e-02, -6.51533753e-02, 6.34157006e-03,
          3.42087783e-02, -1.22187948e-02, 8.48872401e-03,
          9.83373844e-04, 2.58260071e-02, 5.11306978e-04, 3.50851119e-02,
          1.67912226e-02, -2.62559894e-02, 9.40024573e-03,
          -6.54362738e-02, -5.26980050e-02, -5.70133701e-02,
          -4.17192541e-02, -3.80995721e-02, 9.63328779e-03,
          -1.81251788e-03, 5.72360447e-03, 7.75489444e-03,
          -2.37901080e-02, 4.13487758e-03, 1.39030321e-02,
          -7.51669006e-03, -2.86587048e-02, -6.86106039e-03,
          -5.98092237e-03, -1.65879559e-02, -3.82172316e-02,
          -7.91657045e-02, -8.47602859e-02, -5.50777800e-02,
          -8.14889818e-02, -5.44753261e-02, -2.58008260e-02,
          -1.13721481e-02, 2.52930634e-02, 1.44055514e-02,
          -4.22385149e-02, -1.81394164e-02, -1.12544941e-02,
          -7.62857730e-03, -1.94979198e-02, 3.18957269e-02,
          4.13820185e-02, 6.50958717e-03, -4.84401435e-02,
          -8.25006589e-02, -8.64591897e-02, -6.74116462e-02,
          -8.85712653e-02, -6.21421710e-02, 2.22498574e-03,
          1.52610028e-02, 5.68445027e-03, -2.84726582e-02,
          -5.99801801e-02, -6.42592311e-02, -1.45974634e-02,
          -5.70452809e-02, -4.67192233e-02, 1.39043685e-02,
          3.84134017e-02, -2.11699102e-02, -5.39838150e-02,
          -1.05027623e-01, -7.16838166e-02, -2.89617591e-02,
          -7.45111108e-02, -8.83472413e-02, -1.75450630e-02,
          9.36387049e-04, 3.91399413e-02, -3.75143401e-02,
          -6.13896511e-02, -7.74470195e-02, -3.57607044e-02,
          -5.69206811e-02, -3.45757641e-02, 4.47783247e-02,
          5.94974644e-02, 1.63013451e-02, -4.20301557e-02,
          -9.71488804e-02, -6.74718469e-02, -4.48783822e-02,
          -6.22034185e-02, -5.81688359e-02, 1.96564402e-02,
          3.97930555e-02, -6.18305895e-03, -3.63677181e-02,
          -8.25358555e-02, -2.79377885e-02, 3.92082632e-02,
          -3.33335549e-02, -7.47363418e-02, -2.45044772e-02,
          1.62509158e-02, -3.26395445e-02, -7.27061480e-02,
          -1.20495014e-01, -6.60881624e-02, 3.86983491e-02,
          -7.60838315e-02, -1.18956551e-01, -6.14239611e-02,
          -2.45179180e-02, 1.60415545e-02, -2.46273484e-02,
          -8.79847109e-02, 4.72412724e-03, 2.88386196e-02,
          -2.66838297e-02, -7.18554854e-02, -3.69089050e-03,
          2.59379167e-02, -4.17139716e-02, -7.06467927e-02,
          -1.28556341e-01, -6.17989562e-02, 2.30399594e-02,
          -7.29300901e-02, -1.13164037e-01, -5.56394756e-02,
          -2.64255311e-02, -5.00168614e-02, -7.73530975e-02,
          -9.65587497e-02, -2.24826541e-02, 9.60843116e-02,
          -3.04481480e-02, -9.40659866e-02, -3.57444063e-02,
          -2.65122484e-02, -7.60946721e-02, -8.62960815e-02,
          -1.06446706e-01, -1.86119042e-02, 6.66934401e-02,
          -3.81576456e-02, -1.11463465e-01, -5.21649942e-02,
          -5.46653792e-02, -2.75004338e-02, -5.81513755e-02,
          -1.08947136e-01, -3.99212651e-02, 8.41465369e-02,
          -3.71741503e-02, -8.31406638e-02, -2.89786737e-02,
          -1.86355750e-03, -5.26528843e-02, -6.58618510e-02,
          -9.83937085e-02, -3.91096435e-02, 4.41128090e-02,
          -5.62880896e-02, -1.16218023e-01, -5.67570962e-02,
          -4.29512486e-02, -6.36436939e-02, -9.57562402e-02,
          -1.17214307e-01, -2.19032429e-02, 9.20257270e-02,
          -1.34756183e-02, -9.55616161e-02, -4.52817455e-02,
          -3.77846323e-02, -6.26120865e-02, -9.76879075e-02,
          -1.16014428e-01, -4.49345782e-02, 6.50187954e-02,
          -3.57023701e-02, -1.04656868e-01, -7.02839643e-02,
          -4.92681302e-02, -1.42590152e-02, -6.66487738e-02,
          -9.99864414e-02, -2.80232169e-02, 6.37383536e-02,
          -3.57346460e-02, -1.11309022e-01, -6.18953668e-02,
          -1.96111631e-02, -2.82976255e-02, -8.13352689e-02,
          -9.47957560e-02, -3.55682448e-02, 4.46377173e-02,
          -5.34341671e-02, -1.20337799e-01, -1.03671543e-01,
          -3.75202224e-02, -4.90641147e-02, -7.22948536e-02,
          -9.11005884e-02, -3.25134881e-02, 7.86156803e-02,
          -1.94290355e-02, -9.63181108e-02, -7.26249367e-02,
          -4.18205410e-02, -7.34577477e-02, -9.10462216e-02,
          -1.18285365e-01, -6.89554214e-02, 4.89830710e-02,
          -4.98243459e-02, -9.79489461e-02, -5.82124740e-02,
          -3.81010883e-02, -2.00808067e-02, -7.12558106e-02,
          -8.91837478e-02, -1.75050590e-02, 5.27921617e-02,
          -2.81645320e-02, -1.00236356e-01, -7.22817183e-02,
          -2.26425994e-02, -2.51012649e-02, -1.00445755e-01,
          -1.32097781e-01, -7.03488961e-02, 4.19936925e-02,
          -5.68846613e-02, -1.13596663e-01, -6.58651888e-02,
          -2.25542337e-02, -4.93649617e-02, -6.82175606e-02,
          -1.03396058e-01, -3.67585085e-02, 4.03669812e-02,
          -2.15323083e-02, -7.53148049e-02, -2.35688947e-02,
          -1.76091660e-02, -7.27732480e-02, -7.13621229e-02,
          -1.11911893e-01, -4.26631644e-02, 7.22625777e-02,
          -1.16868783e-02, -6.29108474e-02, -3.72723378e-02,
          -6.54857978e-02, -2.90693771e-02, -8.01502913e-02,
          -1.05236396e-01, -4.88723516e-02, 4.76337634e-02,
          -4.30512540e-02, -9.31985676e-02, -4.25412506e-02,
          -1.29886298e-02, -5.11369966e-02, -9.85598788e-02,
          -1.13686115e-01, -4.14583795e-02, 6.39463142e-02,
          -1.43159190e-02, -8.24082866e-02, -3.52907889e-02,
          -2.27390770e-02, -8.02911147e-02, -6.75794557e-02,
          -8.80853832e-02, -2.67438442e-02, 1.04228742e-01,
          5.67481527e-03, -5.41163944e-02, -4.42124531e-02,
          -6.75736591e-02, -1.39093414e-01, -9.63424519e-02,
          -1.00761876e-01, -2.19618902e-02, 1.24466881e-01,
          1.18690394e-02, -7.68019930e-02, -9.58505124e-02,
          -1.24128625e-01, -7.48430490e-02, -9.69339907e-02,
          -8.38430524e-02, -2.51887273e-02, 1.12958156e-01,
          1.13767553e-02, -6.66896328e-02, -3.67893316e-02,
          -4.08676229e-02, -1.33122876e-01, -1.24839127e-01,
          -1.01933651e-01, 5.06606279e-03, 1.49977699e-01,
          2.44175773e-02, -7.31120482e-02, -9.75332335e-02,
          -1.27857551e-01, -1.48551449e-01, -1.11748897e-01,
          -1.07285313e-01, -7.04913726e-03, 1.66353062e-01,
          1.37359705e-02, -8.67927000e-02, -9.38021317e-02,
          -1.27623647e-01, -1.86187834e-01, -1.40493527e-01,
          -1.10302925e-01, 4.01556343e-02, 2.28081152e-01,
          5.15153222e-02, -7.41221756e-02, -8.64009336e-02,
          -1.62567407e-01, -1.73889473e-01, -1.37318060e-01,
          -1.04146093e-01, 2.22119074e-02, 1.97571158e-01,
          2.43401863e-02, -9.62774381e-02, -1.16046213e-01,
          -1.67597294e-01, -2.06980124e-01, -1.57312870e-01,
          -9.73749533e-02, 6.77217171e-02, 2.56974787e-01,
          8.57548863e-02, -8.06666911e-02, -1.16650052e-01,
          -2.14946672e-01, -1.69080496e-01, -1.08396992e-01,
          -7.71783739e-02, 9.44738910e-02, 3.03322405e-01,
          8.27202946e-02, -6.91555291e-02, -8.42698738e-02,
          -1.48818314e-01, -2.23119259e-01, -1.66934669e-01,
          -1.30134523e-01, 1.34865157e-02, 1.79976180e-01,
          -2.53526792e-02, -1.33145884e-01, -1.55837655e-01,
          -1.92301720e-01, -2.04545259e-01, -1.42192200e-01,
          -7.12153092e-02, 1.25741377e-01, 3.33860785e-01,
          1.44494891e-01, -7.23686367e-02, -1.16462961e-01,
          -1.98284715e-01, -2.53953069e-01, -2.07503378e-01,
          -1.21374816e-01, 2.68292669e-02, 2.26446182e-01,
          2.05900893e-02, -1.37293711e-01, -1.77084655e-01,
          -2.32002512e-01, -1.47145495e-01, -1.14086598e-01,
          -5.00374809e-02, 6.21958077e-02, 2.16311008e-01,
          1.84791572e-02, -9.10411179e-02, -1.12953611e-01,
          -1.12450317e-01, -1.37139618e-01, -1.40772074e-01,
          -8.39713216e-02, -2.20194403e-02, 1.30617142e-01,
          -3.17666009e-02, -9.04145613e-02, -1.21144123e-01,
          -1.14636943e-01, -1.83113411e-01, -1.61083609e-01,
          -7.84655064e-02, 5.63571230e-02, 2.32158974e-01,
          4.79554012e-02, -8.22751969e-02, -1.22691475e-01,
          -1.46285459e-01, -1.59219518e-01, -1.81834966e-01,
          -1.19169541e-01, -3.76206636e-02, 1.33003235e-01,
          3.88291595e-03, -1.00138977e-01, -1.39742896e-01,
          -1.49132654e-01, -9.49850380e-02, -1.20087117e-01,
          -7.66317546e-02, -2.33693216e-02, 1.39066815e-01,
          -3.31376083e-02, -7.55543634e-02, -1.07286550e-01,
          -7.05902353e-02, -7.33956918e-02, -1.60179302e-01,
          -1.12032212e-01, -3.65131423e-02, 1.18175879e-01,
          -3.24354246e-02, -9.73104611e-02, -1.42553911e-01,
          -4.29164395e-02, -1.13164850e-01, -1.60196319e-01,
          -1.14915416e-01, -2.85426527e-02, 1.66384429e-01,
          1.58462450e-02, -8.63222182e-02, -1.31481960e-01,
          -1.04681253e-01, -8.73910710e-02, -1.88561514e-01,
          -1.23960078e-01, -2.12478377e-02, 1.35837674e-01,
          -5.78523427e-03, -8.61343592e-02, -1.58435285e-01,
          -7.17995614e-02, -1.84866190e-02, -1.57486260e-01,
          -1.23312399e-01, -5.10627888e-02, 1.06109679e-01,
          -3.82078066e-02, -9.88164917e-02, -1.36658698e-01,
          -1.27405087e-02, 4.35657091e-02, -1.73808247e-01,
          -1.64041534e-01, -1.20912842e-01, 3.97308590e-03,
          -9.51728672e-02, -1.04818106e-01, -1.45723343e-01,
          5.19043021e-02, -1.74189247e-02, -1.70459121e-01,
          -1.28829852e-01, -3.38375308e-02, 1.19702838e-01,
          -3.91335562e-02, -9.86642614e-02, -1.57788038e-01,
          -1.57829393e-02, 5.27038164e-02, -1.87788054e-01,
          -1.65416032e-01, -1.23397946e-01, 1.07861143e-02,
          -1.19459212e-01, -1.05826192e-01, -1.63809046e-01,
          4.61365953e-02, 1.04506306e-01, -2.65678018e-02,
          -6.77547976e-02, 1.05865654e-02, 1.88152362e-02,
          1.49035739e-04, -6.76231384e-02, -5.21702208e-02,
          1.00557975e-01, 8.65482986e-02, -5.03874533e-02,
          -8.47432241e-02, -1.02516459e-02, -1.20002246e-02,
          1.43627729e-02, -7.16507733e-02, -4.84697223e-02,
          9.14449096e-02, 1.65719554e-01, -1.04894573e-02,
          -5.53938448e-02, 1.20724794e-02, -2.33489517e-02,
          -3.94542590e-02, -9.55327153e-02, -5.02962433e-02,
          1.40616685e-01, 1.22406058e-01, -3.01673505e-02,
          -7.37673119e-02, -1.31821847e-02, -3.99665162e-02,
          5.38865686e-04, -8.18267986e-02, -4.64249998e-02,
          1.02847248e-01, 7.76076615e-02, -4.93097529e-02,
          -7.62424022e-02, -6.04321761e-03, 1.95280984e-02,
          1.95565782e-02, -6.51823133e-02, -4.91352417e-02,
          7.66077340e-02, 6.55084401e-02, -3.52438204e-02,
          -7.62117058e-02, -4.54743393e-03, -7.26785511e-03,
          -1.51404599e-02, -6.02761656e-02, -4.54441756e-02,
          7.55206868e-02, 1.04134999e-01, -4.40422781e-02,
          -7.37663731e-02, 5.65367658e-03, 1.09824948e-02,
          2.41606683e-02, -5.07220030e-02, -3.59450765e-02,
          1.01022139e-01, 8.71001780e-02, -2.72649210e-02,
          -8.50881115e-02, -1.15097286e-02, -2.83360779e-02,
          -1.40581084e-02, -6.52970150e-02, -3.43407504e-02,
          8.87107924e-02, 5.20335101e-02, -3.18078138e-02,
          -7.05845132e-02, -6.65136240e-03, -6.23564702e-03,
          -1.51566193e-02, -5.91370873e-02, -5.61115667e-02,
          3.95015590e-02, 5.06918021e-02, -3.85214062e-03,
          -3.16574723e-02, 1.66797377e-02, 8.67286697e-03,
          5.94745427e-02, -1.57835279e-02, -3.15321945e-02,
          1.99166872e-02, 8.36282596e-02, -2.90181208e-02,
          -8.83760154e-02, -7.34327827e-03, -3.10216919e-02,
          -1.08543169e-02, -8.32030773e-02, -5.41508049e-02,
          6.42116517e-02, 8.46657008e-02, 6.66117016e-03,
          -1.77053772e-02, 3.34296823e-02, -1.98779218e-02,
          5.80784269e-02, -3.97815183e-02, -2.99077313e-02,
          5.66237792e-02, 5.06277801e-03, -2.04529334e-02,
          -2.40598042e-02, 7.81663228e-03, -1.11418981e-02,
          3.93506996e-02, -1.12398658e-02, -1.41672846e-02,
          1.62071036e-03, 1.43590535e-03, -2.77321599e-03,
          -1.47735290e-02, -2.48264498e-03, -2.11317874e-02,
          3.64910252e-02, 1.53810484e-02, 2.07303893e-02,
          -1.42590506e-02, 4.83585857e-02, -9.14786384e-03,
          -1.47372242e-02, 1.96499773e-03, -2.05185264e-02,
          3.99263538e-02, -1.44888898e-02, -8.31030682e-03,
          3.30617428e-02, 5.33370338e-02, 1.89418606e-02,
          -1.63644832e-02, -2.34674997e-04, -1.77381169e-02,
          4.65891622e-02, 2.56365258e-02, 2.59505361e-02, 3.71806659e-02,
          -8.90523661e-03, 1.34966578e-02, -1.60029866e-02,
          -1.50716072e-03, 1.19380001e-03, 4.23593558e-02,
          2.48715393e-02, 3.05202510e-02, -1.92757361e-02,
          -1.39960246e-02, 9.68949031e-03, -3.12192179e-02,
          -1.44700650e-02, -2.19239015e-02, 4.70531583e-02,
          3.39883752e-03, 2.76806895e-02, 2.17065029e-03, 1.77643467e-02,
          2.31087171e-02, -7.10808346e-03, -8.05884774e-04,
          -1.74212307e-02, 6.32061511e-02, 3.80511358e-02,
          3.72877717e-02, 9.83028021e-03, -2.08263518e-03,
          1.04561672e-02, -1.72298998e-02, 1.33266451e-03,
          -4.94863018e-02, 4.82534356e-02, 4.42879014e-02,
          5.27948067e-02, 1.06817558e-02, -1.58701651e-02,
          2.00072099e-02, -1.95661467e-02, -2.10792758e-03,
          -9.04115499e-04, 2.11601723e-02, -1.57298986e-02,
          1.46850962e-02, 3.07014678e-03, -2.84255147e-02,
          6.95772981e-03, -5.17908260e-02, -6.49081245e-02,
          -7.80973360e-02, -4.46469411e-02, -4.44285199e-02,
          -4.42151027e-03, -1.66729577e-02, 7.75345089e-03,
          4.15830240e-02, 6.74760761e-03, 1.80915054e-02,
          -1.46114675e-04, 3.36637050e-02, 2.42128633e-02,
          4.80307154e-02, 2.59528216e-02, 2.31365561e-02, 5.30560464e-02,
          -2.70202160e-02, -6.26709312e-02, -8.31464231e-02,
          -3.12903486e-02, -3.17626186e-02, 1.24146193e-02,
          1.30453147e-02, 4.58691595e-03, -5.59837464e-03,
          -4.79988642e-02, -3.95058468e-02, -2.66452096e-02,
          -2.18148362e-02, -2.63762306e-02, 3.09870485e-02,
          3.03006936e-02, -5.29873744e-03, -4.70896214e-02,
          -8.27414989e-02, -9.25088003e-02, -9.08210874e-02,
          -8.61518010e-02, -7.22237378e-02, 1.08550945e-02,
          1.28632169e-02, 7.40489811e-02, 7.18692914e-02,
          -6.42927177e-03, -3.15854102e-02, -5.52432500e-02,
          -2.39524562e-02, -1.64487381e-02, 4.47093993e-02,
          7.36344308e-02, 7.39441663e-02, 5.39411418e-02,
          -5.36601245e-02, -8.11942667e-02, -1.32741213e-01,
          -9.17347074e-02, -5.96173145e-02, 4.08418402e-02,
          7.46053532e-02, 7.72782834e-03, -3.78607921e-02,
          -7.07514212e-02, -6.86072782e-02, -3.83802094e-02,
          -6.18417077e-02, -6.29689917e-02, 1.74467247e-02,
          4.44324426e-02, -3.63831362e-03, -4.95682918e-02,
          -9.73315537e-02, -7.05673397e-02, -5.94208017e-02,
          -8.62597376e-02, -8.60278457e-02, -9.65101644e-03,
          2.12049652e-02, 8.54085237e-02, 5.79258353e-02,
          -4.62684557e-02, -5.40117472e-02, -6.23350181e-02,
          -7.27114677e-02, -5.41712493e-02, 5.08191139e-02,
          8.51604864e-02, 5.49144596e-02, 5.12467548e-02,
          -4.58962694e-02, -4.81365398e-02, -6.94624037e-02,
          -9.92765576e-02, -7.97397047e-02, 2.57739555e-02,
          7.74299875e-02, -4.04499471e-03, -2.47853380e-02,
          -6.61232769e-02, -1.11350305e-02, 6.02982240e-03,
          -4.96285781e-02, -9.55925509e-02, -2.15903707e-02,
          2.17233226e-02, -4.29180861e-02, -6.23304807e-02,
          -1.07963920e-01, -7.24933147e-02, -1.97559875e-02,
          -8.61404091e-02, -1.24078371e-01, -5.83144799e-02,
          -2.29399484e-02, 9.13885459e-02, 7.89621770e-02,
          -4.05640341e-03, 7.12725613e-03, -2.66702157e-02,
          -4.89642397e-02, -6.54665753e-02, 1.23505704e-02,
          8.66648331e-02, 5.21057919e-02, 2.99472176e-02,
          -4.79352213e-02, -4.93898690e-02, -5.90378866e-02,
          -6.76043183e-02, -1.10101961e-01, -3.42843570e-02,
          3.75394523e-02, -3.51210944e-02, -6.45717755e-02,
          -1.10626414e-01, -5.20422235e-02, 1.48494318e-02,
          -5.90875037e-02, -9.98247042e-02, -4.56918254e-02,
          1.08621195e-02, -5.86472489e-02, -8.76001269e-02,
          -1.09066524e-01, -5.72655052e-02, 8.17851350e-03,
          -6.85438886e-02, -1.26705095e-01, -7.50414878e-02,
          -2.47030202e-02, 6.09764084e-02, 8.53293762e-03,
          -6.03109114e-02, -1.84585955e-02, -3.46694537e-03,
          -2.72658169e-02, -7.18809888e-02, -3.09027894e-03,
          5.44826537e-02, 6.82162959e-03, -4.18298393e-02,
          -7.38823116e-02, -2.33725552e-02, 6.54749013e-03,
          -4.46268730e-02, -9.70121771e-02, -1.95212476e-02,
          1.38487741e-02, -3.24440747e-02, -7.41576850e-02,
          -7.99571499e-02, -2.54267231e-02, 5.14035374e-02,
          -3.70879881e-02, -1.20196864e-01, -6.97762370e-02,
          -1.72201972e-02, -4.69754301e-02, -9.41456184e-02,
          -1.07580103e-01, -2.42502652e-02, 2.35474370e-02,
          -7.48766661e-02, -1.29588202e-01, -1.04561970e-01,
          -4.08691876e-02, 3.70156653e-02, -4.43772413e-02,
          -5.65701500e-02, -4.75444918e-04, 5.14470153e-02,
          -1.41439894e-02, -9.26868394e-02, -1.94631126e-02,
          4.44163159e-02, -1.82334520e-02, -8.04353282e-02,
          -1.06429465e-01, -3.90801840e-02, 4.86840773e-03,
          -6.69952407e-02, -1.36992455e-01, -8.67888778e-02,
          -2.07833610e-02, -2.00497601e-02, -5.34425564e-02,
          -8.89182389e-02, -6.63065352e-03, 5.80064990e-02,
          -2.66652871e-02, -9.04286355e-02, -6.99667558e-02,
          -4.31758352e-03, -2.89441682e-02, -8.19138736e-02,
          -1.29411459e-01, -7.68155307e-02, 1.07986517e-02,
          -4.45661470e-02, -1.13473557e-01, -7.04907328e-02,
          -1.79553218e-02, -1.24807153e-02, -5.14772162e-02,
          -9.35321748e-02, -2.33485783e-03, 5.79298213e-02,
          -1.47408256e-02, -9.65046957e-02, -5.85001409e-02,
          -1.82549786e-02, -4.41243201e-02, -9.46163163e-02,
          -1.34164423e-01, -7.09147677e-02, 1.28466459e-02,
          -2.47920752e-02, -1.17143475e-01, -7.64218047e-02,
          -4.04023752e-02, -2.29020938e-02, -7.36624897e-02,
          -1.07071124e-01, -5.50916679e-02, 4.44737412e-02,
          -3.21249142e-02, -9.56522897e-02, -5.61747290e-02,
          -7.65530206e-03, -4.84338924e-02, -1.08497776e-01,
          -1.11030765e-01, -3.19930576e-02, 7.99242929e-02,
          -1.64465811e-02, -1.00659341e-01, -5.77473938e-02,
          -2.78144050e-02, -3.52037475e-02, -7.83869326e-02,
          -9.80086625e-02, -3.55165824e-02, 6.02822080e-02,
          -6.31879875e-03, -8.76661837e-02, -6.65949658e-02,
          -4.35384214e-02, -6.83303326e-02, -9.64925662e-02,
          -8.82190093e-02, 1.26095228e-02, 1.15081050e-01,
          1.80096515e-02, -9.17880535e-02, -8.32971856e-02,
          -7.08125755e-02, -6.50350899e-02, -1.05465330e-01,
          -8.78616571e-02, -1.94162596e-02, 9.88022834e-02,
          3.14703560e-03, -8.21924284e-02, -5.73387109e-02,
          -3.98230478e-02, -1.21325716e-01, -1.25960886e-01,
          -9.85083282e-02, 9.14359838e-03, 1.51055768e-01,
          5.08758239e-03, -8.33257809e-02, -1.01684667e-01,
          -1.21030055e-01, -8.72122496e-02, -9.02203619e-02,
          -8.93504247e-02, 2.10187305e-02, 1.30530208e-01,
          2.14920361e-02, -8.57678801e-02, -9.00083631e-02,
          -8.48877579e-02, -1.36448652e-01, -1.06363982e-01,
          -8.08092654e-02, 3.87901142e-02, 1.61756769e-01,
          1.34286331e-02, -6.92575648e-02, -9.91959721e-02,
          -1.30556405e-01, -1.64789170e-01, -1.18906990e-01,
          -8.14014822e-02, 3.07556856e-02, 1.86624333e-01,
          1.39829097e-02, -8.87183547e-02, -1.06860369e-01,
          -1.69504210e-01, -2.20810831e-01, -1.44276947e-01,
          -7.53859282e-02, 7.95140117e-02, 2.67340720e-01,
          8.36319700e-02, -8.07453766e-02, -1.18546054e-01,
          -2.31680542e-01, -1.81070819e-01, -1.33706301e-01,
          -6.44911304e-02, 6.82094619e-02, 2.10525960e-01,
          3.88765596e-02, -4.86524105e-02, -8.13937262e-02,
          -1.83691919e-01, -2.14970082e-01, -1.40235394e-01,
          -5.54499328e-02, 1.21220939e-01, 2.72080779e-01,
          1.22760773e-01, -5.19691259e-02, -1.13254413e-01,
          -2.31568575e-01, -2.11059406e-01, -1.38075456e-01,
          -5.82132228e-02, 1.37533486e-01, 3.43063682e-01,
          1.39755934e-01, -5.38364127e-02, -1.00297719e-01,
          -2.06594333e-01, -2.66245037e-01, -1.95809260e-01,
          -1.04114376e-01, 4.22869399e-02, 2.42605001e-01,
          3.99806499e-02, -1.07944839e-01, -1.64778247e-01,
          -2.47866690e-01, -2.20637068e-01, -1.40606061e-01,
          -6.80665523e-02, 1.56187132e-01, 3.46885175e-01,
          1.62945032e-01, -4.78863567e-02, -1.07963644e-01,
          -2.16124505e-01, -2.98927665e-01, -2.18351915e-01,
          -1.23822249e-01, 5.33482023e-02, 2.45145336e-01,
          5.14537878e-02, -1.09322168e-01, -1.80818781e-01,
          -2.81746268e-01, -1.78397223e-01, -1.46656498e-01,
          -6.55325651e-02, 6.36830404e-02, 2.69067556e-01,
          7.44410902e-02, -5.21058999e-02, -1.01540722e-01,
          -1.60762832e-01, -1.44558221e-01, -1.54006571e-01,
          -1.07438214e-01, -2.38806419e-02, 1.48540914e-01,
          1.56311858e-02, -8.11516941e-02, -1.22257620e-01,
          -1.41254753e-01, -1.96470663e-01, -1.74545452e-01,
          -8.27589706e-02, 8.34013522e-02, 2.90399581e-01,
          1.10420093e-01, -4.83132228e-02, -1.09583378e-01,
          -1.74970940e-01, -1.55173793e-01, -1.70258597e-01,
          -1.00760229e-01, -2.46180251e-04, 1.78705335e-01,
          3.05679534e-02, -7.83091486e-02, -1.30287617e-01,
          -1.50197312e-01, -9.57654119e-02, -1.35655284e-01,
          -1.09243020e-01, -2.66631264e-02, 1.52991578e-01,
          2.69158222e-02, -7.26214275e-02, -1.09679773e-01,
          -8.43507797e-02, -7.27172047e-02, -1.68798804e-01,
          -1.17554009e-01, -6.37118053e-03, 1.33556515e-01,
          1.04493871e-02, -7.57374018e-02, -1.47934884e-01,
          -6.49264380e-02, -1.06786177e-01, -1.62534192e-01,
          -1.05921879e-01, -2.17006765e-02, 1.71087563e-01,
          4.33900431e-02, -6.91435114e-02, -1.23928167e-01,
          -1.03573836e-01, -6.94627911e-02, -1.71461463e-01,
          -1.04406126e-01, -1.55771393e-02, 1.43557131e-01,
          2.69064158e-02, -8.99500027e-02, -1.59891933e-01,
          -7.23386034e-02, -1.94195751e-02, -1.54103458e-01,
          -1.16212033e-01, -1.47405900e-02, 1.19714990e-01,
          -3.61355431e-02, -9.92705896e-02, -1.41311109e-01,
          -1.78739168e-02, 3.95203941e-02, -1.65751696e-01,
          -1.37798280e-01, -9.60591435e-02, 3.06039378e-02,
          -1.03802025e-01, -1.21070921e-01, -1.40830398e-01,
          4.11011614e-02, -1.68637279e-02, -1.61327481e-01,
          -1.17473312e-01, -4.23059948e-02, 1.16777271e-01,
          -3.50680389e-02, -1.12299100e-01, -1.45708010e-01,
          -1.62534080e-02, 4.89100590e-02, -1.72383547e-01,
          -1.43293694e-01, -1.05116196e-01, 2.73896698e-02,
          -1.03410751e-01, -1.37276575e-01, -1.63367733e-01,
          3.22703533e-02, 1.45211294e-01, -2.26306953e-02,
          -4.78954837e-02, 1.65342689e-02, -2.55643688e-02,
          -2.98169516e-02, -9.51112136e-02, -6.80635646e-02,
          1.28787845e-01, 9.92844850e-02, -4.14396748e-02,
          -6.46034330e-02, 2.94834096e-03, -2.34822668e-02,
          2.57505593e-03, -8.44158083e-02, -5.15990555e-02,
          8.85137320e-02, 1.68839723e-01, -2.46581379e-02,
          -4.96980026e-02, 3.05569675e-02, -2.32498199e-02,
          7.62609811e-03, -7.54362494e-02, -6.38251379e-02,
          1.36970341e-01, 1.37231648e-01, -6.85839169e-03,
          -4.30452526e-02, 2.79222112e-02, -4.48586047e-02,
          1.29826320e-02, -8.67103338e-02, -5.08439466e-02,
          1.22209676e-01, 6.04046658e-02, -4.18671444e-02,
          -7.28202835e-02, -4.83387819e-04, 4.93944297e-03,
          3.28775980e-02, -5.48103452e-02, -3.61655988e-02,
          6.83772042e-02, 6.93825036e-02, -3.04692369e-02,
          -7.92354420e-02, 1.03969807e-02, -2.90921275e-02,
          4.35864180e-03, -6.91799670e-02, -3.08413431e-02,
          6.97690248e-02, 9.50839520e-02, -2.50853524e-02,
          -5.75765669e-02, 1.06403166e-02, -3.01613845e-03,
          2.74320748e-02, -7.69491419e-02, -5.07303663e-02,
          1.04526117e-01, 1.13975435e-01, 1.62100457e-02,
          -3.41530368e-02, 3.74226943e-02, -2.19056266e-04,
          3.11397333e-02, -5.36821336e-02, -2.14784071e-02,
          1.13763846e-01, 7.27538541e-02, -2.65392158e-02,
          -7.74110258e-02, 4.40337555e-03, -2.87435465e-02,
          -4.68135253e-03, -9.02382061e-02, -4.56511676e-02,
          4.87735160e-02, 7.72624984e-02, 6.11091545e-03,
          -3.07438113e-02, 2.40320675e-02, -4.91294935e-02,
          3.42691764e-02, -6.71270937e-02, -3.34980413e-02,
          5.04698753e-02, 9.96785611e-02, 7.50279892e-03,
          -4.35875915e-02, 2.15834863e-02, 8.95886775e-03,
          1.35453707e-02, -6.23090751e-02, -3.38137373e-02,
          1.06249288e-01, 1.02184996e-01, 1.96778290e-02,
          -1.67897623e-02, 2.31144354e-02, -1.74323078e-02,
          2.62310635e-02, -6.00844994e-02, -4.25167345e-02,
          9.80844274e-02, 3.58885862e-02, -3.24060628e-03,
          -2.98700593e-02, -1.23800756e-03, -1.74127165e-02,
          2.77289767e-02, -4.48362157e-02, -3.30284573e-02,
          1.76231507e-02, 2.45400481e-02, 8.79716128e-03,
          -1.99569948e-02, 1.80180799e-02, -2.58735009e-02,
          6.24690838e-02, 1.03272088e-02, -7.28591299e-03,
          4.86239232e-03, 6.10941462e-02, 2.91422103e-02, 2.50413339e-03,
          3.10875587e-02, -2.15233155e-02, 2.13215575e-02,
          -5.93463667e-02, -5.54746911e-02, 3.46739553e-02,
          6.44254535e-02, 7.59519488e-02, 4.44968455e-02, 6.38252869e-02,
          -3.11285108e-02, 5.24116009e-02, -1.38498349e-02,
          -1.55077677e-03, 5.10392375e-02, -1.93227697e-02,
          -1.44182760e-02, -2.66249478e-02, -6.37882343e-03,
          -3.39187533e-02, 4.10494283e-02, 1.13309603e-02,
          1.46624248e-03, -2.47794129e-02, -3.79420407e-02,
          5.87925036e-03, 2.17353328e-04, 1.59629260e-03,
          -8.36827904e-02, 4.66344738e-03, 2.04346259e-03,
          2.07520351e-02, -2.29550619e-02, 5.03586717e-02,
          4.12240550e-02, 1.72307640e-02, 1.81107819e-02,
          -3.85788418e-02, 2.44321749e-02, -4.53303894e-03,
          1.94962807e-02, 4.01328169e-02, 3.35028134e-02, 1.22882344e-01,
          1.08817436e-01, 9.33656096e-02, -6.65471405e-02,
          1.74920894e-02, 1.13997757e-02, 2.85824165e-02, 2.19345577e-02,
          -3.90560888e-02, 2.32401025e-02, 7.78936269e-03,
          -2.56764442e-02, -9.22850668e-02, -3.84008661e-02,
          -3.95319313e-02, -1.43619692e-02, -3.01736649e-02,
          3.94334793e-02, 1.03643388e-01, -1.68197844e-02,
          -1.08723849e-01, -1.91726297e-01, -9.66281444e-02,
          -9.39210132e-02, -4.20713574e-02, -2.90907286e-02,
          6.14083260e-02, 2.58735389e-01, 2.24028930e-01, 1.04042664e-01,
          -1.01396233e-01, -5.73089346e-02, -5.44090308e-02,
          -2.19127201e-02, -2.19035484e-02, 1.95874587e-01,
          3.30411583e-01, 2.07953542e-01, 5.74484514e-03,
          -2.29676619e-01, -1.37185663e-01, -1.27163380e-01,
          -6.40463755e-02, 3.56469746e-03, 1.20958649e-01,
          1.34070322e-01, -2.12114621e-02, -1.04110621e-01,
          -1.80238202e-01, -1.11123279e-01, -8.25942531e-02,
          -1.71091408e-02, 1.57194436e-02, 1.35072798e-01,
          1.27657220e-01, -6.97336644e-02, -1.64825767e-01,
          -2.69214928e-01, -1.81379899e-01, -1.07689708e-01,
          -3.22039835e-02, 3.44174206e-02, 3.12157720e-01,
          3.46760184e-01, 8.74055251e-02, -9.73285288e-02,
          -2.45870993e-01, -1.44263968e-01, -1.00891382e-01,
          -1.33679798e-02, 1.07244477e-01, 3.01717460e-01,
          2.62951374e-01, -3.10652535e-02, -1.95904166e-01,
          -3.29601258e-01, -2.16336295e-01, -1.08946659e-01,
          1.06869768e-02, 1.42386898e-01, 1.27286077e-01, 1.14120841e-01,
          -5.12647256e-02, -1.30785167e-01, -1.90744355e-01,
          -1.60672799e-01, -9.38665792e-02, 6.32404641e-04,
          6.73163235e-02, 9.85645875e-02, 8.07997808e-02,
          -6.78882077e-02, -1.39925495e-01, -1.97957337e-01,
          -1.91516653e-01, -1.23540200e-01, -2.21854355e-02,
          4.97011989e-02, 2.95478523e-01, 2.35585511e-01,
          -1.10553000e-02, -1.56256557e-01, -2.68277824e-01,
          -1.76049426e-01, -6.52045459e-02, 5.66988885e-02,
          1.74722642e-01, 2.33251974e-01, 2.03633711e-01,
          -3.52578685e-02, -1.72174945e-01, -2.87575990e-01,
          -1.99123040e-01, -1.12116024e-01, 4.16014716e-02,
          1.49824783e-01, 1.27368242e-01, 7.97069743e-02,
          -4.10257131e-02, -8.48811492e-02, -1.44447446e-01,
          -1.16702937e-01, -1.02224447e-01, -2.68351356e-03,
          7.49313086e-02, 8.54897648e-02, 4.42575775e-02,
          -8.77807811e-02, -1.31075695e-01, -1.78073332e-01,
          -1.49203926e-01, -1.48306981e-01, -5.87895848e-02,
          2.32833382e-02, 2.74220407e-01, 2.02818885e-01,
          -3.10950056e-02, -1.32454827e-01, -2.08755091e-01,
          -1.42945483e-01, -7.99198970e-02, 6.16439171e-02,
          2.03300491e-01, 2.20915034e-01, 1.50518924e-01,
          -6.20312430e-02, -1.50063694e-01, -2.22484633e-01,
          -1.69828519e-01, -9.88942310e-02, 3.42463478e-02,
          1.41849101e-01, 7.15656951e-02, 1.55718569e-02,
          -7.88048208e-02, -8.43284652e-02, -1.16488412e-01,
          -1.07124992e-01, -1.11586452e-01, -3.42862569e-02,
          3.77329960e-02, 2.74993246e-03, -4.64917459e-02,
          -1.15376897e-01, -7.69615173e-02, -1.00003667e-01,
          -1.07908882e-01, -1.22360490e-01, -5.46684451e-02,
          5.40004903e-03, 2.30868459e-01, 1.08471103e-01,
          -5.66847250e-02, -9.35589224e-02, -1.43531516e-01,
          -9.91693810e-02, -5.96822128e-02, 5.68756945e-02,
          1.80210799e-01, 1.81380779e-01, 4.10967991e-02,
          -1.23536073e-01, -1.12144053e-01, -1.31868869e-01,
          -8.12583044e-02, -6.23216145e-02, 5.36057949e-02,
          1.83430180e-01, 3.38044092e-02, -4.26999182e-02,
          -9.78205800e-02, -6.45180643e-02, -4.86568287e-02,
          -6.80006966e-02, -1.22750744e-01, -4.42806035e-02,
          3.08157727e-02, -9.19670425e-03, -1.02523342e-01,
          -1.58089817e-01, -1.09346755e-01, -9.01834592e-02,
          -1.22713074e-01, -1.75807104e-01, -1.08892955e-01,
          -2.24030633e-02, 2.33323976e-01, 1.66333262e-02,
          -1.29025683e-01, -8.28002617e-02, -7.30607286e-02,
          -3.43795605e-02, -4.49250452e-02, 8.41098875e-02,
          2.55630255e-01, 1.87179357e-01, -4.84521501e-02,
          -1.74114347e-01, -1.36617139e-01, -1.19697243e-01,
          -9.93735418e-02, -1.30178809e-01, 1.36536742e-02,
          2.11843267e-01, 2.58385856e-03, -7.14848936e-02,
          -1.26030952e-01, -5.41068465e-02, -3.67335565e-02,
          -7.36750886e-02, -1.44562989e-01, -7.76012838e-02,
          -1.17094461e-02, -2.26133149e-02, -8.53742585e-02,
          -1.47133753e-01, -1.20181940e-01, -9.30507928e-02,
          -1.04391627e-01, -1.69230521e-01, -1.10800162e-01,
          -3.89358699e-02, 2.52644837e-01, 2.62736413e-03,
          -1.20770872e-01, -8.67374837e-02, -6.42797723e-02,
          -5.80885299e-02, -1.11827724e-01, 3.91733684e-02,
          2.55054802e-01, 2.17411861e-01, 1.20176990e-02,
          -1.34422719e-01, -1.29165351e-01, -1.40150666e-01,
          -1.32863387e-01, -1.63733155e-01, -1.47237694e-02,
          2.14215040e-01, -4.10505058e-03, -7.03742728e-02,
          -1.21968918e-01, -9.32823569e-02, -2.58031432e-02,
          -7.12285191e-02, -1.36042207e-01, -8.34476277e-02,
          -2.86844168e-02, -4.55290191e-02, -8.29962566e-02,
          -1.21847279e-01, -5.60126193e-02, 9.62247979e-03,
          -6.04309626e-02, -1.48202181e-01, -1.06807552e-01,
          -7.18731433e-02, 2.43080780e-01, 3.60224247e-02,
          -9.87708196e-02, -9.55010504e-02, -8.08157846e-02,
          -1.10135369e-01, -1.29206747e-01, -5.38427103e-03,
          2.00505570e-01, 1.82165101e-01, 4.50491384e-02,
          -1.09525278e-01, -8.84522498e-02, -6.55036196e-02,
          -1.06921680e-01, -1.64299801e-01, -5.50364181e-02,
          1.42897487e-01, -7.37600923e-02, -7.56415725e-02,
          -1.05769373e-01, -3.41127664e-02, 4.64152694e-02,
          -3.79488729e-02, -1.30501390e-01, -1.12589575e-01,
          -9.54059958e-02, -1.29067808e-01, -1.16701104e-01,
          -1.06697947e-01, -3.70990369e-03, 7.35850260e-02,
          -3.76890376e-02, -1.06412299e-01, -1.07614197e-01,
          -1.28805995e-01, 1.60014063e-01, 3.08072641e-02,
          -9.55053046e-02, -5.59866615e-02, -2.23191138e-02,
          -8.50757882e-02, -1.52106553e-01, -5.14243767e-02,
          1.15922548e-01, 9.12039801e-02, 1.22127114e-02,
          -5.16841710e-02, -9.91503522e-03, 2.51301788e-02,
          -3.05134989e-02, -9.78123844e-02, -2.87210941e-02,
          7.51294419e-02, -1.87841162e-01, -1.41623095e-01,
          -1.00952812e-01, 5.98992314e-03, 1.22146569e-01,
          -7.37231923e-03, -8.94070491e-02, -9.06647891e-02,
          -1.76467478e-01, -2.39961818e-01, -1.64205164e-01,
          -1.22874431e-01, 4.90169935e-02, 1.84696734e-01,
          5.37862778e-02, -1.04283780e-01, -1.27237916e-01,
          -2.41987735e-01, -2.71350499e-02, -1.14990566e-02,
          -3.64509039e-02, 3.31571437e-02, 1.34241387e-01,
          1.95828341e-02, -6.49231598e-02, -2.34414022e-02,
          -1.50898462e-02, -1.08266316e-01, -4.77235876e-02,
          -2.83039678e-02, 1.43124431e-01, 2.73677289e-01,
          1.42033011e-01, -1.12454211e-02, -3.52838449e-02,
          -1.12886079e-01, -1.95743501e-01, -1.32964268e-01,
          -8.25149640e-02, 1.13710016e-01, 3.23609024e-01,
          1.58038542e-01, -4.86005396e-02, -9.87363607e-02,
          -1.85786039e-01, -2.73150921e-01, -2.11687565e-01,
          -1.62105754e-01, -1.05024474e-02, 1.70708865e-01,
          -2.87530915e-04, -1.36864617e-01, -1.87638924e-01,
          -2.66768754e-01, -1.54032364e-01, -8.91706571e-02,
          -2.27402486e-02, 2.08938301e-01, 4.14850712e-01,
          2.72024632e-01, 6.27653077e-02, -2.49868575e-02,
          -1.29186690e-01, -3.14009488e-01, -2.52801389e-01,
          -1.75029024e-01, -1.11072026e-02, 2.13629067e-01,
          6.11170568e-02, -1.15245171e-01, -2.00348005e-01,
          -2.92747915e-01, -1.65659413e-01, -1.39927372e-01,
          -7.05351159e-02, 7.90415108e-02, 2.73316354e-01,
          9.90750417e-02, -4.82312739e-02, -1.06004894e-01,
          -1.50744319e-01, -1.55015185e-01, -1.52876765e-01,
          -8.47659558e-02, 1.70366256e-04, 1.43720672e-01,
          1.51664726e-02, -7.74337351e-02, -1.22062303e-01,
          -1.36070371e-01, -1.95120484e-01, -1.45056680e-01,
          -8.72296393e-02, 6.55651167e-02, 2.66319662e-01,
          1.08811706e-01, -4.94974889e-02, -1.30145550e-01,
          -1.78766817e-01, -1.71265155e-01, -1.59506410e-01,
          -8.27871189e-02, 9.75903496e-03, 1.55613929e-01,
          2.98122931e-02, -7.67703503e-02, -1.65292174e-01,
          -1.58068463e-01, -9.49925780e-02, -1.33261472e-01,
          -7.85925835e-02, -2.21603047e-02, 1.46380663e-01,
          2.03275234e-02, -7.71686286e-02, -1.26868561e-01,
          -9.02012363e-02, -4.96125594e-02, -1.37387261e-01,
          -7.73156881e-02, -5.83393080e-03, 1.25812739e-01,
          -6.85789669e-03, -8.44935924e-02, -1.34247795e-01,
          -5.96019588e-02, -1.11100771e-01, -1.30654559e-01,
          -6.75729513e-02, 9.95017588e-03, 1.63701639e-01,
          7.12147122e-03, -8.04935768e-02, -1.42666519e-01,
          -1.07594065e-01, -7.34314322e-02, -1.48804218e-01,
          -6.99872673e-02, 2.31642034e-02, 1.36847913e-01,
          -9.74969193e-03, -9.01048928e-02, -1.42976344e-01,
          -7.21284822e-02, -9.78452247e-03, -1.31159425e-01,
          -9.16049853e-02, -2.94633843e-02, 9.75540951e-02,
          -4.01440710e-02, -9.91891995e-02, -1.25545576e-01,
          -2.22562416e-03, 4.96762842e-02, -1.41155645e-01,
          -1.12592101e-01, -1.07831396e-01, 7.63864676e-03,
          -1.11005373e-01, -1.25067934e-01, -1.59781516e-01,
          4.58477624e-02, -8.17781780e-03, -1.50336668e-01,
          -1.05976366e-01, -1.49182128e-02, 1.15325309e-01,
          -1.86119322e-02, -7.94709399e-02, -1.22571565e-01,
          5.59467648e-04, 4.20649201e-02, -1.57559752e-01,
          -1.40099168e-01, -1.11695796e-01, 2.50037014e-02,
          -9.72293615e-02, -1.29073143e-01, -1.46279499e-01,
          4.88445833e-02, 1.57261640e-01, -4.11765203e-02,
          -6.92283735e-02, 1.96594037e-02, -2.36302353e-02,
          6.72978768e-03, -7.31969476e-02, -5.32399341e-02,
          1.37261257e-01, 1.46845490e-01, -2.21114550e-02,
          -6.25595525e-02, 1.43738240e-02, -6.26399368e-02,
          -1.25798592e-02, -9.25151557e-02, -6.00687712e-02,
          1.29576117e-01, 1.60754457e-01, -5.31352758e-02,
          -8.99554491e-02, -4.10617050e-03, -5.06226309e-02,
          6.29949896e-03, -7.14491606e-02, -4.00013104e-02,
          1.60859138e-01, 1.57954410e-01, -3.15932669e-02,
          -8.25776607e-02, -2.47437251e-03, -9.45633650e-02,
          5.67293866e-03, -7.97107145e-02, -4.34845611e-02,
          1.46860406e-01, 1.20346829e-01, -1.64943356e-02,
          -4.88690175e-02, 1.69441029e-02, -6.44542370e-03,
          1.54388519e-02, -7.84825012e-02, -6.93707019e-02,
          1.16147295e-01, 1.42336085e-01, 2.41686348e-02,
          -4.23040390e-02, 2.79480144e-02, -1.52822845e-02,
          1.67185497e-02, -5.45687899e-02, -3.88937071e-02,
          1.16461672e-01, 1.25354245e-01, -2.54032649e-02,
          -5.86668253e-02, 1.40618905e-02, -4.79781590e-02,
          1.17482208e-02, -7.20802993e-02, -5.52633703e-02,
          1.31076083e-01, 1.14420600e-01, 2.29451200e-03,
          -5.76002151e-02, 9.34532192e-03, -9.58577842e-02,
          -3.09950905e-03, -7.62262121e-02, -4.96663265e-02,
          1.07243471e-01, 8.51767808e-02, 6.98997127e-03,
          -4.84736003e-02, 1.09867696e-02, -1.34589924e-02,
          3.42416787e-03, -6.02020361e-02, -3.71139236e-02,
          8.36548880e-02, 8.57492462e-02, 2.22167522e-02, 1.00274301e-04,
          4.68134657e-02, 4.17869352e-03, 1.47702442e-02,
          -7.32177719e-02, -3.76474522e-02, 8.35821405e-02,
          8.70522410e-02, -9.86833312e-03, -7.54982457e-02,
          -4.19169851e-03, -3.92073356e-02, -1.61488242e-02,
          -9.11819860e-02, -5.39986342e-02, 6.18946217e-02,
          6.06035553e-02, 2.82959477e-03, 6.62792055e-03, 8.30053166e-02,
          -2.01496854e-03, 2.81954184e-02, -8.52526650e-02,
          -4.59990613e-02, 4.69933972e-02, -6.53446536e-04,
          9.59477201e-03, 1.02243125e-02, 1.56126143e-02,
          -7.87524357e-02, -4.23461273e-02, -1.18183650e-01,
          -9.43043903e-02, -2.68991701e-02, 5.80614768e-02,
          1.35654613e-01, 1.02830827e-01, 5.22089899e-02,
          -1.19684897e-01, -2.77632251e-02, -8.50077868e-02,
          -5.66249304e-02, -1.33696822e-02, -2.52200998e-02,
          7.83139169e-02, 1.49595603e-01, 1.38434827e-01,
          -3.67670469e-02, -3.56835756e-03, -1.04050264e-01,
          -9.71257836e-02, -7.64445886e-02, 1.48476958e-01,
          3.03611636e-01, 3.01168889e-01, 2.04019934e-01,
          -5.44471890e-02, 4.94785048e-02, -2.18396857e-02,
          1.29719209e-02, 3.67871262e-02, 3.40915248e-02, 6.91488981e-02,
          2.58573890e-02, -2.11687777e-02, -1.52121380e-01,
          -7.16507137e-02, -7.45744929e-02, -2.40831710e-02,
          -7.20078591e-03, -1.54883433e-02, 1.19227499e-01,
          1.47130847e-01, 8.76983553e-02, -1.68519154e-01,
          -8.06742609e-02, -6.33906126e-02, -6.85248198e-03,
          -3.22287828e-02, 1.30536675e-01, 2.16509655e-01,
          1.57823280e-01, 5.76343313e-02, -1.32499576e-01,
          -3.49841565e-02, -1.76549386e-02, 6.93131238e-02,
          8.36223289e-02, 2.51493473e-02, 1.95951447e-01, 2.20316142e-01,
          1.56878069e-01, -1.08781859e-01, -4.09255251e-02,
          2.51917075e-02, 9.66814235e-02, 2.29549855e-02, 2.40553133e-02,
          2.82543242e-01, 3.40221226e-01, 2.17195272e-01,
          -1.04559340e-01, -8.43177289e-02, -7.11054802e-02,
          -3.50874662e-02, -8.22910145e-02, 8.47021416e-02,
          3.07104737e-01, 2.61086851e-01, 4.76374514e-02,
          -2.69501001e-01, -1.91392183e-01, -1.67200238e-01,
          -1.15553372e-01, -1.09694421e-01, -5.69966510e-02,
          2.18167916e-01, 3.37586612e-01, 2.57632107e-01,
          -5.52428588e-02, -4.19246480e-02, -8.48865323e-03,
          2.61200741e-02, -8.30458254e-02, -1.29007190e-01,
          9.61883143e-02, 1.43846601e-01, 2.85143368e-02,
          -2.54076630e-01, -1.74894094e-01, -1.39930457e-01,
          -1.16696686e-01, -1.91606537e-01, 3.18158031e-01,
          3.79721165e-01, 1.78752065e-01, -2.10595168e-02,
          -2.26720795e-01, -1.36469513e-01, -7.25348890e-02,
          9.78999119e-03, 1.32028639e-01, 3.28829348e-01, 2.77649254e-01,
          3.91810713e-03, -1.71891987e-01, -3.53480667e-01,
          -2.20440358e-01, -9.32796597e-02, 5.46601266e-02,
          2.12950602e-01, 5.38206547e-02, 1.53244928e-01, 6.36799112e-02,
          -7.90251493e-02, -2.53230006e-01, -1.31524667e-01,
          -6.43786490e-02, -8.96418374e-03, -1.22400969e-02,
          1.09272271e-01, 8.18118975e-02, -8.91875103e-02,
          -2.19962284e-01, -3.98629069e-01, -2.55836219e-01,
          -1.43468291e-01, -1.99114904e-02, 6.96867257e-02,
          3.52538377e-01, 2.53703386e-01, -1.02685047e-02,
          -1.49909303e-01, -2.96170682e-01, -1.76574349e-01,
          -7.33085275e-02, 8.42346698e-02, 2.63105005e-01,
          3.33198637e-01, 2.67887622e-01, -1.72571968e-02,
          -1.58056885e-01, -3.03222716e-01, -1.74504101e-01,
          -6.77880570e-02, 9.27049965e-02, 2.32070729e-01,
          1.57335177e-01, 9.61080790e-02, -1.05287574e-01,
          -1.98881030e-01, -3.41563493e-01, -2.22539023e-01,
          -1.33012995e-01, -1.29278610e-02, 1.13189645e-01,
          1.48602426e-01, 1.00524314e-01, -8.66275206e-02,
          -1.95103839e-01, -3.19626838e-01, -2.19187602e-01,
          -1.29492298e-01, -3.16778682e-02, 6.76077679e-02,
          3.16407174e-01, 2.46552482e-01, -1.56832803e-02,
          -1.21959895e-01, -2.36599714e-01, -1.33833811e-01,
          -6.68416172e-02, 7.31593147e-02, 2.35158145e-01,
          2.64271051e-01, 1.82085231e-01, -6.72262385e-02,
          -1.47755474e-01, -2.19196886e-01, -1.43326342e-01,
          -7.89079294e-02, 3.48844379e-02, 1.93927705e-01,
          9.63601097e-02, 8.52469429e-02, -7.30245262e-02,
          -1.24150902e-01, -2.05444112e-01, -1.22161351e-01,
          -1.06067121e-01, -3.95729616e-02, 1.00820968e-02,
          2.40418985e-02, 5.27775148e-03, -1.21769071e-01,
          -1.16555139e-01, -1.60665959e-01, -9.86263454e-02,
          -1.06418364e-01, -6.67411834e-02, -3.63437161e-02,
          2.79952139e-01, 1.43163159e-01, -3.88190858e-02,
          -9.35059190e-02, -1.61807105e-01, -9.31159258e-02,
          -6.19425885e-02, 6.20415658e-02, 2.28584424e-01,
          2.56789953e-01, 5.32542393e-02, -1.10155404e-01,
          -1.54686838e-01, -1.85450792e-01, -8.87248591e-02,
          -4.84658666e-02, 9.46997702e-02, 2.57883012e-01,
          3.24202627e-02, -1.33220730e-02, -8.79980847e-02,
          -8.23702887e-02, -1.12037092e-01, -5.84309399e-02,
          -8.65814611e-02, -4.96803075e-02, -2.10725516e-02,
          4.10827398e-02, -6.01569079e-02, -1.52230114e-01,
          -1.71848327e-01, -1.95481107e-01, -1.10883176e-01,
          -1.05440006e-01, -2.85477675e-02, 4.56108227e-02,
          2.70170748e-01, 1.29874544e-02, -1.58352971e-01,
          -1.91310748e-01, -2.02442303e-01, -1.08050287e-01,
          -7.15720728e-02, 1.10134415e-01, 3.36521447e-01,
          2.48431548e-01, -2.57064812e-02, -2.03970924e-01,
          -2.34233394e-01, -2.52755344e-01, -1.66467831e-01,
          -1.33705974e-01, 1.02263145e-01, 3.13198894e-01,
          1.03575371e-01, -3.07384189e-02, -1.87018320e-01,
          -2.36310795e-01, -2.54016489e-01, -1.62861452e-01,
          -1.21233843e-01, 3.39071192e-02, 1.60924390e-01,
          1.67761505e-01, -1.10320188e-02, -2.17264444e-01,
          -3.02892953e-01, -3.39988619e-01, -2.39837602e-01,
          -1.51709527e-01, 7.96950907e-02, 2.27321729e-01,
          2.45066226e-01, -1.36766620e-02, -1.85205564e-01,
          -2.23822489e-01, -2.47130156e-01, -1.70355499e-01,
          -1.49812609e-01, 7.71477446e-02, 3.32316846e-01,
          2.61655450e-01, 1.14576295e-02, -1.94684535e-01,
          -2.59245783e-01, -3.09021443e-01, -2.38519311e-01,
          -1.90617591e-01, 2.79091541e-02, 2.82363534e-01,
          2.52886117e-01, 2.34874319e-02, -1.96531653e-01,
          -2.71924645e-01, -3.35862458e-01, -2.38745689e-01,
          -1.48766294e-01, 8.42527524e-02, 2.99586952e-01,
          3.15949559e-01, 8.38119611e-02, -1.92901447e-01,
          -3.24506909e-01, -4.03087050e-01, -2.90740311e-01,
          -1.88086614e-01, 5.82298115e-02, 3.08464974e-01,
          2.76437134e-01, 4.15248424e-02, -1.59557402e-01,
          -2.27307752e-01, -2.80010939e-01, -2.13849887e-01,
          -1.83818638e-01, -2.57381820e-03, 2.58512318e-01,
          2.53308088e-01, 4.41979282e-02, -1.71284005e-01,
          -2.16240570e-01, -2.71607369e-01, -2.26521239e-01,
          -2.13939518e-01, -4.73423302e-02, 2.20521957e-01,
          3.60011727e-01, 1.12387612e-01, -1.70906708e-01,
          -3.16082716e-01, -3.88022810e-01, -2.55875260e-01,
          -1.73890889e-01, 4.34884168e-02, 3.17157865e-01,
          3.47726583e-01, 7.35256523e-02, -1.72813341e-01,
          -3.21482241e-01, -3.96160334e-01, -2.93865800e-01,
          -2.35968962e-01, 3.25307949e-03, 3.08298618e-01,
          1.92821547e-01, 1.02462061e-02, -1.52587309e-01,
          -1.87427625e-01, -2.29322448e-01, -2.19292864e-01,
          -2.10136384e-01, -5.48223443e-02, 1.81712851e-01,
          1.34466425e-01, 2.30096746e-02, -1.11734875e-01,
          -1.51032835e-01, -1.77047357e-01, -1.94167763e-01,
          -1.72405079e-01, -3.72097716e-02, 1.32568464e-01,
          3.17980498e-01, 3.98591794e-02, -1.73817158e-01,
          -2.74182290e-01, -3.34029704e-01, -2.75493383e-01,
          -2.25603506e-01, 2.49514189e-02, 3.01264167e-01,
          2.89124191e-01, 1.17095545e-01, -1.17842726e-01,
          -1.94299385e-01, -2.50045359e-01, -2.25835323e-01,
          -1.48094907e-01, 8.75094533e-02, 2.73406148e-01,
          7.10900221e-03, 8.35896656e-03, -6.48201108e-02,
          -7.74684623e-02, -7.93855563e-02, -1.21302299e-01,
          -1.17369361e-01, -4.40975055e-02, 1.00492849e-03,
          -1.25221536e-01, -5.71907870e-02, -5.51503263e-02,
          2.34837960e-02, 1.04732625e-01, 1.56547762e-02,
          -5.47181927e-02, -6.99894056e-02, -1.30415410e-01,
          1.43711925e-01, 1.21112607e-01, -2.37253252e-02,
          -7.67148808e-02, -1.20157160e-01, -1.29365295e-01,
          -7.69535676e-02, 7.37794563e-02, 1.34335279e-01,
          -1.08795995e-02, 4.23967540e-02, 1.71533618e-02,
          8.12488347e-02, 1.29210055e-01, 8.26406702e-02,
          -8.04496370e-03, 2.68732831e-02, -5.73842926e-03,
          -1.70704812e-01, -8.96703303e-02, -3.02492734e-02,
          1.52737826e-01, 3.79493237e-01, 2.41275653e-01, 5.47867492e-02,
          -2.81997956e-02, -1.41406223e-01, -3.51164937e-01,
          -2.80553728e-01, -2.16560125e-01, -7.59879947e-02,
          1.34096012e-01, -1.33424802e-02, -1.38894528e-01,
          -2.35079259e-01, -3.31509471e-01, -1.04578428e-01,
          -1.33063383e-02, 3.92005704e-02, 2.56394714e-01,
          4.54330862e-01, 3.61755937e-01, 1.06322348e-01, 2.24384200e-02,
          -9.00846198e-02, -3.56001765e-01, -2.81647444e-01,
          -2.07629129e-01, -5.58634568e-03, 2.21609995e-01,
          5.35452701e-02, -1.47785649e-01, -2.53827959e-01,
          -3.56047064e-01, -1.81384519e-01, -1.34320498e-01,
          -9.18769836e-02, 7.64957517e-02, 2.96936691e-01,
          1.14402212e-01, -3.17931026e-02, -1.26109183e-01,
          -1.87122568e-01, -1.59826964e-01, -1.38782099e-01,
          -8.89861956e-02, 5.23563242e-03, 1.74477160e-01,
          3.30697671e-02, -5.64637631e-02, -1.53498396e-01,
          -1.61921486e-01, -2.05452144e-01, -1.71952873e-01,
          -8.11487138e-02, 1.23918250e-01, 3.31676751e-01,
          1.45708397e-01, -5.04809804e-02, -1.56789348e-01,
          -2.14599192e-01, -1.89758703e-01, -1.72109783e-01,
          -1.02041312e-01, 1.66615341e-02, 2.14109734e-01,
          3.84208076e-02, -8.44777599e-02, -1.76009282e-01,
          -1.93970725e-01, -1.00255631e-01, -1.23550147e-01,
          -7.26401210e-02, 1.99724697e-02, 1.66921794e-01,
          1.70989782e-02, -7.16186240e-02, -1.28102288e-01,
          -1.04220159e-01, -8.08466822e-02, -1.49310321e-01,
          -8.31809118e-02, 3.32429521e-02, 1.48900464e-01,
          9.55807418e-03, -7.91930929e-02, -1.36822611e-01,
          -7.22168162e-02, -1.40269309e-01, -1.57313377e-01,
          -7.32449144e-02, 1.17177702e-02, 2.09358543e-01,
          2.54664961e-02, -8.89819860e-02, -1.49404317e-01,
          -1.39820859e-01, -1.10405214e-01, -1.63144395e-01,
          -6.55359253e-02, 2.02442668e-02, 1.61369860e-01,
          2.30434816e-02, -9.79464650e-02, -1.73894480e-01,
          -1.07816085e-01, -2.79034264e-02, -1.43322438e-01,
          -9.62369218e-02, -2.29939874e-02, 9.91369560e-02,
          -1.52872484e-02, -6.59958497e-02, -1.19262092e-01,
          -5.60831046e-03, 3.29597183e-02, -1.42106518e-01,
          -1.24616832e-01, -8.08633119e-02, 1.53131317e-02,
          -7.84341916e-02, -1.06412143e-01, -1.33243009e-01,
          4.64367606e-02, -3.85690033e-02, -1.48103297e-01,
          -7.76435807e-02, -2.39802264e-02, 1.15854114e-01,
          -8.56885500e-03, -8.65164921e-02, -1.57591105e-01,
          -4.10508588e-02, 2.36703511e-02, -1.59212813e-01,
          -1.01515599e-01, -8.26813653e-02, 3.11514940e-02,
          -7.29075894e-02, -1.15377061e-01, -1.78019047e-01,
          2.05472335e-02, 1.72069490e-01, -3.34069468e-02,
          -6.36608079e-02, -6.40743645e-03, -4.80214730e-02,
          -1.67088117e-02, -6.73666820e-02, -3.21374796e-02,
          1.67052090e-01, 1.38051376e-01, -2.55215392e-02,
          -7.45711923e-02, -5.50958514e-03, -8.97658914e-02,
          -4.83750319e-03, -6.90705851e-02, -3.55998799e-02,
          1.37676015e-01, 1.33336246e-01, -5.09503707e-02,
          -7.52350986e-02, -2.12700609e-02, -5.25576957e-02,
          -1.26426714e-02, -8.35905671e-02, -6.08357452e-02,
          1.36961296e-01, 8.63798931e-02, -3.95949818e-02,
          -7.82060698e-02, 5.71247051e-03, -8.25269744e-02,
          -1.51054589e-02, -7.48537779e-02, -4.62828353e-02,
          9.13642570e-02, 1.01422094e-01, -1.95509493e-02,
          -5.66099398e-02, -7.14543392e-04, -2.72433665e-02,
          1.16516156e-02, -6.54835925e-02, -3.66719849e-02,
          1.14779621e-01, 8.93719867e-02, -1.06473695e-02,
          -5.22933155e-02, -1.90297130e-03, -4.54312675e-02,
          -9.10155650e-04, -8.00523385e-02, -4.66067828e-02,
          8.13650861e-02, 7.67865852e-02, -2.74055786e-02,
          -5.39346784e-02, 1.14990231e-02, -1.06914965e-02,
          7.41704274e-03, -3.95045765e-02, -2.70663016e-02,
          8.09396952e-02, 6.37735277e-02, -2.52860133e-02,
          -6.43265769e-02, 1.27560794e-02, -3.35601419e-02,
          6.48362888e-03, -5.87961599e-02, -1.17309950e-02,
          6.60460144e-02, 6.92998692e-02, -2.85136662e-02,
          -6.09610118e-02, -2.93640676e-03, -8.33956338e-03,
          -6.04910450e-03, -8.68059620e-02, -5.46465591e-02,
          5.70600517e-02, 5.66095673e-02, -1.75791234e-02,
          4.65923687e-03, 1.04506142e-01, 5.15017398e-02, 7.37560764e-02,
          -4.39777859e-02, -4.03746329e-02, 5.03058508e-02,
          5.65682501e-02, -3.08514163e-02, -7.81079680e-02,
          -7.11698364e-03, -4.15487103e-02, -1.68927275e-02,
          -8.12351853e-02, -2.23028325e-02, 3.95275392e-02,
          4.43694592e-02, -1.88244618e-02, -4.27657850e-02,
          6.39900863e-02, 5.00016613e-03, 9.20626968e-02, 1.69849023e-03,
          -8.49364512e-03, 1.33424802e-02, -1.10098347e-01,
          6.65632018e-04, 8.47594813e-02, 1.28616363e-01, 9.71442740e-03,
          6.30049482e-02, -3.65449116e-02, -9.25644934e-02,
          -1.47848323e-01, 2.57214718e-03, 1.98144555e-01,
          2.34587252e-01, 1.95419729e-01, -5.60498273e-04,
          1.33132339e-01, 6.84459955e-02, 2.25267205e-02,
          -8.33786130e-02, -1.45912394e-01, -8.14874172e-02,
          -4.40713577e-02, 6.39181435e-02, 3.84936982e-04,
          1.39752597e-01, 7.65366107e-02, -3.82098183e-02,
          -1.53576702e-01, -7.50673860e-02, 4.36370783e-02,
          5.33272326e-02, 1.08286560e-01, -6.40678825e-03,
          1.91463932e-01, 2.08787322e-01, 1.62536144e-01,
          -2.67704390e-02, 3.92784402e-02, 1.36486843e-01,
          1.13548368e-01, 4.63766493e-02, -1.03666790e-01,
          1.33633912e-02, 3.98698747e-02, 7.97289833e-02, 9.28608514e-03,
          -4.70143184e-02, 1.01690084e-01, 1.33555859e-01,
          9.74778458e-02, -6.79567456e-02, 2.05591917e-02,
          7.92203620e-02, 9.55221951e-02, -3.47157232e-02,
          5.44317905e-03, 8.68578032e-02, 3.81627604e-02,
          -1.11119905e-02, -1.28184021e-01, 4.52312976e-02,
          1.04931243e-01, 1.46648437e-01, 3.30054872e-02,
          -5.65829389e-02, 8.73556286e-02, 7.01605231e-02,
          1.42863560e-02, -1.01077124e-01, 1.07066289e-01,
          1.44606277e-01, 1.06560066e-01, -4.60203439e-02,
          -8.19642544e-02, 1.41646981e-01, 2.53862262e-01,
          2.41215914e-01, 6.41654283e-02, 1.33564904e-01, 1.39489576e-01,
          8.58806819e-02, -7.73165450e-02, -1.88509375e-01,
          1.16675040e-02, 5.75959757e-02, 2.35958565e-02,
          -1.47866815e-01, -4.36688997e-02, -3.62118892e-02,
          -7.67839849e-02, -2.18093395e-01, -1.13761723e-01,
          8.86136889e-02, 1.30173206e-01, 1.33284867e-01, 5.71268015e-02,
          2.53991246e-01, 2.65531570e-01, 1.47527516e-01,
          -8.99046436e-02, -2.40541741e-01, -8.47622231e-02,
          -4.95818071e-02, -4.90070954e-02, -1.54447302e-01,
          1.20926397e-02, 4.03139777e-02, -1.68754645e-02,
          -2.44152695e-01, 1.55076785e-02, 1.33731887e-01,
          9.15801972e-02, 2.60229874e-02, -9.47408900e-02,
          1.02186538e-02, 3.32970358e-02, 7.79930949e-02,
          -1.00246547e-02, 8.35911781e-02, 9.12265256e-02,
          -3.98501568e-02, -1.56164005e-01, -2.72111505e-01,
          -1.47535220e-01, -5.08759581e-02, 6.60945848e-02,
          7.64787421e-02, -2.01455243e-02, 7.65129179e-02,
          3.49173024e-02, -7.81949423e-03, -1.03328891e-01,
          8.22621770e-03, 6.96522072e-02, 1.25138164e-01,
          -2.47726720e-02, 6.86904266e-02, 7.38309696e-02,
          -6.23102523e-02, -1.71090662e-01, -2.89437711e-01,
          -1.66717649e-01, -4.93676513e-02, 9.93783474e-02,
          6.50438741e-02, 1.22724213e-01, 9.38984454e-02,
          -3.56826894e-02, -1.20375901e-01, -2.17278391e-01,
          -1.32780746e-01, -4.59520482e-02, 7.73076341e-02,
          1.28079280e-01, 6.45812601e-02, 6.65839612e-02,
          -2.20908821e-02, -7.44349957e-02, -1.80395931e-01,
          -1.06595203e-01, -3.82470563e-02, 2.75764260e-02,
          3.50898281e-02, 1.28032610e-01, 6.97533339e-02,
          -6.09532110e-02, -1.29722968e-01, -2.32444972e-01,
          -1.39364511e-01, -3.63259017e-02, 1.20189659e-01,
          1.31195009e-01, 4.16687168e-02, 1.09445471e-02,
          -6.44057319e-02, -1.13499999e-01, -2.02235833e-01,
          -1.15094393e-01, -2.22066045e-02, 9.45742950e-02,
          7.69223198e-02, -2.04466190e-02, 1.46751385e-02,
          -1.17919454e-02, -5.23112761e-03, -4.85179685e-02,
          -1.40555231e-02, -2.43901908e-02, -1.76351406e-02,
          -5.93953282e-02, -7.73902759e-02, -2.98643280e-02,
          -4.09504585e-02, 2.30455883e-02, 4.15940210e-02,
          5.56044802e-02, -4.60639037e-03, -2.73994375e-02,
          -1.11036584e-01, -3.76931578e-02, -3.53121273e-02,
          -4.53966968e-02, -3.03303506e-02, -5.49778044e-02,
          -3.09953708e-02, -1.88179556e-02, 2.71757636e-02,
          -1.69468150e-02, -7.97582269e-02, -3.48535143e-02,
          -2.52450518e-02, 2.64478456e-02, 1.35258287e-02,
          9.66776256e-03, -9.81563050e-03, -9.68473323e-05,
          -5.59556484e-02, -9.29958671e-02, -4.73973975e-02,
          -2.63978746e-02, 5.57642132e-02, 8.82099941e-02,
          8.35386217e-02, 1.20190838e-02, -2.15741247e-02,
          -1.02832593e-01, -4.88251336e-02, -4.40858528e-02,
          -6.92234039e-02, -2.36441121e-02, -5.10809664e-03,
          2.87136063e-03, -2.90179420e-02, -1.26047581e-02,
          -4.35866080e-02, -8.47489014e-02, -4.27346267e-02,
          -2.26210896e-02, 5.23187146e-02, 4.39128987e-02,
          5.13672717e-02, 3.82123888e-03, -1.60697270e-02,
          -6.26790151e-02, -1.51226027e-02, -7.81825185e-03,
          -4.43423353e-02, -1.89794693e-02, -3.16702724e-02,
          -3.58815640e-02, -5.33161685e-02, -2.60724630e-02,
          -8.97418056e-03, 4.41551581e-02, -1.43878702e-02,
          -1.12326138e-01, -1.38994306e-01, -1.56524852e-01,
          -1.02595009e-01, -7.79740438e-02, 3.66723202e-02,
          7.65697286e-02, 2.14129806e-01, 8.25108439e-02,
          -1.37166604e-01, -2.09012270e-01, -2.56649524e-01,
          -1.88101977e-01, -9.22674909e-02, 1.14408158e-01,
          2.35474423e-01, 1.11704044e-01, 3.20860296e-02,
          -9.27280113e-02, -1.41280442e-01, -1.68969676e-01,
          -1.52070254e-01, -1.20269239e-01, -6.37506461e-03,
          8.57050717e-02, 2.29595423e-01, 7.76421428e-02,
          -1.37756139e-01, -2.33094916e-01, -2.86749750e-01,
          -2.18776494e-01, -1.30312935e-01, 9.01830196e-02,
          2.37233847e-01, 2.52917677e-01, 7.63650313e-02,
          -1.57719672e-01, -2.28428811e-01, -3.11027050e-01,
          -2.31640771e-01, -1.44143924e-01, 6.19228669e-02,
          2.55959690e-01, 3.43433946e-01, 1.21316954e-01,
          -1.53271049e-01, -3.02004933e-01, -3.89938951e-01,
          -2.73378551e-01, -1.54733524e-01, 7.03242645e-02,
          3.17977607e-01, 2.58131355e-01, 4.83243875e-02,
          -1.87357917e-01, -2.82062262e-01, -3.49608928e-01,
          -2.62746930e-01, -1.69858471e-01, 7.59340525e-02,
          2.75148660e-01, 3.10185194e-01, 6.08290434e-02,
          -1.89209938e-01, -3.40177298e-01, -4.27042872e-01,
          -3.19302827e-01, -1.63240746e-01, 1.34655267e-01,
          3.28347921e-01, 3.33234608e-01, 9.28759947e-02,
          -1.63277507e-01, -2.99475372e-01, -3.72115791e-01,
          -2.42390320e-01, -1.47405967e-01, 5.97488023e-02,
          3.21229309e-01, 3.21047455e-01, 6.13517165e-02,
          -1.72221020e-01, -3.09922993e-01, -3.85867000e-01,
          -2.84546405e-01, -2.03583449e-01, 1.02045173e-02,
          3.07438880e-01, 3.19445878e-01, 3.16234566e-02,
          -1.91829368e-01, -3.25513721e-01, -4.01187867e-01,
          -2.92023003e-01, -1.45714834e-01, 1.24586634e-01,
          3.51898879e-01, 3.17171335e-01, 2.39645429e-02,
          -2.28245035e-01, -3.24286193e-01, -4.11611259e-01,
          -3.09396207e-01, -1.84901580e-01, 7.07276091e-02,
          3.29658896e-01, 2.91171461e-01, 3.81815806e-02,
          -1.56300858e-01, -2.67692357e-01, -3.41280669e-01,
          -2.64132619e-01, -2.02040598e-01, -6.14212302e-04,
          2.72457808e-01, 2.58056015e-01, 7.97024295e-02,
          -1.19625725e-01, -2.04525203e-01, -2.67203599e-01,
          -1.94842145e-01, -1.20950237e-01, 7.29855448e-02,
          2.54848570e-01, 3.14752132e-01, 2.58624032e-02,
          -2.22835064e-01, -3.00333500e-01, -3.72092962e-01,
          -2.86249191e-01, -1.71694025e-01, 4.15598899e-02,
          3.06117475e-01, 2.70705700e-01, 8.38741809e-02,
          -1.38851598e-01, -2.36268103e-01, -3.06647301e-01,
          -2.31203362e-01, -1.25635788e-01, 9.79603752e-02,
          2.94770300e-01, 9.40916017e-02, 5.07119298e-02,
          -6.15801699e-02, -1.13896064e-01, -1.53991893e-01,
          -1.28373265e-01, -7.80517086e-02, 3.77854258e-02,
          1.05958551e-01, -3.28785777e-02, 6.44606363e-04,
          -2.70352084e-02, 6.07442595e-02, 1.28189921e-01,
          7.33176693e-02, -2.13795882e-02, 2.23351782e-03,
          -2.22407989e-02, 1.22800335e-01, 3.93906496e-02,
          -9.52768922e-02, -1.39076397e-01, -1.81391314e-01,
          -1.30559117e-01, -6.82358071e-02, 7.18569010e-02,
          1.40739307e-01, -9.32519976e-03, -1.80295091e-02,
          -2.64900792e-02, 6.59552887e-02, 1.04392387e-01,
          6.36678785e-02, -8.48426204e-03, 3.67211588e-02,
          4.04855190e-03, -1.33968264e-01, -3.78053784e-02,
          6.45018602e-03, 2.48330206e-01, 4.50029999e-01, 2.92234927e-01,
          3.27338204e-02, -2.80752368e-02, -1.24793395e-01,
          -3.59052032e-01, -2.67434865e-01, -2.06107065e-01,
          -1.19420290e-02, 1.86172485e-01, -1.53298620e-02,
          -1.87824488e-01, -2.57326514e-01, -3.60682994e-01,
          -1.14489958e-01, -3.10756620e-02, 5.18107899e-02,
          3.12556684e-01, 4.23455656e-01, 2.62740970e-01, 3.80833298e-02,
          -5.97999571e-03, -1.03754900e-01, -3.75471145e-01,
          -2.50625640e-01, -1.82347417e-01, 2.41095927e-02,
          1.92795515e-01, -2.40870956e-02, -2.08320200e-01,
          -2.82018602e-01, -3.63145381e-01, -2.08157524e-01,
          -1.52186662e-01, -5.46573736e-02, 1.34667501e-01,
          3.43331933e-01, 1.34566665e-01, -5.39463088e-02,
          -1.44148633e-01, -2.13888690e-01, -2.09242627e-01,
          -1.65852830e-01, -1.01569273e-01, 1.42204845e-02,
          1.84304699e-01, 2.14482900e-02, -1.08814262e-01,
          -1.70492619e-01, -2.15811566e-01, -2.10157320e-01,
          -1.36658356e-01, -3.79302800e-02, 1.66110739e-01,
          3.63306344e-01, 1.57160729e-01, -6.96489066e-02,
          -1.57283068e-01, -1.91957533e-01, -2.02751487e-01,
          -1.63505644e-01, -8.05262774e-02, 3.45563851e-02,
          1.98672980e-01, 1.49699971e-02, -1.35714546e-01,
          -1.91742212e-01, -2.05033690e-01, -1.45639569e-01,
          -1.35768637e-01, -7.99677670e-02, 1.21340798e-02,
          2.04205677e-01, 2.05227062e-02, -7.53501356e-02,
          -1.21482536e-01, -1.50821775e-01, -1.00549825e-01,
          -1.41701117e-01, -7.30840936e-02, -5.22362541e-07,
          1.81453854e-01, 2.63050701e-02, -6.84708357e-02,
          -1.44758642e-01, -1.05898067e-01, -1.26822039e-01,
          -1.36406839e-01, -8.30327049e-02, 1.90760847e-02,
          2.09464461e-01, 1.36597399e-02, -1.00802608e-01,
          -1.53429583e-01, -1.46745548e-01, -7.22067580e-02,
          -1.53760567e-01, -8.11127424e-02, -5.07776020e-03,
          1.73278242e-01, 1.03401309e-02, -8.02743807e-02,
          -1.46677241e-01, -8.81587565e-02, -4.21181582e-02,
          -1.22991309e-01, -6.58442751e-02, -2.45623142e-02,
          1.13655277e-01, -4.05713404e-03, -7.34765679e-02,
          -1.35808334e-01, -4.56422120e-02, 1.55290179e-02,
          -1.36599332e-01, -8.55515748e-02, -8.96919891e-02,
          2.14486662e-02, -7.35569298e-02, -8.78975242e-02,
          -1.49342999e-01, 1.31739555e-02, -7.54646398e-03,
          -1.28039286e-01, -7.83805922e-02, -5.17855287e-02,
          9.53599364e-02, -3.87899950e-02, -8.79256278e-02,
          -1.34132192e-01, -1.74603686e-02, 4.86298241e-02,
          -1.38771638e-01, -9.17285085e-02, -1.07242286e-01,
          2.36458592e-02, -9.51941460e-02, -1.06426485e-01,
          -1.62618369e-01, 5.15882708e-02, 1.39655799e-01,
          -4.76306155e-02, -7.67374635e-02, -1.83869526e-02,
          -1.83308460e-02, 1.12999463e-02, -6.96790889e-02,
          -4.70267311e-02, 1.57049775e-01, 9.63067338e-02,
          -4.48366180e-02, -6.95622265e-02, 1.14026433e-03,
          -1.60491113e-02, 2.10410524e-02, -5.31896204e-02,
          -2.24026367e-02, 1.07016690e-01, 1.26390949e-01,
          -5.78089990e-02, -8.29509795e-02, 5.31170564e-03,
          -6.60712942e-02, 1.05683655e-02, -5.70016168e-02,
          -2.89974622e-02, 1.37439534e-01, 7.09581226e-02,
          -4.93117645e-02, -7.11096525e-02, -2.60840141e-04,
          -4.07997034e-02, 3.34753431e-02, -5.02147786e-02,
          -3.13990451e-02, 7.28277117e-02, 6.36092648e-02,
          -3.27128284e-02, -4.81019504e-02, 7.72562437e-03,
          1.91091392e-02, 1.13983694e-02, -3.68718207e-02,
          -3.11019737e-02, 6.98999465e-02, 7.23548234e-02,
          -1.50337722e-02, -4.55787405e-02, 6.31454401e-03,
          -3.59067768e-02, 2.68078428e-02, -3.41269225e-02,
          -1.19624948e-02, 5.91839440e-02, 5.63972667e-02,
          -4.49321382e-02, -6.19635656e-02, 1.96067952e-02,
          2.36753356e-02, 3.05705164e-02, -3.49753276e-02,
          -3.76551487e-02, 4.41708639e-02, 5.10310605e-02,
          -3.61919366e-02, -5.90570606e-02, 1.90831386e-02,
          -4.06095237e-02, 4.66761477e-02, -1.69799849e-02,
          -6.86556799e-03, 5.59613481e-02, 6.63994625e-02,
          -1.81232970e-02, -5.65707162e-02, -1.06240865e-02,
          -2.21234579e-02, 5.18598454e-03, -5.13439886e-02,
          -1.92329567e-02, 5.69913611e-02, 4.81123328e-02,
          -3.01058907e-02, -4.74722832e-02, 2.47376561e-02,
          2.47864500e-02, 1.01742625e-01, 2.00085547e-02, 2.00673216e-03,
          3.25706750e-02, 6.06926121e-02, -3.41710560e-02,
          -6.17311783e-02, -2.92239827e-03, -3.61123756e-02,
          2.44217739e-02, -3.70696299e-02, -3.07549573e-02,
          4.21344079e-02, 3.78311872e-02, -4.64125350e-02,
          -5.74874990e-02, 1.31830890e-02, -2.51282230e-02,
          5.86590953e-02, 5.77269122e-04, -1.74651034e-02,
          3.74917723e-02, -5.05024642e-02, -7.73268789e-02,
          -7.89943337e-02, 5.55321567e-05, 1.06001347e-02,
          1.40924543e-01, 1.33608490e-01, 6.01292178e-02,
          -2.71578040e-02, 5.99408709e-02, 2.51069926e-02,
          -2.04252582e-02, 1.92036666e-02, -2.02653129e-02,
          1.87938690e-01, 2.73044497e-01, 2.80768126e-01, 1.59787372e-01,
          -5.72571680e-02, -9.51059088e-02, -1.05839498e-01,
          -5.58132604e-02, -1.00636140e-01, 8.21018498e-03,
          -9.14607488e-04, -1.13559198e-02, -3.49967778e-02,
          1.25758946e-02, -3.35466824e-02, -7.41669014e-02,
          -5.31039052e-02, -1.36654049e-01, 2.62699816e-02,
          8.56538936e-02, 1.33068413e-01, 7.57847056e-02, 9.05258581e-02,
          8.83036032e-02, -6.30432973e-03, -5.07865995e-02,
          -1.26435429e-01, 5.06532378e-02, 1.35246083e-01,
          2.04581887e-01, 1.34891763e-01, 4.50713113e-02, 1.15652069e-01,
          3.15404870e-02, -2.45783832e-02, -1.00087814e-01,
          1.84994698e-01, 2.28556618e-01, 1.94877818e-01, 4.81729172e-02,
          1.37451738e-02, 1.18902908e-03, -7.71572962e-02,
          -1.01654723e-01, -1.91883773e-01, -1.72376931e-02,
          2.92480569e-02, 7.70968422e-02, 4.49944176e-02,
          -2.34277006e-02, -7.07981584e-04, -7.20415264e-02,
          -9.90181565e-02, -1.85637727e-01, 9.29995105e-02,
          1.55564427e-01, 1.20499477e-01, -4.10154928e-03,
          -1.06875755e-01, 1.91397388e-02, -1.96991432e-02,
          -2.49566790e-02, -4.41929847e-02, 2.64144748e-01,
          3.29113662e-01, 2.07911655e-01, -5.97303733e-02,
          -2.00577796e-01, -1.12902880e-01, -1.21482000e-01,
          -1.39430448e-01, -2.42354199e-01, 3.04183718e-02,
          1.57059267e-01, 1.16157852e-01, -1.24798000e-01,
          -6.34444803e-02, -3.73537615e-02, -7.52264038e-02,
          -9.07872543e-02, -1.37197003e-01, 1.94485962e-01,
          3.31237257e-01, 2.75339961e-01, 3.35981287e-02,
          -8.35141912e-02, -1.03078797e-01, -1.47032842e-01,
          -1.90789476e-01, -2.86864579e-01, 3.28079015e-02,
          2.72178859e-01, 3.41847152e-01, 1.03506096e-01,
          -4.58480529e-02, -8.60980619e-03, -5.55262528e-02,
          -1.10400133e-01, -2.58252174e-01, -1.14622056e-01,
          2.28096880e-02, 1.27821177e-01, 1.79769490e-02, 5.92709258e-02,
          1.94379315e-02, -1.26547843e-01, -2.21597984e-01,
          -3.80747974e-01, -2.37679958e-01, -1.08214229e-01,
          6.94515035e-02, 9.10900459e-02, 1.57071024e-01, 3.06973644e-02,
          -5.56885563e-02, -1.42803818e-01, -2.74211854e-01,
          -5.73808663e-02, 1.77782416e-01, 4.12094355e-01,
          3.41407567e-01, 2.34139711e-01, 8.29582810e-02,
          -6.48024231e-02, -2.09878102e-01, -3.91879886e-01,
          -2.09723964e-01, -6.17154827e-03, 2.85186231e-01,
          3.43871117e-01, 9.83530208e-02, 1.49623603e-02,
          -1.21636048e-01, -1.98815256e-01, -3.16972524e-01,
          -2.05053732e-01, -1.04940094e-01, 8.60363543e-02,
          1.55688688e-01, 4.27297950e-02, -3.15925889e-02,
          -1.29424214e-01, -2.09437117e-01, -3.38477045e-01,
          -2.17818663e-01, -1.02031820e-01, 9.98280942e-02,
          1.45012379e-01, 2.87167042e-01, 1.12546474e-01,
          -5.92475124e-02, -1.79447591e-01, -3.13250929e-01,
          -1.88265547e-01, -2.37827301e-02, 2.53159255e-01,
          3.69904101e-01, 2.55536556e-01, 9.82877985e-02,
          -7.78804198e-02, -1.95129454e-01, -3.42403650e-01,
          -2.09165022e-01, -1.96102392e-02, 2.59253502e-01,
          3.51286948e-01, 1.17991082e-02, -3.90986167e-02,
          -1.02923550e-01, -1.19668931e-01, -2.17764899e-01,
          -1.46707743e-01, -7.30840564e-02, 9.14102793e-02,
          1.09327808e-01, -1.47220269e-02, -6.08670413e-02,
          -1.05541557e-01, -1.08072624e-01, -1.88896418e-01,
          -1.24899298e-01, -9.09135044e-02, 2.55949534e-02,
          6.61768541e-02, 2.72244513e-01, 7.98657686e-02,
          -7.96003565e-02, -1.48961708e-01, -2.82614857e-01,
          -1.68563753e-01, 3.40790604e-03, 2.55601734e-01,
          3.44982386e-01, 2.33647600e-01, 5.07822633e-02,
          -1.00709833e-01, -1.70855895e-01, -2.76715189e-01,
          -1.78928852e-01, -6.43330589e-02, 1.91348985e-01,
          3.04141402e-01, 1.16228126e-02, -3.53002101e-02,
          -9.84420851e-02, -8.25619027e-02, -1.36397824e-01,
          -9.34450626e-02, -8.01301748e-02, 8.77580885e-03,
          8.39497522e-02, 9.89579856e-02, -1.84108093e-02,
          -1.27985239e-01, -1.49004951e-01, -2.07882896e-01,
          -1.71875507e-01, -1.51728302e-01, -4.26444076e-02,
          9.88456383e-02, 2.56251961e-01, 6.64842352e-02,
          -8.81826133e-02, -1.31459951e-01, -1.84717879e-01,
          -1.27659827e-01, -6.94952086e-02, 1.46383643e-01,
          3.18262130e-01, 2.77673453e-01, 1.00977421e-01,
          -9.14098248e-02, -1.56357482e-01, -2.29756251e-01,
          -1.78608716e-01, -1.33262128e-01, 6.23056926e-02,
          2.75295705e-01, 2.13915378e-01, 4.39319797e-02,
          -1.20304681e-01, -1.74245760e-01, -2.28795126e-01,
          -2.01702997e-01, -1.66922912e-01, -3.33697610e-02,
          1.60896540e-01, 2.76464969e-01, 6.15356117e-02,
          -1.80454358e-01, -2.39309147e-01, -3.15024048e-01,
          -2.53965914e-01, -1.91238001e-01, -1.97946914e-02,
          2.22620189e-01, 3.46199185e-01, 1.15180589e-01,
          -1.05518609e-01, -1.45009756e-01, -2.14707240e-01,
          -1.97038367e-01, -1.58776209e-01, 3.69857205e-03,
          2.90598571e-01, 2.89614916e-01, 6.79489896e-02,
          -1.83358669e-01, -2.09867194e-01, -2.73307055e-01,
          -2.38173768e-01, -2.19437912e-01, -4.98569682e-02,
          2.50885963e-01, 3.25930238e-01, 7.75587112e-02,
          -1.62162319e-01, -2.43683293e-01, -3.12117696e-01,
          -2.33832419e-01, -1.76565275e-01, 2.83151492e-02,
          2.85061777e-01, 3.36448580e-01, 5.14417812e-02,
          -1.94649935e-01, -2.96267390e-01, -3.72542530e-01,
          -2.91011602e-01, -1.70186862e-01, 8.41242597e-02,
          3.48298967e-01, 3.09816897e-01, 1.69036873e-02,
          -2.02664033e-01, -2.35554665e-01, -2.75224864e-01,
          -2.27810606e-01, -1.90511793e-01, -2.08784621e-02,
          2.51867324e-01, 2.66491503e-01, -3.13392691e-02,
          -2.35395312e-01, -2.82004088e-01, -3.22146833e-01,
          -2.62370735e-01, -1.86470807e-01, 5.97310113e-03,
          2.62561291e-01, 3.33926588e-01, 2.69889869e-02,
          -1.67873219e-01, -2.59317368e-01, -3.43197227e-01,
          -2.58615732e-01, -1.40730664e-01, 1.12986006e-01,
          3.82294685e-01, 3.41674387e-01, 7.73975393e-03,
          -2.04744726e-01, -2.74390668e-01, -3.58206332e-01,
          -2.68913716e-01, -1.56928957e-01, 8.31792355e-02,
          3.55734259e-01, 2.38007486e-01, -5.61375022e-02,
          -2.14640155e-01, -2.47155800e-01, -2.77346790e-01,
          -2.24151939e-01, -1.70423567e-01, 3.09413299e-02,
          2.72927880e-01, 1.88133165e-01, -8.00307393e-02,
          -2.07021654e-01, -2.49695033e-01, -2.76735306e-01,
          -2.35044897e-01, -2.04483673e-01, 7.17653520e-03,
          2.11079508e-01, 3.43848795e-01, 4.23087552e-02,
          -1.96036145e-01, -2.53476322e-01, -3.19123596e-01,
          -2.37821922e-01, -1.35978922e-01, 7.19765648e-02,
          3.43905360e-01, 3.06896478e-01, 8.82569477e-02,
          -1.37561277e-01, -1.95893079e-01, -2.61509895e-01,
          -1.94472790e-01, -9.68606099e-02, 1.29632473e-01,
          3.25772047e-01, 1.61072880e-01, -7.79902712e-02,
          -2.20260277e-01, -2.32371405e-01, -2.57205993e-01,
          -2.30417818e-01, -1.79665387e-01, 3.19201895e-03,
          1.69508100e-01, 1.29961446e-01, -5.66206165e-02,
          -1.88255206e-01, -1.92117199e-01, -2.32403010e-01,
          -2.07010657e-01, -1.47599757e-01, 2.42111478e-02,
          1.35005414e-01, 1.81344807e-01, 7.11932629e-02,
          -6.86420426e-02, -9.63288695e-02, -1.31043077e-01,
          -7.73127303e-02, -2.23563258e-02, 1.21573985e-01,
          2.04825684e-01, 4.48463000e-02, 3.01633663e-02,
          -8.48237105e-05, 9.42294747e-02, 1.35742530e-01,
          7.65666738e-02, 2.66013555e-02, 8.07339773e-02, 4.95447889e-02,
          3.30988355e-02, -5.21595217e-02, -1.25418574e-01,
          -1.15296520e-01, -1.29394457e-01, -1.28158197e-01,
          -1.05302230e-01, -8.02027900e-03, 3.55120525e-02,
          -9.91281345e-02, -7.67049566e-02, -8.99157301e-02,
          2.66515687e-02, 4.01200131e-02, -1.77457109e-02,
          -8.71928483e-02, -6.43192753e-02, -1.11894533e-01,
          -5.94554096e-02, 1.42813483e-02, 8.26968178e-02,
          3.37420404e-01, 4.38265413e-01, 2.27598041e-01, 3.90673541e-02,
          1.03795715e-02, -6.58895746e-02, -3.24986577e-01,
          -1.98863357e-01, -1.33787662e-01, 6.25805110e-02,
          2.09584430e-01, -3.11676562e-02, -1.82414487e-01,
          -2.44587988e-01, -3.08341026e-01, -1.55353934e-01,
          -4.68888916e-02, 2.31603384e-02, 2.61692107e-01,
          3.26542139e-01, 1.41174421e-01, -4.97880280e-02,
          -9.86727998e-02, -1.73999369e-01, -3.64931554e-01,
          -2.47325674e-01, -1.79954842e-01, 2.58698240e-02,
          1.57135978e-01, -8.58809799e-02, -2.19428614e-01,
          -2.85499305e-01, -3.64981771e-01, -1.84069484e-01,
          -1.18646681e-01, -3.12730595e-02, 1.49032295e-01,
          3.13376695e-01, 9.64717194e-02, -8.68022814e-02,
          -1.43795535e-01, -1.68049023e-01, -1.65096045e-01,
          -1.40691966e-01, -6.99462369e-02, 1.77952684e-02,
          1.46727055e-01, -2.24740338e-02, -1.43962413e-01,
          -1.79354876e-01, -1.74505740e-01, -2.05612257e-01,
          -1.34525523e-01, -4.99079898e-02, 1.48743823e-01,
          3.07836115e-01, 8.17904547e-02, -7.03356266e-02,
          -1.37012988e-01, -1.97044715e-01, -1.74718633e-01,
          -1.64827615e-01, -8.22295919e-02, 1.21340780e-02,
          1.31555736e-01, -1.12295086e-02, -1.05069250e-01,
          -1.64787889e-01, -1.90536648e-01, -8.52006748e-02,
          -1.05706319e-01, -6.37174472e-02, 9.85543244e-03,
          1.61498055e-01, -2.24011764e-02, -1.06811985e-01,
          -1.50367960e-01, -1.09764509e-01, -4.63637598e-02,
          -1.35346532e-01, -8.09634551e-02, -1.31179448e-02,
          1.31022543e-01, -1.88897308e-02, -9.81450751e-02,
          -1.52219370e-01, -6.77578449e-02, -9.57341641e-02,
          -1.25718266e-01, -7.13572055e-02, 1.72347240e-02,
          1.58730820e-01, 6.36739237e-03, -9.16252658e-02,
          -1.46713763e-01, -1.02305599e-01, -4.40492406e-02,
          -1.33896381e-01, -7.59807974e-02, 2.19042110e-03,
          1.46486074e-01, -7.52756232e-03, -1.13506198e-01,
          -1.73065364e-01, -5.63548729e-02, 1.03654284e-02,
          -1.10796995e-01, -7.61513710e-02, -6.30822554e-02,
          7.09461495e-02, -5.92999533e-02, -1.05750881e-01,
          -1.38452798e-01, -6.82020746e-03, 6.32760152e-02,
          -1.31270245e-01, -1.05320103e-01, -9.89958793e-02,
          2.73516309e-02, -9.05049816e-02, -1.20117277e-01,
          -1.59017012e-01, 5.57806231e-02, 8.19231942e-03,
          -1.33535147e-01, -7.94859156e-02, -5.29450625e-02,
          9.11166668e-02, -4.31226827e-02, -1.29553065e-01,
          -1.57840773e-01, -5.51406946e-03, 5.31218238e-02,
          -1.50081530e-01, -1.30944982e-01, -1.01890206e-01,
          2.09581703e-02, -8.82047042e-02, -1.37223870e-01,
          -1.72236100e-01, 4.97991852e-02, 1.38293996e-01,
          -4.43917401e-02, -7.19584748e-02, 1.28308742e-03,
          -5.87603711e-02, -1.29170427e-02, -4.04483676e-02,
          -2.54968796e-02, 1.39928848e-01, 7.33859092e-02,
          -4.25660200e-02, -6.89051375e-02, 3.25382203e-02,
          -2.68710349e-02, 6.83811819e-03, -6.07130751e-02,
          -3.91113497e-02, 6.44045547e-02, 1.59357563e-01,
          -4.02483866e-02, -7.55101964e-02, -7.62033556e-03,
          -7.58252069e-02, -1.26566971e-03, -2.99229771e-02,
          6.89310068e-03, 1.68619007e-01, 1.16197065e-01,
          -1.59615148e-02, -6.66628107e-02, 3.40752751e-02,
          -4.53252345e-02, 1.81405079e-02, -4.45545875e-02,
          -2.60317530e-02, 1.00816160e-01, 5.44823669e-02,
          -3.70622128e-02, -4.73112352e-02, 3.73968370e-02,
          3.34626846e-02, 1.13340393e-02, -3.88071910e-02,
          -3.90510745e-02, 3.25498581e-02, 6.52310103e-02,
          -3.75317372e-02, -4.50563021e-02, 3.67213599e-02,
          8.45271256e-03, 4.87806164e-02, -7.25983130e-03,
          -1.03611108e-02, 5.30480556e-02, 8.15221146e-02,
          -2.75205802e-02, -4.45140079e-02, 4.86836918e-02,
          -2.17073434e-03, 3.07068247e-02, -3.29696983e-02,
          -3.77009138e-02, 5.65951094e-02, 7.08633289e-02,
          -5.06423488e-02, -5.96050583e-02, 3.01486515e-02,
          -4.74747866e-02, 5.38455024e-02, -1.51993548e-02,
          -2.51912922e-02, 6.19844161e-02, 7.41653815e-02,
          -3.89099643e-02, -6.38768896e-02, -2.74033239e-03,
          2.18166946e-03, 2.57784110e-02, -1.86032262e-02,
          -1.49611626e-02, 5.86169772e-02, 5.25854938e-02,
          -2.98838858e-02, -4.62598987e-02, 7.23239733e-03,
          -3.02558467e-02, 3.35523710e-02, -1.40464092e-02,
          -1.88668296e-02, 4.31738012e-02, 5.65906987e-02,
          -4.71162274e-02, -7.69328177e-02, 1.03613222e-02,
          -2.40109693e-02, 3.67772505e-02, -1.98557246e-02,
          -1.77103411e-02, 7.45833591e-02, 4.63772081e-02,
          -1.34273367e-02, -3.93872559e-02, 3.68453413e-02,
          -2.63610277e-02, 6.35157079e-02, -2.90390407e-03,
          4.67717275e-03, 5.71563691e-02, 3.14070024e-02,
          -3.26585248e-02, -4.18830216e-02, 1.24811558e-02,
          -3.71259674e-02, 1.42409829e-02, 3.40508734e-04,
          1.00031421e-02, 2.86867432e-02, 5.23147136e-02, 2.11011153e-02,
          2.10088096e-03, 2.75768247e-02, -4.32709679e-02,
          2.43269261e-02, 4.31243554e-02, 6.34694919e-02, 5.81683740e-02,
          1.99318789e-02, -5.18564181e-03, -3.72359008e-02,
          3.70291551e-03, -4.20940556e-02, 1.76496245e-02,
          -1.23896701e-02, 1.60722453e-02, 2.10514423e-02,
          3.63986753e-02, 3.69249471e-02, 1.45056481e-02, 3.62259336e-02,
          -4.86552790e-02, 4.47965525e-02, 2.68749893e-02,
          5.07772863e-02, 4.63613607e-02, 4.13858071e-02, 3.15369181e-02,
          -1.48217129e-02, -1.56746674e-02, -6.67456463e-02,
          8.16135854e-03, 3.18292193e-02, 5.03080450e-02, 4.02441733e-02,
          5.59273995e-02, 7.17573240e-02, 8.57685693e-03,
          -1.02978908e-02, -8.23681429e-02, 8.10810849e-02,
          1.21747345e-01, 1.21633716e-01, 4.74586710e-02, 1.50043257e-02,
          3.21364775e-02, 1.14365984e-02, 1.94362905e-02,
          -6.80728853e-02, 1.32575231e-02, 1.84595976e-02,
          3.17896567e-02, 5.40093938e-03, 3.22092734e-02, 6.77351877e-02,
          3.62876803e-02, -2.34900136e-03, -1.11712389e-01,
          1.07815303e-02, 3.27564627e-02, 4.28662635e-02,
          -3.31706321e-03, 5.43401437e-03, 1.58910435e-02,
          -3.12822759e-02, -5.80696538e-02, -1.17998049e-01,
          6.61529154e-02, 1.98829994e-01, 2.21951962e-01, 7.12677389e-02,
          2.21268404e-02, -2.55519822e-02, -8.61739218e-02,
          -1.30468264e-01, -2.11904421e-01, 6.10459223e-03,
          2.04400182e-01, 3.55965376e-01, 1.98755413e-01,
          -1.55695537e-02, 1.70006771e-02, -1.74667239e-02,
          -4.23266552e-02, -1.20688513e-01, -3.00308075e-02,
          8.09139013e-03, 4.01091464e-02, -2.63411775e-02,
          -1.94286499e-02, -2.49102386e-03, -6.36978373e-02,
