%YAML:1.0
opencv_ml_svm:
   svmType: EPS_SVR
   kernel:
      type: LINEAR
   C: 1.0000000000000000e-02
   p: 1.0000000000000001e-01
   term_criteria: { epsilon:1.0000000000000000e-03, iterations:1000 }
   var_count: 7524
   sv_total: 1
   support_vectors:
      - [ 8.27368349e-03, 1.36096198e-02, 1.80015713e-02, 3.72855216e-02,
          4.83462252e-02, 2.50652116e-02, -2.18165293e-02,
          1.50802080e-03, 1.36465328e-02, -3.54587287e-03,
          1.11618324e-03, -8.62431899e-03, 1.83261372e-02,
          2.85186223e-03, 1.10133691e-02, -2.41659172e-02,
          -7.62907905e-04, -7.99113826e-04, -3.86498566e-03,
          -2.27969158e-02, -2.40228698e-03, 6.92892820e-03,
          -1.31142111e-02, 2.50242520e-02, -4.58917813e-03,
          3.57103674e-03, 7.38342851e-03, 2.49551758e-02, 1.46045741e-02,
          1.95107993e-03, -3.32549377e-03, -2.51984186e-02,
          9.05831438e-03, 1.39713602e-03, 2.18596887e-02, 1.95561126e-02,
          -3.74953938e-03, -2.19699065e-03, -1.06971664e-02,
          4.76561813e-03, 3.96217518e-02, 2.34374683e-02,
          -2.92740446e-02, -5.32682100e-03, 1.85734965e-02,
          9.94925387e-03, -6.27658144e-03, 2.41462127e-04,
          1.33976843e-02, 3.25470045e-02, 3.16440873e-03,
          -1.48226526e-02, -1.02272853e-02, 9.63794719e-03,
          -3.69551801e-03, -7.89574161e-03, -9.34583507e-03,
          -8.15016683e-03, 2.44374312e-02, 2.24034041e-02,
          2.60870159e-03, 1.42190913e-02, 1.17513724e-02,
          -8.38517025e-03, -2.59816982e-02, -8.09611846e-03,
          1.73647609e-02, 1.32592088e-02, -5.02172345e-03,
          8.01666360e-03, 1.27581635e-03, -2.79746135e-03,
          1.69213824e-02, 8.35647748e-04, 4.25244070e-04, 6.64443057e-03,
          2.69861966e-02, 3.96272074e-03, -9.99250216e-04,
          1.21314889e-02, -1.22812309e-03, 7.96115585e-03,
          -1.27938914e-03, -1.91133749e-02, -6.64058188e-03,
          2.41950992e-02, 9.73112788e-03, 7.55476765e-04, 1.45885414e-02,
          7.10335933e-03, 1.04830386e-02, 9.53790545e-03,
          -9.99316480e-03, 1.43045811e-02, 3.28318104e-02,
          -3.28980084e-03, -1.03940256e-02, 1.38762896e-03,
          -6.60691457e-03, 1.36594642e-02, 3.38562094e-02,
          -2.25578900e-03, 1.68445595e-02, -2.02244688e-02,
          -4.18892829e-03, -3.36581469e-02, 1.64836086e-03,
          9.59052332e-03, -4.72462922e-03, 6.57688966e-03,
          -1.72540527e-02, -4.69664391e-03, 1.86206214e-02,
          2.28710379e-02, 2.84865266e-03, 2.53784680e-03,
          -7.47197191e-04, 1.48671577e-02, 2.02400796e-02,
          -2.65704114e-02, -1.61169507e-02, -2.76831239e-02,
          2.01942772e-02, 1.59485750e-02, 4.51983651e-03,
          -4.42993641e-03, -3.28601245e-03, 1.37806535e-02,
          -3.33207613e-03, 2.54268050e-02, -9.93091520e-03,
          1.15997083e-02, -8.25443247e-04, 8.64519272e-03,
          -1.36874607e-02, 6.69201231e-03, 1.72672123e-02,
          -1.53719988e-02, -1.88371968e-02, -3.94721404e-02,
          1.23096146e-02, 1.33906351e-02, 1.29879918e-02,
          -9.82211786e-04, 2.86822469e-04, -8.25957861e-03,
          -2.34958753e-02, -2.03719717e-02, -7.16260960e-03,
          3.14567909e-02, 3.05851717e-02, 2.98375904e-04,
          -3.12790126e-02, -4.42066370e-03, 5.17948624e-03,
          1.54372444e-02, 2.73665786e-02, -1.96859129e-02,
          3.51467207e-02, 1.22488728e-02, 1.38106639e-03,
          -3.78952548e-03, 1.36144701e-02, 1.02720801e-02,
          -1.91638544e-02, -2.35029627e-02, -4.27674688e-02,
          2.46052369e-02, 9.43748187e-03, -1.72363338e-03,
          9.68289468e-03, -1.22853480e-02, 5.92872500e-03,
          9.25135217e-04, -1.16967876e-03, -3.57744768e-02,
          1.52910231e-02, -6.14782283e-03, 5.84999681e-04,
          8.97291861e-03, -1.37413330e-02, -8.71209614e-03,
          1.68055724e-02, 2.51795258e-02, -8.17820430e-03,
          4.74890182e-03, -9.82172415e-03, -2.48996541e-03,
          -1.75244175e-03, -1.91746596e-02, -7.65183242e-03,
          -3.11894203e-03, 1.05197551e-02, 1.28529156e-02,
          1.11175617e-02, -6.15972048e-03, 2.62941867e-02,
          -9.30932164e-03, -2.23023519e-02, -1.37456469e-02,
          -1.75569262e-02, 2.87721632e-03, -4.23611701e-03,
          2.73747742e-03, -1.39030451e-02, 6.12309435e-04,
          -1.62811410e-02, -3.22822779e-02, -1.86809171e-02,
          -3.09370123e-02, -1.32768527e-02, 4.49767010e-03,
          -5.26390178e-03, -1.59075053e-03, 3.31199868e-03,
          -2.17541438e-02, 7.22811604e-03, 3.48068122e-03,
          -6.23541698e-03, -8.26033531e-04, 1.30088236e-02,
          8.56188312e-03, -6.48134807e-03, 1.27869360e-02,
          1.16510168e-02, 7.43276766e-03, -1.57364178e-02,
          -4.28543314e-02, 1.37571702e-02, -2.06059441e-02,
          -7.98874907e-03, -3.09377797e-02, -1.21520655e-02,
          -1.03571741e-02, -1.39539354e-02, 1.23423506e-02,
          -1.10766860e-02, 8.68758094e-03, 3.74185224e-03,
          -3.16330069e-03, 1.21976519e-02, 1.00357477e-02,
          -9.54707619e-03, -2.40176935e-02, -6.33848412e-03,
          -2.64373738e-02, 1.54150901e-02, -4.17871289e-02,
          -8.82096402e-03, -2.07776017e-02, -1.04735103e-02,
          -3.60135213e-02, 1.45786079e-02, 2.81849466e-02,
          5.65116806e-03, 5.05611338e-02, 1.01797590e-02,
          -1.79003943e-02, -2.65930500e-02, 5.58727304e-04,
          3.86586878e-03, -1.66832339e-02, 2.59495601e-02,
          -6.89861784e-03, -1.22129486e-03, -2.97069754e-02,
          -5.98653369e-02, -3.52124050e-02, -8.73479806e-03,
          -5.87310735e-03, -8.08163360e-03, 8.15647282e-03,
          -1.38471613e-03, 3.63543108e-02, -2.28217412e-02,
          1.11668860e-03, -1.93188097e-02, 2.85409447e-02,
          -5.80892060e-03, -1.23944348e-02, 2.49127597e-02,
          -2.28123907e-02, -1.61934998e-02, -3.66948918e-02,
          -4.42656167e-02, -1.78577844e-02, 2.12246403e-02,
          -7.88830034e-03, -2.79546045e-02, 3.51667404e-03,
          -1.82056203e-02, 6.91139279e-03, 1.73188485e-02,
          1.19175594e-02, 7.24092498e-03, 8.17874540e-03,
          -1.76724941e-02, -2.87144929e-02, -1.86971799e-02,
          -2.34264955e-02, -1.81811340e-02, 3.57053336e-03,
          1.68719087e-02, -9.20987967e-03, 1.12760002e-02,
          2.96925195e-03, -9.72525589e-03, 3.07906512e-02,
          -4.51845262e-04, 4.53198701e-03, 1.52541986e-02,
          7.31943874e-03, 2.21757796e-02, 5.83550986e-03,
          -1.56931381e-03, -1.54500483e-02, -1.00288577e-02,
          -1.22364890e-02, -4.62643383e-03, -1.23000210e-02,
          7.94977602e-03, -1.02929045e-02, -4.52876091e-03,
          6.36474136e-03, -2.09527574e-02, 3.03261419e-04,
          -1.09676085e-02, 4.13856097e-03, 3.99596291e-04,
          3.00332624e-03, -2.05377005e-02, -5.92196360e-03,
          1.05146635e-02, -1.21610705e-02, -1.29462522e-03,
          -2.91036703e-02, -1.77366417e-02, -1.63466446e-02,
          -6.24318374e-03, -2.22979169e-02, -9.81226750e-03,
          -1.78582929e-02, 5.75739937e-03, -9.70675237e-03,
          -2.49278406e-03, 2.46148016e-02, -9.69201792e-03,
          1.87547654e-02, -2.13348269e-02, -1.16797967e-03,
          7.34549575e-03, -6.91399677e-03, 4.44544479e-03,
          -1.47860777e-02, 5.82717638e-03, -2.81629488e-02,
          4.02517850e-03, -1.24409562e-03, -5.36240824e-03,
          -1.20675145e-02, -8.09574500e-03, -1.45080604e-03,
          -2.82340460e-02, -1.93415303e-02, 9.29722621e-04,
          1.16542242e-02, -2.92523764e-03, -1.03901755e-02,
          -1.71622802e-02, -6.33008266e-03, -2.16045813e-03,
          1.55600591e-03, 5.07661048e-03, -2.01962534e-02,
          -6.46050321e-03, 7.94871803e-03, 2.24499777e-03,
          -2.22603567e-02, -1.52322343e-02, -1.05122468e-02,
          -1.15719270e-02, 1.16885928e-02, -7.91827741e-04,
          8.46003462e-03, 2.01129857e-02, 7.74376560e-04,
          -2.36250125e-02, -2.83648167e-02, 6.35719020e-03,
          3.65354633e-03, -3.18798888e-03, -2.32874304e-02,
          -6.88267034e-03, 1.26406234e-02, 3.42177856e-03,
          -2.36957949e-02, -2.26477832e-02, 3.45690409e-03,
          1.35540469e-02, 1.40715437e-02, -1.71486773e-02,
          -1.63628757e-02, -5.75369503e-03, 3.30154598e-03,
          -2.16227826e-02, -2.67837420e-02, 9.63690411e-03,
          1.22208931e-02, 1.53827211e-02, -2.62348936e-03,
          1.17966700e-02, -9.32800025e-03, 2.56503001e-02,
          -7.53183104e-03, -1.69345345e-02, -9.61805787e-03,
          1.23986760e-02, 7.02205021e-03, -9.93935671e-03,
          -9.22101270e-03, -4.57623135e-03, -4.79891989e-03,
          -8.92112684e-03, -1.23599975e-03, -3.20401601e-02,
          -1.89804845e-02, -1.33120585e-02, -5.97679950e-02,
          -1.03384517e-02, -1.96717419e-02, 1.90629507e-03,
          -3.02858022e-03, -2.14244276e-02, 1.35443201e-02,
          -6.25737244e-03, -3.33136157e-03, -9.31197195e-04,
          2.19922094e-03, -2.64385473e-02, 1.97132714e-02,
          -1.40289124e-02, -2.94222985e-03, 1.22784683e-02,
          -8.74307565e-03, -8.97165760e-03, -2.36694012e-02,
          1.64512731e-03, -2.48636380e-02, 5.67837805e-03,
          -1.22885797e-02, -1.76169202e-02, -7.36568682e-03,
          -1.96385328e-02, -5.32544509e-04, -2.08893046e-02,
          3.58312181e-03, -7.48498598e-03, 5.02784830e-03,
          3.38454498e-03, -1.10289557e-02, 1.57033820e-02,
          6.92161848e-04, -3.22706648e-03, -2.13313606e-02,
          7.17760250e-03, -3.48720439e-02, -9.44099203e-03,
          -7.85905775e-03, -1.25404242e-02, 3.30790324e-04,
          -6.41896506e-04, -1.67258624e-02, -4.40071335e-06,
          2.76270285e-02, -1.24335559e-02, 6.49782084e-03,
          1.30551746e-02, -2.23399624e-02, -1.65272858e-02,
          1.38768787e-02, 1.01643652e-02, 6.83834264e-03, 5.71858231e-03,
          -1.64156314e-02, -8.05789232e-03, 3.65647185e-03,
          1.26527101e-02, -1.28802960e-03, -3.98077816e-03,
          -1.36471121e-02, 6.96590589e-03, 1.26408003e-02,
          -1.55985011e-02, 6.52371580e-03, -1.47283636e-03,
          -9.78501793e-03, -3.52420919e-02, -1.51438238e-02,
          -2.91720424e-02, -4.68355045e-03, -3.23980227e-02,
          -6.22221502e-03, -1.39829824e-02, -1.36570903e-02,
          -2.71023456e-02, 1.57678239e-02, 2.12480538e-02,
          2.26634531e-03, 1.27859237e-02, 5.78759750e-03,
          -2.09983643e-02, -8.95538181e-03, -1.81688610e-02,
          -6.47652298e-02, -2.06698966e-03, 2.08740891e-03,
          -1.36350477e-02, -4.91091516e-03, -8.42967443e-03,
          -1.46367354e-02, -3.93957365e-03, -3.42930257e-02,
          -1.07734976e-02, -2.02301443e-02, 1.09095825e-02,
          4.25779074e-03, -7.53099890e-03, 4.39492520e-03,
          -1.79022774e-02, -2.85266191e-02, -8.02955776e-03,
          -3.34829353e-02, -1.90741234e-02, -7.59835821e-03,
          -5.68579836e-03, -9.60684195e-03, 6.20279228e-03,
          -1.24197807e-02, 2.29103444e-03, -7.92506151e-03,
          -3.07310373e-02, 5.11135673e-03, -1.16598206e-02,
          -1.26567082e-02, 1.22524761e-02, 3.65020894e-03,
          -9.95545369e-03, 8.85269698e-03, -1.72291379e-02,
          -1.16404705e-02, -3.21391202e-03, -1.40560232e-02,
          -6.48481678e-03, 9.26544424e-03, -1.69053897e-02,
          -2.27085650e-02, 3.96250421e-03, 5.06089826e-04,
          -1.29601797e-02, -1.03370808e-02, 1.90301938e-03,
          -2.80933548e-03, -1.07913176e-02, -1.55223953e-02,
          -8.01470131e-03, -1.08951761e-03, -1.70449552e-03,
          1.03685085e-03, -2.56352536e-02, -9.26292315e-03,
          3.40208341e-03, -9.93439648e-03, -2.25375779e-02,
          -3.69496853e-03, 1.22436313e-02, 1.91208515e-02,
          -6.69624005e-03, 2.26605521e-03, -2.08463077e-03,
          1.79027822e-02, 8.61943699e-03, -2.49622408e-02,
          -1.66110545e-02, 1.05755925e-02, 7.02985795e-03,
          2.29100836e-03, -3.24493758e-02, -1.97395030e-02,
          3.59561387e-03, -2.33495533e-02, -2.62752678e-02,
          -9.38130450e-03, -7.46693183e-03, 9.33461078e-03,
          1.40406226e-03, -1.28337201e-02, -4.40913020e-03,
          1.89940426e-02, 1.50662167e-02, 3.07893279e-05, 4.69395006e-03,
          1.19160479e-02, 1.33039020e-02, -1.83387790e-02,
          -3.27871367e-02, -2.70521156e-02, 1.24991052e-02,
          -8.26765783e-03, -1.87434517e-02, 1.62475072e-02,
          7.07357423e-03, -9.22821928e-03, -6.96372590e-05,
          -2.89889257e-02, -1.30682020e-02, 6.61469158e-03,
          -1.20386332e-02, 4.61256085e-03, 4.57902253e-03,
          8.22561886e-03, 1.73550379e-02, -1.86480712e-02,
          -2.53408235e-02, 8.08826275e-03, 9.90160555e-03,
          -2.49361303e-02, -4.03504353e-03, 1.70287415e-02,
          -1.64026496e-04, 8.78716912e-03, 9.49064083e-03,
          -1.81823876e-02, -2.21384726e-02, 3.42640355e-02,
          -1.68837197e-02, -2.22179061e-03, 1.49196135e-02,
          5.18672541e-03, 2.24665441e-02, -1.42999953e-02,
          -1.70851331e-02, 7.48529492e-05, 2.65327375e-02,
          -3.52196023e-02, -1.77189577e-02, -2.30841357e-02,
          -2.00333279e-02, 2.54425569e-03, -1.49791967e-02,
          1.06164778e-03, 3.06520797e-02, 1.15128104e-02, 7.02768285e-03,
          -1.88195240e-02, -8.69102124e-03, -7.92949740e-03,
          -4.57882276e-03, 6.42809086e-04, -7.46502588e-03,
          2.20077559e-02, -1.10775661e-02, 2.48289313e-02,
          4.10836795e-03, 1.08993379e-04, 5.95923699e-03, 1.50983790e-02,
          -1.09392218e-02, -1.13939904e-02, 2.37405137e-03,
          1.83397997e-02, -7.60764489e-03, -1.31220305e-02,
          -2.63998657e-02, -5.89929195e-03, 2.48899357e-03,
          -1.45182423e-02, -1.24890648e-03, 2.70444490e-02,
          -5.12461970e-03, 2.32218336e-02, 1.63584091e-02,
          -1.60862375e-02, 1.02890225e-03, 6.22516405e-03,
          1.06282718e-03, -3.13086249e-02, 1.09128878e-02,
          1.91669986e-02, -1.54522108e-02, 1.00670690e-02,
          -7.10371137e-03, 2.69400980e-03, 2.65386403e-02,
          1.12397121e-02, -9.69814230e-03, 5.07069519e-03,
          1.80260595e-02, -9.90494899e-03, 1.17151449e-02,
          -2.17555673e-03, 1.59583818e-02, 2.19102129e-02,
          1.09986300e-02, -1.34311551e-02, 1.67359821e-02,
          2.28485651e-02, -2.86866874e-02, -1.61108617e-02,
          -2.55473834e-02, -5.78336930e-03, 3.34099792e-02,
          -5.53416694e-03, -1.03500942e-02, -3.58175114e-03,
          3.17632444e-02, -1.53991496e-02, 2.26116329e-02,
          -1.85441263e-02, 1.20984120e-02, 1.48140918e-02,
          -1.54116936e-03, -4.52893414e-03, -2.34237453e-03,
          -2.12111021e-03, 2.32324358e-02, 1.87777746e-02,
          -9.67933796e-03, -7.01915286e-03, 1.94155909e-02,
          4.04332590e-04, -2.30000131e-02, -1.31728977e-03,
          -5.05139912e-03, 1.07687693e-02, -6.40678336e-04,
          2.64241360e-03, -5.70144458e-03, 6.50165416e-03,
          -1.65954884e-02, 4.44659544e-03, -9.35335760e-04,
          1.35484729e-02, -1.42789958e-03, 2.64800824e-02,
          -1.64804719e-02, -1.12124821e-02, -6.17682422e-03,
          -3.84070305e-03, -7.60858180e-03, -1.11243278e-02,
          1.26276014e-03, 1.93856296e-03, -6.11840468e-03,
          -5.65691106e-03, -1.16382102e-02, 4.26603062e-03,
          7.51514034e-03, -2.56344676e-03, -5.87936584e-03,
          -2.31067860e-03, 1.49698416e-02, 4.29824879e-03,
          -1.32190147e-02, -5.61682926e-03, 5.05426060e-03,
          2.82164197e-03, 2.21834239e-02, 4.12947079e-03, 2.60921419e-02,
          -1.51002044e-02, -1.99432112e-02, -2.00213678e-02,
          1.84866390e-03, 9.84119251e-03, 5.99565217e-03,
          -9.57967481e-04, -3.38333636e-03, -3.56540317e-03,
          -2.89053489e-02, -1.46169821e-03, -1.02121579e-02,
          -7.75077986e-03, 9.46786068e-03, 1.67170614e-02,
          7.06838863e-03, 1.50115043e-02, 8.54983553e-03,
          -1.87882986e-02, 1.71334501e-02, 5.07253455e-03,
          2.10264847e-02, 3.40321921e-02, -2.22768188e-02,
          -1.52130206e-05, -1.14418725e-02, 1.19461655e-03,
          -1.75471383e-03, 9.51342168e-04, 6.56774314e-03,
          2.02725418e-02, -1.48788821e-02, 2.22557527e-03,
          2.96983309e-03, -1.15818428e-02, -1.98959615e-02,
          -2.19792090e-02, 5.45970956e-03, 1.80180557e-02,
          2.78274324e-02, -1.32078631e-02, -3.67675559e-03,
          -1.26873562e-02, 3.99311678e-03, 1.50499176e-02,
          4.31931578e-03, 3.55582163e-02, 1.98231582e-02, 4.13235575e-02,
          4.61069588e-03, -1.05536729e-02, -1.42327296e-02,
          -1.08083021e-02, 9.94634070e-03, 9.65566747e-03,
          2.82333568e-02, 2.05766968e-02, 3.43895480e-02,
          -1.15247294e-02, 4.81601944e-03, 6.02976419e-03,
          -7.11608352e-03, -1.33241275e-02, -2.08718646e-02,
          -1.30493678e-02, -1.04374373e-02, -3.22529231e-04,
          -5.77708008e-03, -2.17833165e-02, 1.74903101e-03,
          -5.69139514e-03, -8.18349048e-03, -4.01490554e-02,
          -8.61388538e-03, -3.38179097e-02, -1.82095841e-02,
          -8.33065901e-03, 1.10175321e-02, 5.43351145e-03,
          -2.20969785e-03, 5.15367463e-03, 1.45487655e-02,
          6.94621867e-03, 5.14112879e-03, 1.09792696e-02, 2.61478149e-03,
          -7.67071778e-03, -2.11278384e-05, -1.50156608e-02,
          -8.06366187e-03, -1.66324358e-02, 1.02060838e-02,
          -8.88738781e-03, 5.41918387e-04, 1.83532406e-02,
          -1.21638961e-02, -2.15273332e-02, -4.99914922e-02,
          -2.79475786e-02, -1.26814833e-02, -7.14111840e-03,
          -3.37258168e-02, -2.52783345e-03, 6.16688281e-03,
          -9.58906859e-03, 8.51149234e-05, -4.46675420e-02,
          -3.24609578e-02, 9.00919840e-05, -2.21408028e-02,
          -1.93680525e-02, -5.24468487e-03, -1.27505222e-02,
          -2.43019225e-04, 1.28253875e-02, -2.39492711e-02,
          -2.11199895e-02, 7.45366653e-03, -1.42480526e-03,
          -1.79440193e-02, 1.46160750e-02, 3.46824899e-02,
          -5.42943925e-03, 1.12887416e-02, -3.43351252e-02,
          -3.64915431e-02, 5.52816503e-03, 4.70065465e-03,
          -2.51514893e-02, 2.14180127e-02, -8.77743494e-03,
          5.14624920e-03, 3.06957383e-02, -4.65061486e-04,
          -2.55246181e-03, -3.04705836e-03, -3.53932567e-02,
          -1.38506023e-02, 1.26421889e-02, -8.59998725e-03,
          -1.61356293e-02, -1.02415700e-02, -2.92654857e-02,
          -1.95228495e-03, -7.74215488e-03, -8.61866120e-03,
          -1.59758814e-02, 3.69738974e-03, -8.72211717e-03,
          4.94125579e-03, 3.09730154e-02, 2.04686541e-03, 4.18054871e-03,
          3.84768937e-03, -9.65872314e-03, -1.79609731e-02,
          8.68588686e-03, -2.92739607e-02, -6.98785111e-03,
          2.08761580e-02, -2.11066697e-02, -1.82070304e-02,
          -1.08187031e-02, -1.12541756e-02, -6.91156648e-03,
          -2.07911571e-03, -4.25326684e-03, -2.04029568e-02,
          -1.32080549e-02, -1.10243578e-02, 1.53906047e-02,
          -1.22138951e-02, 3.04479096e-02, -1.01986043e-02,
          2.17282493e-02, 1.29718799e-02, -8.39696266e-03,
          1.13430191e-02, -1.66823678e-02, 1.23582169e-04,
          -2.10968722e-02, -8.17003287e-03, -1.14848632e-02,
          2.12196559e-02, -2.37552566e-03, -2.35411301e-02,
          -6.49476843e-03, -1.80725865e-02, -6.19745255e-03,
          -1.25092836e-02, 1.65498722e-02, -8.92321113e-03,
          7.90163688e-03, -1.43673625e-02, -1.68087855e-02,
          -5.16747078e-03, -1.76366698e-02, 7.21368752e-03,
          -9.72655485e-04, 5.41036529e-03, -6.77665882e-03,
          8.32564663e-03, 1.93742209e-03, -8.17769859e-03,
          3.60040069e-02, -8.25356226e-03, 8.70766584e-03,
          -1.85556419e-03, 1.78430453e-02, 9.23375785e-03,
          1.37863895e-02, -5.06529864e-03, 4.87368274e-03,
          -3.76624824e-03, -1.76517889e-02, -1.46571426e-02,
          -1.27551621e-02, -1.90799381e-03, -1.95332021e-02,
          2.52353749e-03, 1.46831069e-02, 1.49668250e-02, 2.28355154e-02,
          4.57563298e-03, 2.19712462e-02, 5.51842246e-03, 9.63167194e-03,
          1.51588686e-03, 1.35922777e-02, 1.87964477e-02,
          -2.39641406e-03, 1.08226168e-03, 2.97193159e-03,
          -9.52810049e-03, -1.69999581e-02, -2.24349499e-02,
          -4.24599722e-02, 6.39055111e-03, -4.53350338e-04,
          8.46726296e-04, -2.49592122e-03, -3.38041736e-03,
          8.18655733e-03, 6.89792912e-03, -9.89000662e-04,
          -1.78854726e-02, 1.07982568e-03, -1.72339776e-03,
          -1.24239339e-03, -4.05984046e-03, 4.75950586e-03,
          2.47510858e-02, -1.58841826e-03, -1.02597037e-02,
          -5.60140237e-03, -1.13299359e-02, 4.76082554e-03,
          -9.09485016e-03, -1.13954870e-02, 2.67613563e-03,
          7.20649317e-04, 1.28680440e-02, -3.05171870e-03,
          -1.02961743e-02, 1.60992555e-02, 1.17997406e-02,
          -1.76827442e-02, -2.86762007e-02, -2.68895365e-03,
          8.00956413e-03, 6.82449108e-03, -1.11007653e-02,
          -8.62182491e-03, -4.98164352e-03, -1.80363338e-02,
          -3.17356847e-02, -3.47434953e-02, -1.33111943e-02,
          1.54002039e-02, 8.38290621e-03, 1.28886318e-02, 6.52203755e-03,
          5.62764704e-03, -8.40760674e-03, -2.48559527e-02,
          1.72649091e-03, -1.69386063e-02, -4.15719999e-03,
          -2.13199295e-02, -7.32834276e-04, 2.72112130e-03,
          -1.97547534e-03, 8.71255528e-03, -7.31123611e-03,
          -2.01333333e-02, 3.26702581e-03, 2.66535673e-02,
          1.98531197e-04, 1.30800540e-02, -3.52462567e-03,
          -1.08284615e-02, -1.71698257e-03, -5.11290226e-03,
          -4.55448683e-03, -5.45878476e-03, 1.21200308e-02,
          -2.78182253e-02, -2.76165153e-03, -1.58174951e-02,
          -6.08260185e-03, 3.87685816e-03, 3.43123428e-03,
          2.67130416e-03, -7.88387842e-03, -7.29906722e-04,
          8.79208150e-04, -4.82432405e-03, -1.92463268e-02,
          -7.70040881e-03, 1.24850208e-02, -1.23631600e-02,
          -3.20573263e-02, -2.17306484e-02, -1.36926714e-02,
          -2.41930410e-02, -4.33612801e-03, -1.28653664e-02,
          -9.86792613e-03, -7.44109508e-03, 1.94300730e-02,
          1.04003586e-02, -2.28727031e-02, -1.90404449e-02,
          -5.90457907e-03, -7.08251772e-03, -2.44303755e-02,
          -9.17948969e-03, 1.44383973e-02, 1.25956507e-02,
          -7.50906952e-03, -2.39386689e-02, -4.07184381e-03,
          1.23901339e-02, 2.15272838e-03, -3.36852744e-02,
          -3.58676501e-02, -6.71737175e-03, -1.35179739e-02,
          -7.50297867e-03, -1.33592952e-02, -4.63516964e-03,
          -2.51862220e-02, -7.42996158e-03, -5.78562403e-03,
          2.31054588e-03, 1.73738692e-02, -1.47928474e-02,
          4.02559573e-03, 1.76701893e-03, 5.82807278e-03,
          -2.66066715e-02, -3.80825088e-03, -3.08104288e-02,
          -6.36943849e-03, -1.29349148e-02, 1.74388513e-02,
          3.38890613e-03, -1.54381208e-02, 6.21722033e-03,
          -9.28777270e-03, -2.90616951e-03, -3.73936258e-02,
          -1.07095651e-02, -3.20009794e-03, 4.96016117e-03,
          1.01642217e-02, 1.41428094e-02, -1.82337780e-03,
          -3.77337001e-02, -1.28700340e-03, -7.14954967e-03,
          2.78915577e-02, 3.99885420e-03, -6.84977928e-03,
          -1.10577391e-02, 4.96183662e-03, -1.31104642e-03,
          -2.40584966e-02, -1.45736048e-02, -2.06299741e-02,
          4.08732099e-03, -1.33138970e-02, -2.43662670e-02,
          -4.03043553e-02, -4.50235838e-03, -4.74424986e-03,
          -9.98252444e-03, -3.41834463e-02, -1.20575055e-02,
          -8.19845591e-03, -3.24923061e-02, -9.44591966e-03,
          2.44139927e-04, 1.40878391e-02, -1.13757895e-02,
          -2.15368643e-02, -4.40063421e-03, 9.60704871e-03,
          3.69539112e-02, 2.54523172e-03, -9.67004523e-03,
          -1.35352472e-02, 4.08674730e-03, -1.40389213e-02,
          6.06510928e-03, -1.97121873e-02, -5.25902212e-03,
          4.00730781e-03, -1.34590436e-02, -1.44298133e-02,
          -3.13461870e-02, -6.46277657e-03, 3.98974189e-05,
          -9.40909982e-03, 7.03108823e-03, 6.37337449e-04,
          -2.06448026e-02, -1.33519748e-03, -1.92576665e-02,
          -1.84496157e-02, -1.41595043e-02, -7.01036258e-03,
          -1.64736733e-02, -7.65140541e-03, 7.27645541e-03,
          -6.25293655e-03, 1.32965809e-03, -4.79771476e-03,
          -1.62799619e-02, -1.40539119e-02, -3.08558019e-03,
          3.49401869e-03, 8.79133586e-03, 5.90839144e-03,
          -1.85450334e-02, -3.76929413e-03, 4.67385305e-03,
          1.28895219e-03, -1.50919668e-02, 8.59764055e-04,
          2.50371965e-03, -1.07067041e-02, 6.17550034e-03,
          -9.01582837e-03, -7.03259837e-03, 4.10760334e-03,
          -1.21104030e-03, 1.47362670e-03, 1.45380059e-02,
          -1.54962391e-02, -2.23810114e-02, -2.41857138e-03,
          -8.25481396e-03, 1.27250534e-02, 7.66476383e-03,
          -1.99100431e-02, -1.78450961e-02, -3.10828444e-04,
          -1.03951665e-02, -2.84506902e-02, -1.77525561e-02,
          -6.98905066e-03, 2.01782528e-02, -4.33905423e-03,
          1.56455692e-02, 1.92788302e-03, 9.51284077e-03,
          -1.20390626e-02, -8.50884523e-03, -7.18917837e-03,
          7.72801135e-03, -1.19297411e-02, -2.15055677e-03,
          -1.64491124e-02, -4.94757667e-03, 5.28977066e-03,
          -2.74431286e-03, -1.98278446e-02, -4.48664352e-02,
          -1.00979069e-02, -1.28139686e-02, -1.26575946e-03,
          -1.81173477e-02, -1.97381433e-02, -9.26668756e-03,
          -9.52951144e-03, -4.24338784e-03, -1.30794393e-02,
          5.32094203e-03, 1.09011075e-02, -2.18123794e-02,
          -1.35393217e-02, -2.19033081e-02, 4.84045269e-03,
          -1.69022251e-02, -1.84542816e-02, -4.54411656e-03,
          -6.68242481e-03, -2.87383739e-02, 4.85452125e-03,
          -1.42614171e-02, -5.22258272e-03, 9.32159740e-03,
          6.84963353e-03, -5.28891571e-03, -2.59244721e-02,
          -4.15062910e-04, -2.41231900e-02, -1.34636033e-02,
          -4.20544716e-03, -8.06780811e-03, 2.04335321e-02,
          -3.91559862e-03, -1.72526073e-02, -1.31854108e-02,
          -3.61211598e-04, -4.71697301e-02, 9.92826093e-03,
          7.56091578e-03, 8.15835781e-03, 4.20598835e-02,
          -9.73007362e-03, -1.64171457e-02, 7.63080362e-03,
          -8.09259992e-03, 1.71805732e-02, -1.82172004e-02,
          -5.90126170e-03, 1.04063489e-02, 1.49861211e-02,
          -2.65330635e-02, -8.84362380e-04, -1.33169489e-02,
          -2.39654593e-02, 8.58592521e-03, 8.82068556e-03,
          1.80200431e-02, 1.97113343e-02, 2.84690745e-02, 6.48339232e-03,
          1.61749776e-04, -2.54899822e-03, -8.21959227e-03,
          2.49508565e-04, -2.02177931e-02, -6.80401782e-03,
          2.42286809e-02, -1.00107240e-02, -2.44392008e-02,
          1.27841730e-03, 1.04567443e-03, -1.35368621e-02,
          -1.18096583e-02, -2.35680621e-02, -1.97279686e-03,
          1.47022251e-02, 5.84656838e-03, 1.18585434e-02, 5.85491024e-03,
          -1.87237132e-02, 5.87058160e-03, 7.58935791e-03,
          -2.06673704e-02, 1.20890059e-03, 2.26251297e-02,
          5.78194950e-03, 1.54133206e-02, -4.03057644e-03,
          -9.06318612e-03, 3.47850705e-03, 1.58493817e-02,
          -3.03199347e-02, -1.07444273e-02, 1.58696808e-02,
          -5.50169311e-03, 1.94958430e-02, -3.28560919e-03,
          1.52933262e-02, 8.22152384e-03, -1.54945776e-02,
          1.98429800e-03, -2.47282758e-02, 5.08300254e-05,
          -1.15472183e-03, 4.49321158e-02, -4.43723612e-03,
          2.34080907e-02, 1.53455716e-02, 2.07253154e-02, 5.59344329e-03,
          1.38262194e-03, 1.32925436e-02, 2.36910451e-02, 9.09145281e-04,
          -1.61975157e-02, -2.12298743e-02, -1.45918922e-02,
          2.05708891e-02, -1.15848402e-03, 6.62056636e-03,
          1.24913473e-02, 2.67837718e-02, 8.13117716e-03, 1.07807964e-02,
          -6.45278767e-03, 2.12223222e-03, 1.68958642e-02,
          2.24675070e-02, -1.18685821e-02, -1.96439102e-02,
          1.46186547e-02, -1.03150494e-02, -1.79913547e-02,
          -1.92414951e-02, -4.18673176e-03, 3.06759104e-02,
          -4.95261746e-03, 1.14056040e-02, 5.64074330e-03,
          1.33478697e-02, -2.77577899e-02, 4.68241470e-03,
          -8.64056684e-03, -2.15894397e-04, 9.09449998e-03,
          -1.25344638e-02, 3.83145269e-03, 1.44005306e-02,
          1.10103814e-02, 1.80982202e-02, 7.11874571e-03,
          -9.74972919e-03, 6.69086585e-03, -3.82212619e-03,
          8.25294177e-04, 5.27593831e-04, -2.00173594e-02,
          1.35668879e-02, 6.45802775e-03, -1.44608822e-02,
          -9.84659884e-03, -8.40299483e-03, -1.15032364e-02,
          -1.65497586e-02, 4.74413205e-03, 1.77253708e-02,
          2.01952737e-02, -1.11784525e-02, 7.68345641e-03,
          -1.14879357e-02, 3.50782444e-04, -2.38745194e-02,
          -2.39258772e-03, 1.27889402e-02, 1.67767387e-02,
          3.66903506e-02, -1.65798254e-02, -1.15789874e-02,
          -1.69524252e-02, -7.29268417e-03, -1.21230669e-02,
          7.21793110e-03, 2.63055065e-03, -8.47963523e-03,
          2.03480595e-03, -1.22505333e-02, -1.88880581e-02,
          -9.12229158e-03, -6.69661397e-03, 1.22721912e-02,
          7.44606368e-03, -5.99308405e-03, 7.42188282e-03,
          -3.73052945e-03, -7.54072471e-03, 1.78739000e-02,
          -1.43171672e-03, -4.33696620e-03, 2.48546097e-02,
          3.73173989e-02, 1.29319914e-02, 1.20416163e-02, 8.12040363e-03,
          -1.81041211e-02, -1.54947704e-02, -1.71472151e-02,
          -1.34536084e-02, 1.36875734e-02, -9.69402099e-05,
          -1.67092886e-02, 1.82192144e-03, -1.03716739e-02,
          -2.31484286e-02, -2.14989111e-02, -1.62836425e-02,
          -7.04972888e-04, 1.54189570e-02, -6.96315430e-03,
          -1.73155125e-03, 4.97271586e-03, 1.30868563e-02,
          4.59438935e-03, 8.10655020e-03, -1.04181971e-02,
          6.06399262e-03, 1.20686069e-02, -1.64025910e-02,
          1.00949430e-03, -5.10300975e-03, 3.03558297e-02,
          1.90802682e-02, 2.52737738e-02, 5.96011290e-03,
          -9.99477971e-03, -2.89974008e-02, -3.38014448e-03,
          7.11205741e-03, 7.66822882e-03, 2.67399140e-02, 7.87110650e-04,
          -1.15264142e-02, -2.80314498e-02, 3.32050561e-03,
          1.84729081e-02, 3.87735711e-03, -6.01499435e-03,
          -1.70556027e-02, 1.76757406e-02, 1.52536537e-02,
          8.65174178e-03, 2.38090940e-02, 2.67494749e-03, 6.05124002e-03,
          4.88891266e-03, 5.54299448e-03, 3.93861532e-03, 1.80883575e-02,
          1.39549030e-02, 5.84836910e-03, -2.55085574e-03,
          -9.70843807e-03, -2.21448541e-02, -7.07715005e-03,
          -9.40886419e-03, 1.59876852e-03, 4.30921279e-03,
          -2.05772053e-02, 1.89139787e-03, -1.67905388e-03,
          9.93478764e-03, 1.37135591e-02, 1.03112878e-02,
          -2.03703437e-03, -2.37006415e-02, 2.31403615e-02,
          5.34309402e-05, 2.81939339e-02, 7.01671327e-03, 7.77240749e-03,
          3.42086353e-03, 5.10205934e-03, 1.79197174e-02, 1.99232227e-03,
          1.49321482e-02, -1.29067739e-02, 6.24803826e-03,
          1.30131627e-02, 2.44725440e-02, 2.29955884e-03,
          -2.50516124e-02, 6.71256566e-03, -1.22723943e-02,
          2.21596682e-03, 9.84215364e-03, 8.90230108e-03,
          -4.11887281e-03, -1.01999501e-02, -1.34565532e-02,
          -4.46601957e-02, -9.48747527e-03, -1.34985633e-02,
          -1.48535315e-02, 3.13959736e-03, 1.41304266e-02,
          -1.38548026e-02, 2.84759735e-04, -4.55261543e-02,
          4.85736207e-04, 1.20249856e-02, -5.90573484e-03,
          8.28208588e-03, -7.85092416e-04, -6.35090983e-03,
          1.32889173e-03, 1.53289700e-04, -2.91831549e-02,
          -6.33100700e-03, 1.07002794e-03, -1.71623484e-03,
          -2.54694261e-02, -2.58853119e-02, -4.50269412e-03,
          -5.01674367e-03, 1.02255493e-02, -2.03866586e-02,
          -2.14500092e-02, 5.32891555e-03, 1.97821017e-03,
          6.15820428e-03, 1.91510450e-02, 6.25453424e-03,
          -1.45486165e-02, 3.25001590e-03, -1.84632950e-02,
          -2.57613766e-03, -2.35696267e-02, -4.04970050e-02,
          -2.24678870e-02, 4.19799471e-03, -1.39217498e-02,
          -4.64548729e-03, -5.62083675e-03, -6.53993851e-03,
          -1.21463556e-03, 2.36772709e-02, 1.23106688e-02,
          -7.20820064e-03, 3.81100434e-03, 3.89687181e-03,
          1.63441766e-02, 3.21191177e-02, 5.91869047e-03,
          -2.79114507e-02, -7.37015111e-03, -2.83900369e-02,
          -3.09685674e-02, -1.55492146e-02, -1.93687323e-02,
          1.58575329e-03, 1.39244189e-02, 3.72656924e-03, 1.79453578e-03,
          -2.61408333e-02, -3.00912522e-02, 2.29457160e-03,
          2.31774664e-03, 4.32937918e-03, -1.62305241e-03,
          6.54152548e-03, -1.13089457e-02, -1.24620972e-02,
          -2.78741717e-02, -2.16163807e-02, 6.82102283e-03,
          7.70684145e-03, -1.64948273e-02, -2.52434853e-02,
          -2.61146594e-02, -1.74007043e-02, 3.10821123e-02,
          1.24441925e-02, -1.39949443e-02, 1.37302391e-02,
          1.05979387e-02, 3.10745882e-03, -3.49161169e-03,
          1.32266404e-02, -5.31294895e-03, 1.70483906e-02,
          2.59507019e-02, 6.49886020e-03, 2.35224143e-02, 9.72397067e-03,
          -9.25621949e-03, -9.85960290e-03, -1.93435419e-02,
          8.78371019e-03, 5.51153533e-03, -7.84274936e-03,
          3.24063376e-03, 1.10958451e-02, 1.23703266e-02,
          -1.38183043e-03, -1.52527494e-02, -2.01425254e-02,
          3.64340143e-03, -6.46803947e-03, -4.89588082e-03,
          -3.06865410e-03, -6.42306078e-03, -2.27313843e-02,
          -1.45866461e-02, -5.01847081e-02, -1.31026199e-02,
          -5.66173345e-04, 2.44274586e-02, -5.14946599e-03,
          -1.02134328e-02, 1.33117568e-02, 1.25365211e-02,
          -3.23459273e-03, -8.13658908e-03, 1.03532911e-05,
          1.99810732e-02, -1.36826262e-02, -1.84479877e-02,
          -2.19211280e-02, -1.33805471e-02, -1.84233729e-02,
          1.08331777e-02, -2.53085289e-02, -6.64882502e-03,
          -8.89555272e-03, -9.26364854e-04, 1.65476333e-02,
          1.17376754e-02, -1.13412831e-02, 6.06341893e-03,
          9.89182573e-03, -2.63318941e-02, -2.17933278e-03,
          1.42401189e-03, -1.71456095e-02, -7.14956457e-03,
          -2.02771113e-03, -1.35354642e-02, -3.57235521e-02,
          4.94454289e-04, -1.01750679e-02, -1.25625555e-03,
          -2.17800941e-02, -5.00758784e-03, 2.08043307e-02,
          9.68296360e-03, -8.60414654e-03, 1.76298693e-02,
          2.49179397e-02, -3.84228071e-03, 2.72615906e-03,
          9.41706169e-03, -1.57564208e-02, 8.28788895e-03,
          -1.27578527e-02, -1.26400460e-02, -4.07430902e-02,
          -1.11869385e-03, 1.69030263e-03, -6.55171880e-03,
          -1.32044163e-02, -2.26297528e-02, 1.36712368e-03,
          7.54635362e-03, 1.32719688e-02, -2.24277359e-02,
          -2.64575379e-03, 5.76526020e-03, 4.25028615e-03,
          -3.96267511e-03, -1.75990779e-02, -3.57508194e-03,
          7.36274105e-03, 1.49734905e-02, -2.66026463e-02,
          -2.09116866e-03, 1.55129721e-02, 2.17261468e-03,
          -9.86365508e-03, -2.55155768e-02, 1.08191269e-02,
          1.81121659e-02, 1.08082565e-02, -2.30653286e-02,
          -1.22786267e-02, 1.08777247e-02, 8.36508628e-03,
          -2.71288003e-03, -1.57899205e-02, -1.24364421e-02,
          1.26878517e-02, 1.27323521e-02, -2.46421639e-02,
          -9.76593420e-03, 9.52069461e-03, 2.19749939e-02,
          -1.12279365e-02, -2.28916924e-03, -3.75706772e-03,
          -1.74550526e-02, -1.60572976e-02, -1.76677853e-02,
          -1.88113488e-02, -8.90249107e-03, -1.36872521e-02,
          1.60843618e-02, 7.02480378e-04, -1.86463967e-02,
          -3.60179767e-02, -2.93987915e-02, 4.26046038e-03,
          -5.06729994e-04, -3.46234255e-02, -2.48224232e-02,
          2.08877912e-03, 1.52163580e-02, -5.94667159e-03,
          3.39347380e-03, -5.37607307e-03, -4.50757286e-03,
          -1.07925003e-02, 2.80512823e-03, 3.02701723e-02,
          2.14372249e-03, -9.39956959e-03, -5.36577869e-03,
          -2.16206089e-02, -1.30276391e-02, 2.40168534e-04,
          1.90145951e-02, -4.95841261e-03, 2.13561449e-02,
          7.75944954e-03, -1.18686454e-02, -9.94091667e-03,
          -1.57345328e-02, -1.17919333e-02, -1.22798944e-03,
          -3.85954452e-04, -2.93869730e-02, -1.45174013e-02,
          -2.40043085e-02, -1.58840194e-02, 3.18974163e-03,
          2.47602165e-02, 3.10432608e-03, -1.80296991e-02,
          1.21313054e-02, -1.32268472e-02, 2.18638708e-03,
          -3.60344648e-02, 8.30318872e-03, 1.53128309e-02,
          6.25157915e-03, 1.70921208e-03, 1.14448816e-02, 2.00396264e-03,
          -1.44022219e-02, 1.66174155e-02, -4.09215596e-03,
          7.70285539e-03, 1.81812290e-02, 3.17122564e-02, 3.08949761e-02,
          1.05012096e-02, -2.93487636e-03, -2.44497973e-02,
          -4.91988100e-03, 7.98303925e-04, -2.68157031e-02,
          -1.24825761e-02, 6.10956503e-03, 4.22533695e-03,
          -2.18541138e-02, 8.96905456e-03, -4.79160371e-04,
          1.12980437e-02, -2.62349006e-02, -1.09520126e-02,
          -2.49196533e-02, -3.67005193e-03, -2.30807196e-02,
          -2.01680586e-02, -7.54891289e-03, -3.24102366e-05,
          -3.38936667e-03, -3.36966701e-02, 4.66528814e-03,
          1.06794480e-02, 1.14834327e-02, 2.17461884e-02, 1.03489207e-02,
          1.14390561e-02, 2.13090377e-03, 1.36542860e-02, 1.00027844e-02,
          -1.71618944e-03, -1.01738155e-03, 1.10498527e-02,
          -2.12687044e-03, -1.92139633e-02, 1.44095570e-02,
          3.39421108e-02, 1.98734719e-02, -9.16893419e-04,
          -8.92910175e-03, -5.75117720e-03, -1.60717973e-04,
          6.12593861e-03, -1.59590971e-03, 1.82186645e-02,
          -9.60005261e-03, -1.88285802e-02, -2.59380359e-02,
          -1.41818868e-02, -9.05760843e-03, -2.14812290e-02,
          -2.18490120e-02, -2.12950800e-02, -1.03745516e-02,
          -1.40235703e-02, -2.47266944e-02, -2.93024629e-02,
          8.72058421e-03, 2.62045544e-02, 2.71237567e-02, 2.55395994e-02,
          1.05899554e-02, 2.66476721e-02, 3.83876227e-02, 3.29363123e-02,
          3.31520312e-03, 1.02235051e-02, 1.64854992e-02, 1.07395854e-02,
          -1.49397934e-02, -8.57543759e-03, -2.54576560e-02,
          3.80994170e-03, 3.53887281e-03, -5.66959893e-03,
          -1.27509190e-02, 1.22595988e-02, 1.04185501e-02,
          -2.82497914e-03, -1.90524105e-02, -1.06563326e-02,
          -6.05488662e-03, 1.10980598e-02, -1.62800141e-02,
          -4.96227667e-03, 2.90830131e-03, 2.68053333e-03,
          -2.64362106e-03, -1.85543485e-02, -1.85378715e-02,
          -3.62319052e-02, -2.16670204e-02, -1.82087552e-02,
          1.56304501e-02, 2.43585650e-02, 1.56159475e-02,
          -6.62223389e-03, -1.50494231e-02, -2.48176921e-02,
          -1.59025774e-03, 1.74123459e-02, 1.70502048e-02,
          2.26417813e-03, 1.34657454e-02, 2.29333322e-02,
          -1.67774763e-02, -1.55432448e-02, -7.21998885e-03,
          -1.66438427e-02, -2.72472319e-03, 1.39528448e-02,
          1.10255489e-02, 1.16961906e-02, -2.46240268e-03,
          1.93917509e-02, -2.73517799e-02, -3.17890011e-03,
          -7.70842098e-03, -5.50184399e-03, -1.14155272e-02,
          -5.47051523e-03, 1.40370745e-02, -1.81523357e-02,
          1.19799096e-02, -2.46746745e-02, -1.94363929e-02,
          -1.21526874e-03, 9.72946547e-03, -1.89045258e-02,
          -9.38837696e-03, -1.53204724e-02, -3.08680162e-03,
          -1.14802402e-02, -2.53897496e-02, 8.67300853e-03,
          2.33769091e-03, -3.04195378e-03, 6.18145941e-03,
          -7.48873642e-03, -1.04742115e-02, -2.14771610e-02,
          -2.09207926e-02, -3.93844545e-02, 1.04614021e-02,
          1.17537007e-02, 1.39432708e-02, 3.11635598e-03,
          -2.58735730e-03, 1.73498988e-02, -4.09971923e-03,
          -2.56635319e-03, -2.93539744e-02, -2.15790924e-02,
          -5.70940261e-04, 6.24124520e-03, 1.43948281e-02,
          -1.72169115e-02, -1.13689126e-02, 8.81549378e-04,
          -1.28412275e-02, -1.88922752e-02, 6.00254489e-03,
          -6.31730398e-03, -6.80643180e-03, 8.17488972e-03,
          1.81202739e-02, 1.80416498e-02, -1.01558324e-02,
          -5.46188187e-03, -3.51277273e-03, 2.13435991e-03,
          -6.85499096e-03, 1.34718698e-02, 1.41266044e-02,
          -7.96852261e-03, -2.90344306e-03, -9.94796399e-03,
          -1.07529173e-02, 3.33863311e-03, 1.30673219e-02,
          -1.47436699e-02, -3.90099455e-03, 9.69603471e-03,
          -1.86406635e-02, -1.26661332e-02, -8.30550212e-04,
          -4.65418212e-03, 1.93415917e-02, -2.65434980e-02,
          6.25710376e-03, -4.59551392e-03, 5.06547699e-03,
          2.06048097e-02, -7.82764889e-03, -1.64365321e-02,
          4.19091713e-03, 2.88779885e-02, -1.37529848e-02,
          1.00416150e-02, -8.81080795e-03, 2.36581285e-02,
          -1.47658521e-02, -6.90854527e-03, -1.76460780e-02,
          -2.04077009e-02, 4.98794438e-03, 2.87021417e-03,
          4.18558717e-03, -8.64218455e-03, -4.54477593e-03,
          2.59165447e-02, 1.44736404e-02, -3.87064158e-03,
          6.69565238e-03, 2.07209047e-02, 1.64659868e-03,
          -4.18500323e-03, -1.24292877e-02, -3.85173899e-03,
          3.41251642e-02, 3.20098689e-03, -1.06947236e-02,
          2.41202340e-02, 2.93432493e-02, -3.20201903e-03,
          -1.52625404e-02, 1.74010464e-03, 1.73037890e-02,
          2.59488299e-02, 5.63589716e-03, 5.45918383e-03, 4.86973859e-02,
          3.42995264e-02, 2.36348482e-03, -1.31723806e-02,
          1.13221421e-03, 1.35690710e-02, 1.76970102e-02,
          -1.22102667e-02, -1.74725018e-02, 1.30352797e-03,
          3.28083755e-03, 6.58656377e-03, -3.92902792e-02,
          -2.70056129e-02, -3.57421264e-02, 6.31719449e-05,
          4.48811240e-03, -1.60153788e-02, 2.32186663e-04,
          -1.83511619e-03, -1.08374497e-02, -3.27873789e-02,
          -1.33092571e-02, -1.28732091e-02, 2.15511373e-03,
          -1.27118379e-02, -3.34588578e-03, 3.11310142e-02,
          2.55793147e-02, -3.59237031e-03, -3.63851003e-02,
          -2.08064225e-02, -1.16160675e-03, 1.54345892e-02,
          -1.01966476e-02, -2.51144334e-03, 2.28778701e-02,
          3.88611928e-02, 1.40189026e-02, -1.27956420e-02,
          -6.56915456e-03, 2.13600229e-02, -2.26747561e-02,
          -7.83718750e-03, -1.83978155e-02, 3.46621056e-03,
          1.66280363e-02, -5.99837350e-03, -4.82333973e-02,
          -3.24671566e-02, -1.95736252e-02, -1.51798027e-02,
          -2.15170495e-02, -1.69315059e-02, 1.00454483e-02,
          5.01179602e-03, 1.53057761e-02, -1.09081380e-02,
          -1.06039718e-02, 1.29858246e-02, 2.89392881e-02,
          -5.78200119e-03, -6.56618178e-03, -2.59034196e-03,
          7.17112911e-04, 6.38233963e-04, -1.40676210e-02,
          -1.16917037e-03, 6.15338143e-03, 2.12639961e-02,
          2.48842081e-03, 4.53107851e-03, 3.08040809e-03, 1.03187831e-02,
          -2.36149481e-03, 1.14485098e-03, 5.54483104e-03,
          5.73561713e-03, 7.21422303e-03, -2.10426357e-02,
          -3.22455168e-02, -1.05865085e-02, -2.88614165e-02,
          -2.45765987e-04, 1.39124843e-03, 1.83594916e-02,
          2.46671867e-02, 1.58748869e-02, -8.83030239e-03,
          -1.26485266e-02, -1.81110334e-02, -3.50532122e-03,
          5.31716552e-03, -2.57651624e-03, 9.23402328e-03,
          1.52168861e-02, -6.49523269e-03, -9.96882934e-03,
          -2.35743690e-02, -5.66065079e-03, -4.46312129e-03,
          -1.04825655e-02, -2.69104429e-02, -2.18827408e-04,
          3.01859737e-03, -1.81956682e-02, -7.68935680e-03,
          -2.72258297e-02, -9.72588267e-03, -9.16498899e-03,
          1.61745343e-02, 2.18595006e-02, 9.25731566e-03,
          -1.01438863e-02, 1.43952388e-02, -2.16405664e-04,
          -3.14625748e-03, 9.12199961e-04, -2.07786765e-02,
          -9.31865163e-03, -7.60146091e-03, -1.67225208e-02,
          -1.35497209e-02, 2.26012878e-02, 1.75821166e-02,
          2.41126195e-02, 1.37472367e-02, -2.84137595e-02,
          -8.50047637e-03, 1.19448053e-02, 2.14854808e-04,
          6.46999804e-03, -2.24604476e-02, -1.15512740e-02,
          -2.36935187e-02, -2.22014729e-03, 6.19139941e-03,
          2.08582990e-02, 1.15697011e-02, 9.31175775e-04,
          -1.83010977e-02, -9.99188144e-03, 7.52650807e-03,
          3.18427221e-03, 1.39785483e-02, 7.02794036e-03, 9.95752774e-03,
          2.13509949e-04, -2.29559722e-03, -1.06758792e-02,
          -4.92248824e-03, 1.00796139e-02, 5.75125264e-03,
          9.16692836e-04, -1.29047073e-02, 1.61137693e-02,
          1.60285039e-03, 1.16478652e-02, 5.15239639e-03,
          -9.52347647e-03, 1.27707906e-02, -4.33850512e-02,
          2.44515366e-03, -1.35728726e-02, 2.85422318e-02,
          1.09849283e-02, 2.25065593e-02, 9.70180891e-03,
          -2.26129945e-02, 9.33962688e-03, 1.44788558e-02,
          2.75300187e-03, 2.10891664e-03, 4.52956237e-06,
          -9.88768972e-03, -1.26881432e-02, -3.32415998e-02,
          -3.51257697e-02, 3.52365593e-03, -6.18702441e-04,
          -3.03647052e-02, -3.05923726e-02, -1.50509328e-02,
          -2.84849145e-02, -1.14886863e-02, -2.66585741e-02,
          -2.92369165e-03, 3.58557259e-03, -7.56075792e-03,
          1.95874684e-02, 1.46240052e-02, 1.95886772e-02, 6.66113850e-03,
          2.16622483e-02, 2.80918740e-03, -2.20054220e-02,
          2.68826969e-02, -1.24575347e-02, 2.21772911e-03,
          -1.88786089e-02, -6.58622338e-03, -2.41418704e-02,
          1.96149154e-03, -1.31327368e-03, -1.13806268e-02,
          3.66323963e-02, 2.05703024e-02, -1.54842110e-03,
          8.89246445e-03, 2.36417931e-02, 1.91149872e-03, 4.53754421e-03,
          3.81889264e-03, -2.62007676e-02, 1.90668218e-02,
          -1.67967863e-02, -3.32129411e-02, -2.45436747e-02,
          -5.81120607e-03, -1.44943409e-02, 2.40784045e-03,
          4.64753655e-04, 4.29853611e-03, 3.30473371e-02, 2.65169963e-02,
          7.54873734e-04, -1.33596165e-02, 1.00466162e-02,
          -1.46633517e-02, 1.36623811e-02, 1.30478702e-02,
          -9.64802690e-03, 1.17924251e-03, -2.62508146e-03,
          -2.98947934e-02, -3.98618355e-02, -1.26407892e-02,
          -1.71049200e-02, 4.68581729e-03, -1.94239989e-03,
          1.14862332e-02, 3.50951478e-02, -6.24743477e-03,
          -1.47915101e-02, 1.03457058e-02, 3.99056211e-04,
          -8.46931594e-04, 1.65034104e-02, 4.56553884e-03,
          2.17761518e-03, 1.36261517e-02, -2.47955648e-03,
          1.24818925e-02, -1.15050906e-02, -4.74714488e-03,
          -1.25762606e-02, -5.94099658e-03, -6.99492591e-03,
          7.27907941e-03, 1.28447032e-02, -3.13169439e-03,
          -1.88334510e-02, -1.78538933e-02, -6.49332127e-04,
          8.55972245e-03, 2.85519958e-02, 1.19955011e-03, 1.29259322e-02,
          2.65270360e-02, -1.70873161e-02, 2.39032190e-04,
          -1.54485423e-02, 2.56718631e-04, 9.94497444e-03,
          1.43189514e-02, -6.38675317e-03, 7.41525227e-03,
          -2.12836871e-03, 8.15727399e-04, 1.83994472e-02,
          -5.50915647e-05, -1.93929709e-02, -1.77891143e-02,
          4.50310903e-03, 2.75499444e-03, -5.99282654e-03,
          -4.05847235e-03, 1.91277161e-03, -1.00337500e-02,
          4.50937403e-03, -2.34025866e-02, -3.08012739e-02,
          1.59352797e-03, 4.92881844e-03, 2.14462057e-02, 3.36586908e-02,
          5.98681578e-03, 1.33632962e-02, 2.36224812e-02, 1.64779704e-02,
          1.85077384e-04, 2.70147528e-03, -1.60272536e-03,
          2.54642460e-02, 4.05125804e-02, 1.71284750e-02, 3.73523915e-03,
          8.54172930e-03, -1.18000433e-02, -2.33943257e-02,
          -6.67552091e-03, -1.38876913e-02, -5.35718258e-03,
          1.50771514e-02, 6.31173747e-03, -8.94416473e-04,
          1.07104620e-02, -5.66931954e-03, -2.36430746e-02,
          -6.50471495e-03, 1.09642139e-02, -1.44927446e-02,
          6.16524927e-03, -2.20770817e-02, -1.96028408e-03,
          -3.23984735e-02, -1.52250025e-02, -1.88579913e-02,
          -2.21887473e-02, -2.99336010e-04, 2.25984417e-02,
          6.23138472e-02, 2.94520296e-02, 1.54201612e-02,
          -4.83320560e-03, -1.02735851e-02, -1.23895202e-02,
          -5.87132666e-03, -3.40268086e-03, 1.29930936e-02,
          4.67517227e-02, -1.33333122e-03, 1.77709945e-02,
          -3.47387530e-02, 2.44445517e-03, -6.94825919e-03,
          -3.11751035e-03, 1.02151185e-02, -3.76831926e-02,
          3.31247429e-04, -1.05737252e-02, 5.00107370e-03,
          -8.31167586e-03, -5.94493886e-03, -3.84470299e-02,
          -1.87246855e-02, 1.00196188e-03, -2.54422287e-03,
          -1.83562208e-02, -9.68141854e-03, -1.32159283e-03,
          1.29707707e-02, -2.02773213e-02, -2.24934947e-02,
          -1.52841862e-02, -8.57908837e-03, -3.98145616e-03,
          1.49135413e-02, -2.14820541e-02, 2.07184535e-02,
          2.83875270e-03, 3.77224758e-02, 1.38317579e-02, 4.45018569e-03,
          5.53204492e-03, 1.43008037e-02, 8.73942580e-03,
          -8.14367458e-03, 8.45445506e-03, 3.60753853e-03,
          -7.18614319e-04, 6.45951414e-03, 2.74616783e-03,
          -6.91144587e-03, 2.42651049e-02, -2.21792702e-03,
          -2.50415737e-03, -8.07637814e-03, 4.40118508e-03,
          -2.33507622e-02, -1.38979284e-02, 7.53969746e-03,
          -1.30933784e-02, -5.34020038e-03, -6.70341356e-03,
          -1.70176884e-03, 1.91491423e-03, 2.76875519e-03,
          1.06031066e-02, -1.70103516e-02, -1.34465043e-02,
          -1.68274976e-02, 1.88173503e-02, 1.74563341e-02,
          6.06561545e-03, 9.11312550e-03, -7.80730043e-03,
          -1.92675795e-02, -2.79042078e-03, -7.15997675e-03,
          -3.14699560e-02, 6.49242196e-03, -3.48668592e-03,
          1.54833980e-02, 2.14049350e-02, -1.72936935e-02,
          -5.07171731e-03, -1.86903346e-02, -1.91611592e-02,
          -1.47639420e-02, -1.49698937e-02, 7.58520095e-03,
          -1.08524710e-02, -2.28117453e-03, 1.47841712e-02,
          1.13623394e-02, -2.61006188e-02, -4.23221616e-03,
          -1.49995051e-02, -2.83613224e-02, -9.12930630e-03,
          -1.43235624e-02, -7.09174317e-04, -3.07370297e-04,
          -1.22024380e-02, -4.04756777e-02, -1.86404027e-02,
          -9.59940371e-04, -2.65631080e-03, 1.17351918e-03,
          -1.79722160e-03, 6.46076724e-03, 2.66549434e-03,
          1.21218730e-02, 1.60741974e-02, 1.90372076e-02,
          -1.80903042e-03, -1.96623579e-02, -8.21819343e-03,
          -1.08638518e-02, 4.85254824e-03, 1.00444350e-02,
          2.05825698e-02, 9.38969385e-03, 2.68280338e-02,
          -1.28169972e-02, -1.31855300e-02, -7.00484309e-03,
          -1.10675078e-02, -1.39450552e-02, -1.45730488e-02,
          -2.14362219e-02, -3.90424766e-02, -1.71818379e-02,
          -9.67450812e-03, -8.51450209e-03, 1.35253118e-02,
          1.22935139e-02, -1.11228358e-02, -4.86608893e-02,
          -2.38206815e-02, 2.51799054e-03, 4.22303285e-03,
          -3.32284905e-02, 1.87657420e-02, 6.37823343e-03,
          1.08613474e-02, -7.05917040e-03, 7.23500969e-03,
          7.58680236e-03, -9.05817561e-03, 8.99798889e-03,
          1.23019312e-02, 1.94329284e-02, 1.83291100e-02, 2.67317630e-02,
          2.07968969e-02, -2.75309291e-03, 1.51515650e-02,
          1.70244779e-02, 1.93719752e-02, -1.00201312e-02,
          -2.04954986e-02, 1.33360075e-02, -5.13062906e-03,
          -2.70406669e-03, 3.90964514e-03, -1.50589189e-02,
          5.78269828e-03, 1.62228364e-02, -1.87769104e-02,
          -3.74616347e-02, -3.92326303e-02, -1.44855073e-02,
          -2.65206061e-02, -7.79099856e-03, -1.89314093e-02,
          -9.55485832e-03, 5.11588948e-03, -2.24753674e-02,
          1.00084888e-02, 2.49109436e-02, 4.75959037e-04,
          -1.02626942e-02, 4.37454768e-02, 3.35166492e-02,
          2.03261916e-02, 4.28902805e-02, 1.22074448e-02,
          -2.37300284e-02, -1.25490259e-02, -2.28911871e-03,
          -1.48686497e-02, 1.05945300e-02, 1.02783209e-02,
          2.44603725e-03, 2.87827551e-02, -1.44561110e-02,
          -1.31148780e-02, -6.12768671e-03, 9.02848598e-03,
          -1.26787052e-02, -2.97423229e-02, -2.89289397e-03,
          3.08465958e-03, 4.58388124e-03, -6.73198095e-03,
          -1.87949650e-02, 5.90058684e-04, -1.87031110e-03,
          -2.55400576e-02, -2.90823709e-02, -3.25166956e-02,
          -1.76493321e-02, -2.42584944e-02, -1.20471846e-02,
          -3.61465104e-03, 1.45903062e-02, 3.38702165e-02,
          1.98926646e-02, 3.36376089e-03, 1.14417393e-02, 1.60807185e-02,
          1.25856213e-02, -5.30852936e-03, -2.29567513e-02,
          5.67171210e-03, 3.49804480e-03, 4.18161554e-03, 1.28853368e-02,
          -1.50944768e-02, -1.57574136e-02, -4.22973419e-03,
          -1.54945562e-02, -5.99812763e-03, -1.32977767e-02,
          -1.89969083e-03, -6.90162787e-03, -4.04104218e-03,
          -4.32655634e-03, -3.65335122e-03, 6.78658765e-03,
          1.39196012e-02, -8.63929186e-03, -3.11087593e-02,
          -2.88263243e-02, -6.82666758e-03, -2.17968263e-02,
          6.55680243e-03, -8.92157666e-03, 1.55602535e-02,
          9.71116871e-03, 3.72986379e-03, 8.94587860e-03, 4.35735425e-03,
          6.60802296e-04, -3.02922702e-03, -2.21236013e-02,
          -6.95014233e-03, 1.58307590e-02, 2.95282016e-03,
          -2.16238089e-02, -3.36726345e-02, -7.42415199e-03,
          2.64994102e-03, -3.16049112e-03, -4.79082903e-03,
          -1.30686378e-02, -1.87752899e-02, -2.11858358e-02,
          1.15660410e-02, -4.87343082e-03, -9.53419879e-03,
          3.58193647e-03, -1.48033053e-02, 8.65187403e-03,
          -1.46907074e-02, -1.75999478e-03, 1.21354042e-02,
          -1.86898801e-02, -2.46652775e-02, -9.06020682e-03,
          -4.88599855e-03, -1.90318488e-02, 1.39470743e-02,
          -9.50678159e-03, -8.45715217e-03, -6.35206560e-03,
          -5.57298074e-03, -2.27231197e-02, -7.34614488e-03,
          -4.57074522e-04, 2.92645628e-03, 1.31207993e-02,
          -1.05012627e-02, -3.74059267e-02, -1.48026170e-02,
          -1.59560274e-02, -4.63761901e-03, 1.51322139e-02,
          1.75482128e-02, -9.41423792e-03, -3.69829452e-03,
          4.42570960e-03, -2.07739957e-02, -1.78812109e-02,
          -1.93300582e-02, -2.70051863e-02, -1.88902542e-02,
          -2.75012366e-02, -3.08848042e-02, 1.06337219e-02,
          -8.33621307e-04, -7.38777267e-03, -1.31730260e-02,
          1.52992038e-02, -4.96377610e-03, -9.63235181e-03,
          -1.73959546e-02, -1.13442000e-02, -3.47734662e-03,
          -2.80166250e-02, -3.86819579e-02, -1.86142866e-02,
          -2.91184196e-03, -9.63855628e-03, 1.47395220e-03,
          5.04522771e-03, 7.57842325e-04, -1.01173669e-02,
          1.90141033e-02, -1.53359331e-04, -7.11589539e-03,
          2.77724415e-02, 7.92498700e-03, -8.78199190e-03,
          -1.38153508e-02, 1.81200579e-04, -2.63646850e-03,
          -1.37563162e-02, -2.77933609e-02, 7.79134827e-03,
          7.37619959e-03, -1.15142418e-02, -1.70056745e-02,
          -1.10837128e-02, 2.46120989e-03, 1.18324511e-04,
          -2.53317524e-02, -5.26189059e-03, -1.13666356e-02,
          -1.15031181e-02, -7.18119694e-03, -6.85169082e-03,
          -7.32365483e-03, 2.40991805e-02, 6.60703704e-03,
          -7.76579324e-03, 9.39627644e-03, 5.36829873e-04,
          2.54919231e-02, 6.97190780e-03, 2.45195953e-03,
          -1.70497019e-02, 3.96792777e-02, -7.99594913e-03,
          -1.34163182e-02, 6.19113259e-03, 3.23747545e-02,
          2.21844148e-02, 1.93527434e-02, 5.16762910e-03, 5.64775569e-03,
          3.45628411e-02, 2.56762318e-02, 1.10228481e-02, 3.03995032e-02,
          3.04064266e-02, -4.18620110e-02, -5.56561537e-03,
          -1.88707132e-02, -1.90356988e-02, 1.25660440e-02,
          3.32714501e-03, -1.36540346e-02, -4.52517346e-03,
          1.88405369e-03, -2.32082885e-02, -4.56580659e-03,
          -1.36788432e-02, 4.34295926e-03, 1.11533713e-03,
          3.13848257e-02, 3.30447294e-02, 9.81165282e-03, 1.15076895e-03,
          -3.81214009e-03, 4.15845914e-03, -6.90493407e-03,
          -1.52238403e-02, -1.09081548e-02, 2.10201535e-02,
          5.14391111e-03, 1.04020275e-02, -7.33177317e-03,
          1.83359277e-03, 1.47035941e-02, 1.88676976e-02,
          -8.87223333e-03, -1.61437653e-02, -1.92798523e-03,
          1.95069760e-02, 1.76079758e-02, 5.34922723e-03,
          -1.45821711e-02, -1.35346260e-02, -1.44817503e-02,
          4.75935033e-03, -1.95136052e-02, -1.72396365e-03,
          -2.93073966e-03, 5.82264550e-03, -1.31583195e-02,
          1.14913462e-02, -1.62538998e-02, -1.74411684e-02,
          1.79368686e-02, -8.02400615e-03, 8.48096143e-03,
          -1.68173537e-02, -8.31390824e-03, -2.97501460e-02,
          -2.95525533e-03, -3.29541927e-03, 4.64622537e-03,
          2.52871629e-04, 6.55232882e-03, -2.06225198e-02,
          -1.10188136e-02, 3.30568966e-03, 1.57791993e-03,
          -2.69656163e-03, 1.63616613e-02, -1.26353605e-02,
          2.43985020e-02, 1.56883430e-02, 2.60807257e-02,
          -4.51611914e-03, -3.72140063e-03, 1.18667679e-02,
          -3.04728933e-03, -1.14640687e-02, -1.25484131e-02,
          1.06218979e-02, -1.30307255e-02, -1.40921827e-02,
          -2.61561722e-02, -2.20416076e-02, -3.22388001e-02,
          1.55570088e-02, 2.81096753e-02, 3.38385962e-02, 4.86833490e-02,
          -6.26112800e-03, -2.18668170e-02, -2.75136605e-02,
          -1.68977457e-03, -1.18342414e-02, 3.91646242e-03,
          3.40546505e-03, 2.11353204e-03, 4.15514410e-02, 2.46211104e-02,
          7.10027758e-03, -1.92915313e-02, -2.73411274e-02,
          -1.96607132e-02, 2.64359340e-02, 6.33040592e-02,
          6.50479719e-02, 7.80801624e-02, 2.29080096e-02, 3.02611478e-02,
          -8.34452687e-04, 2.18833070e-02, 8.11462104e-03,
          1.73130352e-02, 1.70101747e-02, 1.89230137e-03, 1.05735352e-02,
          -2.31615193e-02, -1.95374787e-02, -3.04785706e-02,
          8.57520290e-03, 1.01959547e-02, -1.18408585e-02,
          2.28565242e-02, 1.57868192e-02, 5.18317102e-03,
          -4.45286445e-02, -1.17583908e-02, -9.91297979e-03,
          3.52855772e-02, 7.94588216e-03, 1.83121487e-02, 6.24666885e-02,
          3.25070322e-02, 3.31180170e-02, -8.84290133e-03,
          8.95332452e-03, 1.53546804e-04, 2.79108491e-02, 2.43118666e-02,
          -4.33822302e-03, 3.96522842e-02, 5.87086007e-02,
          4.56025712e-02, -2.94430722e-02, 1.65836066e-02,
          2.83414014e-02, 6.53234646e-02, 5.90047427e-03,
          -2.71380297e-03, 6.68336451e-02, 5.38208112e-02,
          2.81262621e-02, -2.00087782e-02, -1.69202185e-03,
          2.13059247e-03, 2.61286795e-02, -1.30098360e-02,
          -1.40648792e-02, 6.16655871e-02, 1.12697054e-02,
          -7.86069036e-03, -3.86669338e-02, -3.92094702e-02,
          -3.27195860e-02, -9.62996576e-03, -3.58402729e-02,
          -3.41627151e-02, 7.22847208e-02, 9.16004479e-02,
          4.90035936e-02, -1.51325285e-03, 1.84364375e-02,
          3.43707502e-02, 4.15776931e-02, -2.44865902e-02,
          -3.20718661e-02, 5.27650528e-02, 1.16552906e-02,
          -9.02918261e-03, -3.19324099e-02, -2.13181544e-02,
          -1.29979281e-02, -2.09166687e-02, -6.97470605e-02,
          -1.18907206e-02, 4.70640585e-02, 3.16437148e-02,
          3.28339972e-02, -4.81555378e-03, 5.91397518e-03,
          9.42828786e-03, 2.69448478e-02, -5.71167050e-03,
          -1.34381996e-02, 2.61867754e-02, -6.13329839e-03,
          -6.96256757e-03, -3.75384651e-02, -2.10158210e-02,
          1.44493226e-02, 3.11566447e-03, -1.53997738e-03,
          4.64153243e-03, 5.58538586e-02, 1.07397344e-02,
          -4.87547088e-03, -3.56212296e-02, 6.45458885e-03,
          6.31910097e-03, 2.95250997e-04, -2.05176901e-02,
          -4.65648249e-04, 1.97817739e-02, -1.04697254e-02,
          -1.68339033e-02, -6.34254068e-02, -3.29515226e-02,
          -1.60637684e-02, -8.24434566e-04, 1.95241049e-02,
          1.06652519e-02, 8.85651726e-03, -2.74052247e-02,
          -8.21642112e-03, -3.89445722e-02, -1.32045345e-02,
          2.08207183e-02, 3.75697352e-02, 1.15593318e-02, 8.14277306e-03,
          2.83797346e-02, -2.05398463e-02, -5.50994091e-03,
          -4.14182991e-02, -3.43474443e-03, 1.69612411e-02,
          2.16650572e-02, -1.59215387e-02, 1.64922308e-02,
          3.01449019e-02, -1.49647892e-02, -2.62940465e-03,
          -3.17679532e-02, -3.79903056e-02, -6.34819828e-03,
          1.12127010e-02, 2.44206339e-02, -3.19676404e-03,
          9.30104032e-03, -2.07660794e-02, -1.58193819e-02,
          -2.81144902e-02, -2.69941874e-02, 1.37431128e-02,
          -9.57668386e-03, 1.14859957e-02, 1.04025230e-02,
          2.60471608e-02, -1.10426312e-02, -4.54961881e-03,
          -1.45859551e-02, 1.53780868e-02, 8.29245616e-03,
          1.66777372e-02, 9.86319035e-03, 1.84102412e-02, 9.24999081e-03,
          -4.07138355e-02, -3.84009182e-02, -1.47454441e-02,
          5.93883917e-04, -9.25829262e-03, 1.99300796e-03,
          -6.10314077e-03, -1.06260777e-02, 1.02800084e-03,
          -7.98093900e-03, -1.04597444e-03, -5.46877598e-03,
          8.11984483e-03, 1.57477483e-02, 1.55262901e-02, 1.68428198e-02,
          -1.71731636e-02, 3.78629193e-03, -3.37504931e-02,
          -5.25500858e-03, -1.04295677e-02, 1.57805905e-02,
          -2.26601809e-02, 1.34278811e-03, -1.55981379e-02,
          2.83137653e-02, 3.97871658e-02, -3.24309990e-03,
          -1.11623574e-02, -3.25963423e-02, 5.54560544e-03,
          -1.43282879e-02, -6.77938340e-03, -2.59511149e-03,
          3.11723910e-02, 5.41865863e-02, -1.31549323e-02,
          -1.72835737e-02, -4.52260338e-02, -8.54592491e-03,
          -1.15867462e-02, 2.64090719e-04, -6.13337383e-03,
          2.12458596e-02, 3.40675041e-02, -1.61962677e-02,
          1.14710564e-02, -1.95360128e-02, 7.39228958e-03,
          -3.96256451e-04, 6.85637351e-03, -1.31647103e-02,
          -2.03392541e-04, 1.18117761e-02, -2.56851912e-02,
          -3.96199748e-02, -2.50836909e-02, -2.28534397e-02,
          -6.10858295e-03, -9.79553815e-03, -3.31219397e-02,
          3.20362747e-02, 4.10116352e-02, -2.13253666e-02,
          -8.63232091e-03, 9.53300297e-03, 2.52573062e-02,
          3.88688152e-03, 1.26322601e-02, 1.60656609e-02, 3.32624540e-02,
          2.48453524e-02, -2.48109587e-02, -2.90663615e-02,
          1.18874591e-02, 4.38139454e-04, 1.64577849e-02,
          -4.53201262e-03, 5.90277323e-03, 1.12432772e-02,
          3.52813452e-02, -3.92705053e-02, -4.01095636e-02,
          -2.84044240e-02, -6.10876223e-03, 4.26102942e-03,
          3.48835415e-03, -1.10448548e-03, 2.22449191e-02,
          2.13741176e-02, -2.84514055e-02, -4.51065712e-02,
          -1.95929296e-02, -2.05907300e-02, -1.86486598e-02,
          1.46719655e-02, 2.97730393e-03, 2.85702813e-02, 1.24444654e-02,
          4.89504542e-03, -1.88136566e-02, -1.67814568e-02,
          -3.05447802e-02, -1.42954849e-03, 8.53647199e-03,
          1.10958042e-02, 3.89578752e-02, -1.93082480e-04,
          4.39060666e-03, -1.19538773e-02, -1.96403116e-02,
          -2.75954325e-02, -2.04442162e-02, 1.18598109e-03,
          2.60428078e-02, 2.20234916e-02, 1.99306235e-02, 1.32742774e-04,
          -3.67063768e-02, -3.57899889e-02, -3.14699225e-02,
          -2.50730128e-03, 3.15951519e-02, -9.59488098e-03,
          3.51128951e-02, 6.94184517e-03, 1.40930666e-02,
          -4.77644615e-02, -3.56643274e-02, -3.56335305e-02,
          -1.62257049e-02, 1.52705647e-02, 3.37476656e-02,
          3.33351578e-04, 1.29843820e-02, -2.19770167e-02,
          -1.81879718e-02, -9.05903149e-03, 7.34902080e-03,
          -1.71671566e-02, 7.37793744e-03, 2.88751384e-04,
          9.33746528e-03, 2.38893479e-02, -1.83726922e-02,
          -7.49626663e-03, 2.98696849e-03, 2.43592616e-02,
          -9.85631347e-03, 1.41995260e-02, 9.15594120e-03,
          3.97783006e-03, 2.21854988e-02, 5.58974408e-03,
          -3.64420414e-02, -3.19707505e-02, -1.92350112e-02,
          -1.01788519e-02, -5.37016476e-03, 2.15136595e-02,
          3.73083204e-02, 4.33368534e-02, -6.96982071e-03,
          -2.09271871e-02, 2.43608560e-03, 2.53053848e-02,
          6.09919010e-03, 3.76749295e-03, 1.81924496e-02, 7.54129002e-03,
          -8.64137692e-05, -3.75240017e-03, -2.26968788e-02,
          -1.61800776e-02, -1.33300154e-02, -4.12633717e-02,
          -3.95591231e-03, 1.27830515e-02, 1.30705228e-02,
          7.44027831e-03, 8.36256240e-03, -1.66076364e-03,
          -1.26220686e-02, -3.11689870e-03, -9.69340000e-03,
          2.60097478e-02, 4.20067180e-03, 4.28271554e-02, 3.78254540e-02,
          -2.13353662e-03, -3.21427733e-02, -2.97044069e-02,
          -2.30102651e-02, -3.40851359e-02, 2.55888258e-03,
          3.44940312e-02, 2.23123021e-02, 2.18758024e-02, 2.70321872e-02,
          1.64075159e-02, -3.96885956e-03, -1.15646310e-02,
          -1.40645821e-02, 3.21099572e-02, 5.88247441e-02,
          -5.90416463e-03, 1.67923737e-02, -1.26131801e-02,
          -2.45963894e-02, -5.56109007e-03, -7.57756317e-03,
          -1.73272602e-02, 1.89729279e-03, 5.84589830e-03,
          -4.77394350e-02, -1.64517891e-02, -7.83096906e-03,
          -9.62355523e-04, -3.19842971e-03, -2.82568745e-02,
          -1.82676036e-02, -2.28528045e-02, -4.28140834e-02,
          8.13040789e-03, 1.87943578e-02, 1.78302284e-02, 1.95291415e-02,
          2.20760074e-03, -8.49528052e-03, -7.82644376e-03,
          1.37971537e-02, 2.92572230e-02, -1.85547080e-02,
          -1.17670065e-02, 7.79950898e-03, 1.69261023e-02,
          2.46413127e-02, -1.32689672e-02, 5.10604540e-03,
          -6.37010159e-03, -1.19947074e-02, -2.12537646e-02,
          1.80432200e-02, 1.89599749e-02, 4.79135662e-02, 1.75673589e-02,
          -9.16830637e-03, 8.52470007e-03, -5.56300348e-03,
          -2.22880784e-02, -4.69755568e-02, -1.62203107e-02,
          -1.57274771e-02, 4.62385686e-03, 7.29308510e-03,
          -7.69418722e-04, -2.76307929e-02, -2.95830593e-02,
          -4.83493842e-02, 2.72470359e-02, 3.09079755e-02,
          2.94698607e-02, 3.81249934e-02, 5.14804125e-02, 2.27664523e-02,
          4.09548320e-02, 2.89220829e-02, 2.60072295e-02,
          -2.15409342e-02, -2.78987363e-02, -2.03487203e-02,
          -4.36873594e-03, -6.58037048e-03, 1.88210588e-02,
          -1.48584880e-03, -1.44971050e-02, -1.08743114e-02,
          -7.54055742e-04, 2.70346664e-02, 1.09759104e-02,
          1.43310064e-02, -1.77539736e-02, 1.14373565e-02,
          5.95931103e-03, 2.41141375e-02, -9.63509735e-03,
          -2.56780554e-02, -6.36063376e-03, -8.00302625e-03,
          4.39237617e-03, -1.43021317e-02, 1.60255954e-02,
          1.40334554e-02, -1.02915177e-02, -2.21967325e-02,
          -7.07847718e-03, 1.25804945e-04, -9.37076099e-03,
          8.46841559e-03, -2.21730322e-02, 3.19694094e-02,
          3.39023657e-02, 2.26206183e-02, 9.93469823e-03,
          -1.42962784e-02, -1.71717741e-02, -3.80648337e-02,
          -1.39243053e-02, -3.64336036e-02, 7.17359921e-03,
          2.25177947e-02, 1.75366644e-02, -2.07699090e-02,
          5.32963779e-03, -3.15156393e-03, 4.05122619e-03,
          -1.78535059e-02, -9.03836451e-03, 8.81050248e-03,
          8.04623123e-03, -2.35690605e-02, -1.25066917e-02,
          -4.73805238e-03, -1.34012923e-02, 1.10417018e-02,
          2.06778478e-02, -5.84318163e-03, 5.72410179e-03,
          1.63928177e-02, -9.05455556e-03, -6.20756857e-03,
          7.80417211e-03, 3.04554193e-03, -6.46458648e-04,
          -2.34766789e-02, -2.70729773e-02, 5.85565390e-03,
          2.51299236e-02, 1.17827132e-02, -2.98533682e-03,
          -4.08101827e-04, -8.94231535e-03, 2.34691724e-02,
          1.79654770e-02, 1.16531737e-02, 1.16576273e-02, 2.14200225e-02,
          5.95099758e-03, -1.39398780e-02, -2.50196904e-02,
          -1.61043573e-02, 3.51504236e-03, 1.70189217e-02,
          -1.59536488e-02, -1.82681717e-02, 2.47366563e-03,
          -4.52394690e-03, -5.41600492e-03, 9.28116404e-03,
          -2.80830683e-03, -1.80955101e-02, -2.72151735e-03,
          -2.21731365e-02, 3.11612850e-03, -6.77288510e-03,
          -7.81039149e-03, 1.16629126e-02, -1.74038429e-02,
          -2.67322659e-02, -6.01130724e-03, 3.37154022e-03,
          -1.21063450e-02, -1.71517988e-03, -4.09742631e-03,
          2.50677578e-03, -1.70828663e-02, -1.17881820e-02,
          -1.49613032e-02, -1.12556145e-02, 2.44066841e-03,
          -1.00597190e-02, -7.78718200e-03, -7.59845413e-03,
          -8.29309132e-03, -9.32386611e-03, 4.05161688e-03,
          -4.99031274e-03, -2.11258773e-02, -6.22601248e-03,
          2.93315277e-02, -2.71667424e-03, -1.20190317e-02,
          -2.00411491e-02, 1.39184566e-02, 3.62714077e-03,
          6.70732697e-03, 1.33514800e-03, 4.12637275e-03, 2.56680558e-03,
          3.36732790e-02, 2.10684855e-02, 1.22190677e-02, 1.08494777e-02,
          1.77981239e-02, -6.60279253e-03, -2.43114736e-02,
          5.89918112e-03, 1.55525440e-02, -1.08395610e-02,
          -1.79692206e-03, -5.16704796e-03, 5.19485679e-03,
          1.97893586e-02, 1.88494250e-02, 2.11020019e-02, 1.51294814e-02,
          -2.12818868e-02, -4.57320176e-03, 7.01900152e-03,
          1.43309319e-02, -1.68414519e-03, -1.20674893e-02,
          7.08510308e-03, -2.64099857e-04, -1.71228983e-02,
          -1.46628115e-02, 1.44112380e-02, 4.75996523e-04,
          3.11795529e-03, -1.51313506e-02, 2.30775923e-02,
          -8.37225374e-03, 5.48677705e-03, -4.82753618e-03,
          9.80788376e-03, -1.62851494e-02, 2.22839275e-03,
          1.78099219e-02, 2.24443227e-02, -5.99247497e-03,
          3.50724231e-03, 2.17298468e-04, -1.21920863e-02,
          -1.91424359e-02, 1.02563845e-02, 8.44541751e-03,
          1.62044559e-02, -1.43057797e-02, 2.74618547e-02,
          1.42050814e-02, 9.21920035e-03, -1.10695148e-02,
          -2.46035326e-02, -8.84084869e-03, -2.12584942e-04,
          2.04595104e-02, 3.34474184e-02, 9.91202891e-03,
          -1.78838670e-02, -2.39682849e-02, -1.57309826e-02,
          -8.90625361e-03, -3.31231803e-02, -2.44895294e-02,
          1.22973286e-02, 2.13698484e-02, -1.20289046e-02,
          -9.43521690e-03, -2.05887295e-02, 3.10710836e-02,
          3.51789854e-02, 2.87537929e-02, -7.03317230e-04,
          1.93664222e-03, -1.32495526e-03, 2.12666951e-02,
          5.51235909e-03, -2.40487661e-02, -3.42470929e-02,
          -1.79981198e-02, -2.31456179e-02, -2.45735049e-02,
          4.65019979e-03, 1.42662991e-02, -1.82978064e-02,
          -1.84055213e-02, -4.00774693e-03, 2.74209920e-02,
          5.00202626e-02, 3.30918804e-02, -1.06642663e-03,
          1.68083496e-02, -6.49965461e-03, -1.24021508e-02,
          -1.73612349e-02, -2.01115534e-02, 2.33800840e-02,
          5.11568459e-03, 1.31929955e-02, -2.26949602e-02,
          -1.35380942e-02, -1.82285048e-02, 2.44885851e-02,
          4.91160750e-02, 4.25221622e-02, 3.87298614e-02,
          -4.75503039e-03, 3.53426076e-02, 5.00608375e-03,
          1.82739310e-02, 6.76281098e-03, -3.38925719e-02,
          -3.81944850e-02, -1.38042197e-02, 2.40999386e-02,
          1.15098115e-02, 1.19362297e-02, -6.53967587e-03,
          -2.42041028e-03, -1.60279255e-02, 1.72695238e-02,
          3.01474743e-02, 2.58894619e-02, 3.77595648e-02,
          -8.35841987e-03, 4.09767926e-02, 3.86520699e-02,
          5.62616289e-02, 2.92301327e-02, 2.29278114e-02, 4.92645092e-02,
          1.98277496e-02, 4.81876917e-03, -1.68988109e-02,
          1.37408953e-02, 1.56354755e-02, 2.75702905e-02, 2.19600811e-03,
          -1.95476077e-02, 2.57724412e-02, 3.03250346e-02,
          1.46096041e-02, -3.47207896e-02, 1.74200665e-02,
          3.76790166e-02, 4.39819507e-02, -3.16400118e-02,
          1.24805598e-02, 4.96065915e-02, 1.74404718e-02, 8.92892363e-04,
          -2.16823183e-02, 1.40767908e-02, 3.28746475e-02,
          6.00953624e-02, 2.38586031e-02, -4.19443212e-02,
          3.33299935e-02, 3.32158096e-02, 8.01213086e-03,
          -2.21010931e-02, 2.20680586e-03, 4.40574139e-02,
          3.00470106e-02, -3.64581943e-02, -5.34660183e-02,
          5.24432957e-02, 6.31622449e-02, 6.51937127e-02, 2.03117058e-02,
          4.46990654e-02, 4.82568443e-02, 4.40047756e-02,
          -5.12006097e-02, -6.20876290e-02, 2.43064761e-02,
          1.00033302e-02, 8.00563768e-03, -3.70229757e-03,
          -1.35161364e-02, 1.82235464e-02, -7.28014763e-03,
          -8.02611187e-02, -3.71387452e-02, 3.16160321e-02,
          4.29462641e-02, 5.27082346e-02, 1.64315011e-02, 3.62347662e-02,
          6.46528080e-02, 4.78935018e-02, -4.88257818e-02,
          -6.10580295e-02, -1.82755943e-02, 1.18831638e-02,
          -9.91441682e-03, -2.04084236e-02, -8.93295649e-03,
          2.21038070e-02, 3.51844076e-03, -8.33651796e-02,
          -1.35359690e-02, 3.35035510e-02, 5.09159314e-03,
          9.62919265e-04, -2.20201872e-02, 6.47189934e-03,
          2.65828464e-02, -5.41258079e-04, -3.77453677e-02,
          -9.50729009e-03, -2.52421945e-04, -1.76646076e-02,
          -7.05914106e-03, -5.49520589e-02, -1.59051847e-02,
          -1.19988453e-02, -1.61791183e-02, -1.55193731e-03,
          -1.06471442e-02, 9.29121859e-03, 1.27447266e-02,
          5.13628451e-03, -4.01401371e-02, -2.91881664e-03,
          2.09310316e-02, 1.90815944e-02, -3.38748321e-02,
          1.50170419e-02, -1.44631024e-02, -2.58486420e-02,
          -1.37027930e-02, -7.01558962e-02, -2.73247939e-02,
          -2.20045876e-02, -2.40578167e-02, -2.36554295e-02,
          -3.24390270e-02, -2.95666922e-02, -1.05754090e-02,
          2.03213170e-02, -1.11949630e-02, 5.78848366e-03,
          8.08005501e-03, -5.20061934e-03, -6.37487322e-03,
          -4.97403070e-02, -2.76209582e-02, -2.01938469e-02,
          -4.02846094e-03, -8.65587965e-03, 4.73542575e-04,
          1.93667524e-02, -1.34171452e-02, -3.67068797e-02,
          -8.33634567e-03, -1.16575034e-02, -1.44026184e-03,
          1.21670067e-02, -1.77089926e-02, 6.50566630e-03,
          -1.77135002e-02, -2.47163642e-02, -2.83415746e-02,
          -3.14265601e-02, -2.42497958e-03, 5.88457391e-04,
          -5.00389049e-03, -2.78535802e-02, -2.10453030e-02,
          -1.04937423e-02, -2.74412166e-02, -5.41998856e-02,
          -4.18104865e-02, -1.05175367e-02, -1.19017111e-02,
          3.95927578e-04, 7.97734410e-03, 1.00732911e-02, 1.16990395e-02,
          1.03824784e-03, -4.63370234e-02, -3.36512588e-02,
          -1.67825781e-02, -2.80024204e-02, 1.42719494e-02,
          -4.84241522e-04, 2.78523518e-03, -1.54830730e-02,
          3.22297565e-03, -4.66853306e-02, -3.60569432e-02,
          1.64927989e-02, -9.40314587e-03, 2.50756182e-03,
          -1.34777734e-02, -2.37427428e-02, -1.11286854e-03,
          -1.65312495e-02, -4.52550016e-02, -3.65890227e-02,
          1.05820922e-02, -1.80485733e-02, 2.57108710e-03,
          -1.96751412e-02, -3.46430368e-03, -1.48029076e-02,
          -2.13960111e-02, -4.42861915e-02, -1.63311176e-02,
          6.76069083e-03, -8.14449787e-03, 2.86017228e-02,
          4.23082802e-03, 6.15741068e-04, -4.41636425e-03,
          5.32090524e-03, -3.41424830e-02, -3.12939808e-02,
          -2.14413903e-03, -4.98070382e-02, 7.10365921e-03,
          1.40322056e-02, -1.27414912e-02, -7.46217323e-03,
          -1.25134345e-02, -3.81987393e-02, -2.33441871e-02,
          1.53675163e-02, -5.91111649e-03, 1.94650721e-02,
          1.91251524e-02, 1.78299453e-02, 8.10415205e-03,
          -3.45083815e-03, -2.78021023e-02, -5.16330265e-02,
          -1.39493635e-02, -2.16297656e-02, -2.03627441e-02,
          1.40682152e-02, 6.57510420e-04, -2.33754553e-02,
          -2.64213830e-02, -2.90872902e-02, -1.73805729e-02,
          3.54068726e-02, -2.54018363e-02, -7.40145054e-03,
          1.50240418e-02, -2.10727891e-03, -1.21217994e-02,
          2.58914828e-02, 4.45532054e-03, -1.80902183e-02,
          1.74269099e-02, -2.28061937e-02, -2.06978526e-02,
          1.52063165e-02, -1.43340174e-02, -2.20845770e-02,
          1.66574772e-02, -3.14104222e-02, -1.66825519e-03,
          3.20824757e-02, -4.41806484e-03, -2.07936447e-02,
          -3.57902329e-03, -7.85856694e-03, -6.52166409e-03,
          1.91933978e-02, -2.28810515e-02, -2.38069687e-02,
          2.11325698e-02, -1.56018939e-02, -3.48927565e-02,
          1.71813983e-02, -1.57302357e-02, -2.65520159e-02,
          2.68371613e-03, -7.55884964e-03, 2.41709850e-03,
          3.30726169e-02, -7.05913547e-03, -1.27167637e-02,
          -1.36449424e-04, -6.76802732e-03, -1.07128294e-02,
          4.06899303e-02, -2.18154937e-02, 1.64941065e-02,
          2.85538863e-02, 2.31497809e-02, -3.60238738e-02,
          -2.36370116e-02, -2.83084754e-02, 1.13144936e-03,
          4.68862690e-02, 2.06500590e-02, 2.39952048e-03, 5.74633591e-02,
          9.45374370e-04, -1.53883966e-02, 6.82388432e-03,
          -1.71375144e-02, -1.46644516e-02, 3.02221403e-02,
          5.79832494e-03, 3.64437513e-02, 6.99874759e-02, 2.08479390e-02,
          -2.12932583e-02, -1.17337564e-02, -6.04415312e-02,
          1.80124193e-02, 4.82845344e-02, 3.48077230e-02, 1.77239422e-02,
          4.09190245e-02, 1.57869030e-02, -2.76683345e-02,
          -1.74635667e-02, -1.83622967e-02, -3.32464743e-03,
          2.49301102e-02, 1.20967636e-02, 1.84186716e-02, 3.90947424e-02,
          -1.75958276e-02, -1.67128257e-02, -1.49358828e-02,
          -1.79762137e-03, -4.20001801e-03, 7.04661850e-03,
          4.16771788e-03, 1.38835981e-02, 4.72558476e-02, 4.25001234e-03,
          -1.83430016e-02, -1.24266045e-02, -4.85588722e-02,
          7.11850170e-03, 6.25585914e-02, 3.11917756e-02, 1.58042777e-02,
          1.93873420e-02, -3.44764465e-03, -1.11967856e-02,
          -1.20741120e-02, -3.86151522e-02, -1.20554622e-02,
          4.56824452e-02, 1.80735681e-02, 2.57325973e-02, 3.59052420e-02,
          -1.01040034e-02, -2.04225760e-02, -2.09636111e-02,
          -3.98316272e-02, -3.14738490e-02, -6.65941555e-03,
          2.20873374e-02, 1.39104789e-02, 3.63049172e-02, 3.09692044e-02,
          1.51474634e-02, -1.20952874e-02, -2.41163969e-02,
          -4.57119197e-04, 2.87684146e-02, 3.95941325e-02,
          4.66449447e-02, 1.75407864e-02, -1.46958772e-02,
          -3.28962468e-02, -3.86755727e-02, -6.95094243e-02,
          -3.15208025e-02, 2.17746254e-02, 2.15182081e-02,
          4.86160330e-02, 4.29729596e-02, 2.33011171e-02,
          -1.60315242e-02, -1.16507765e-02, -1.00820586e-02,
          1.53755033e-02, 3.36991660e-02, 2.62638256e-02,
          -5.70278578e-02, -5.51186223e-03, 7.87076168e-03,
          1.76936891e-02, -1.65993758e-02, -7.33355898e-03,
          -2.83640320e-03, -1.37276296e-03, -1.01960227e-02,
          -6.35774508e-02, -5.31193800e-03, 9.39013064e-03,
          1.44711100e-02, 2.20782813e-02, -3.10370256e-03,
          7.31764873e-03, -2.70666787e-03, -4.91635837e-02,
          6.03045383e-03, 6.62216498e-03, -8.98260623e-03,
          -1.07484385e-02, -2.30275486e-02, 1.49775920e-02,
          1.75622236e-02, 6.10293169e-03, -2.23881397e-02,
          -2.34577786e-02, 1.74924619e-02, 6.57354575e-03,
          2.46870331e-02, 2.65580695e-02, 1.20772719e-02,
          -4.98804403e-03, 7.54150469e-03, -4.09178883e-02,
          -6.02000067e-03, 2.62276344e-02, 3.23299468e-02,
          3.47920060e-02, 4.57894988e-02, 3.52635682e-02, 3.60902064e-02,
          2.30477992e-02, 2.86465324e-03, -4.83580306e-02,
          -3.14530805e-02, -3.25174779e-02, -2.91416002e-03,
          -1.60394944e-02, 1.43020069e-02, -1.63140632e-02,
          -3.72064002e-02, -3.84946167e-02, 1.44872079e-02,
          4.17839922e-02, 3.88547666e-02, 5.37336692e-02, 6.79562688e-02,
          5.09029999e-02, 2.94144582e-02, 3.97130661e-02, 4.64632176e-03,
          -3.33005600e-02, -1.83012132e-02, -3.41161131e-03,
          2.80027324e-03, -8.44708085e-03, 7.63153890e-03,
          -4.04946283e-02, -4.59391363e-02, -4.83970158e-02,
          -1.11688189e-02, -1.16663252e-03, 4.08283900e-03,
          3.59548181e-02, 3.82175320e-03, 5.16172871e-02, 3.20512615e-02,
          2.05726121e-02, 2.92647909e-03, -1.08647831e-02,
          -3.92955216e-03, -2.66681146e-02, 4.21856018e-03,
          -6.74290769e-03, 1.32592795e-02, -1.43957243e-03,
          3.29450779e-02, -4.12963564e-03, 5.14770346e-03,
          1.77640915e-02, 2.37795003e-02, 3.42330150e-02, 1.57689154e-02,
          3.67469266e-02, -8.28019925e-04, -3.57775972e-03,
          -5.03080152e-03, -1.55995358e-02, 1.86615884e-02,
          1.32492026e-02, 1.69122424e-02, -1.41760719e-03,
          -2.68049482e-02, -2.98025347e-02, 1.74196879e-03,
          -7.61206588e-03, 7.33223394e-04, 1.29797822e-03,
          3.79823102e-03, 1.05954625e-03, 2.73359055e-03, 1.83318611e-02,
          -3.42047890e-04, 1.21162338e-02, -1.39649566e-02,
          -2.03783566e-04, -1.82205327e-02, 8.62730853e-03,
          2.41410434e-02, 2.26743203e-02, 1.52281756e-02, 1.00878756e-02,
          2.02345569e-03, -9.59647726e-03, -4.99183638e-03,
          1.52674885e-02, 2.64502130e-02, 1.41535392e-02, 7.60003226e-03,
          -1.44763457e-04, -7.19217863e-03, -5.83167945e-04,
          -9.51517280e-03, -9.19645559e-03, -7.04699568e-03,
          1.14285089e-02, 2.51123356e-03, 1.95317119e-02, 2.97108646e-02,
          1.20040337e-02, -1.09091867e-02, -1.52909113e-02,
          1.68312574e-03, -1.80939417e-02, -1.21532371e-02,
          -7.92250154e-04, 1.64320297e-03, -1.15715470e-02,
          -8.68203305e-03, 4.86603146e-03, 4.93403291e-03,
          1.31370407e-02, -7.89017044e-03, -3.40502872e-03,
          -5.27457008e-03, -2.56967563e-02, -1.12420609e-02,
          7.85097107e-03, 2.98164901e-03, -6.83697581e-04,
          -1.34263942e-02, -1.06164059e-02, -6.33767666e-03,
          -7.67188333e-03, 2.79363804e-03, -1.04941027e-02,
          9.59792349e-04, -1.31696658e-02, -1.18035786e-02,
          -5.89806912e-03, -2.96374346e-04, 1.00197187e-02,
          -1.92124173e-02, -3.28738615e-02, -1.23832235e-02,
          3.34967254e-03, -3.75689915e-03, -8.92649218e-03,
          1.09345876e-02, 9.93274897e-03, -1.58353876e-02,
          -1.78659558e-02, 3.05906776e-02, -2.25045141e-02,
          -8.78454838e-03, 4.43614135e-03, -6.40023826e-03,
          1.77721437e-02, 4.57267426e-02, 2.00327430e-02, 2.73630931e-03,
          3.17040123e-02, -1.46014094e-02, -1.27480058e-02,
          2.29095072e-02, -2.10150308e-03, 8.34835507e-03,
          3.44374543e-03, -2.58591138e-02, -1.98788848e-02,
          -1.53267314e-03, 6.24157023e-03, -5.93323680e-03,
          4.22577467e-03, 1.30431000e-02, 2.49590483e-02, 3.93682420e-02,
          1.70745198e-02, -7.52814859e-03, 1.76157728e-02,
          -3.17116966e-03, 2.09808443e-02, 1.86863748e-04,
          -5.25789754e-03, -1.46816485e-02, 1.81118809e-02,
          -5.22985635e-03, 8.02737195e-04, 4.45171678e-03,
          -1.45906974e-02, -1.48912016e-02, 1.28963999e-02,
          -1.48029206e-02, 1.42584946e-02, 1.15942005e-02,
          3.83328064e-03, 1.11441715e-02, -1.16576320e-02,
          -8.23437294e-04, 1.01437047e-02, 2.93012280e-02,
          1.47238793e-02, -3.34202079e-04, 1.21256905e-02,
          -1.39869528e-03, 7.86036905e-03, 2.77112005e-03,
          -5.36546204e-03, -1.11292244e-03, 1.31622527e-03,
          -4.64628264e-02, 9.07289097e-04, 2.79150065e-03,
          7.52204936e-03, 1.50591880e-02, 7.63455592e-03, 1.14460988e-02,
          -1.35292602e-03, 2.13871226e-02, -7.83436559e-03,
          9.19956714e-03, 4.66151861e-03, -1.57712549e-02,
          -4.73658741e-03, -9.27864108e-03, 7.66111258e-03,
          2.06911378e-03, 1.08653121e-02, 3.22774681e-03,
          -7.98545219e-03, -1.08549288e-02, -5.18920366e-03,
          2.51388866e-02, 8.35588202e-03, 2.84949616e-02,
          -2.66979472e-03, 1.87576730e-02, 1.56704541e-02,
          -8.20068642e-04, 8.24411307e-03, -1.84745044e-02,
          2.08518794e-03, -1.73284449e-02, -1.67369028e-03,
          -1.06521752e-02, -4.84291650e-03, 4.76580644e-05,
          -2.24349238e-02, -7.87104852e-03, -2.16277819e-02,
          2.11434346e-02, -3.64963594e-03, 4.11555683e-03,
          -4.33174224e-04, -1.60755403e-02, 1.08404784e-02,
          -2.58306824e-02, -3.10832374e-02, -3.31830641e-04,
          2.05679741e-02, 3.20449397e-02, 2.96847299e-02, 2.31182878e-03,
          1.02381259e-02, 1.11070862e-02, 1.43859838e-03, 1.84024554e-02,
          2.00889986e-02, 2.71160286e-02, 1.10242022e-02, 6.84458241e-02,
          4.79273908e-02, 5.82866631e-02, 3.82044762e-02,
          -5.18042222e-02, -3.47967856e-02, -2.52223071e-02,
          -1.16792216e-03, -1.67037346e-04, 1.54883675e-02,
          4.69585881e-04, -1.50705501e-02, -7.77351903e-03,
          -8.21447466e-03, -2.24584751e-02, -1.91172920e-02,
          -1.83450785e-02, -2.30100844e-02, 4.42203246e-02,
          1.46746747e-02, 2.32944582e-02, 2.15399880e-02, 2.15775482e-02,
          4.22421992e-02, -2.43879738e-03, -5.20557957e-03,
          -5.39133616e-04, 3.09069101e-02, 2.87669525e-02,
          5.92461973e-02, 3.18420008e-02, -2.89984629e-03,
          5.09332865e-02, 4.43877047e-03, -2.71985715e-04,
          4.70336108e-03, 2.48615928e-02, 5.78056090e-02, 4.60086651e-02,
          -1.09710572e-05, 1.37365563e-02, 9.49185994e-03,
          -2.61965580e-02, -2.69282535e-02, -2.64269337e-02,
          7.53549160e-03, -2.61579204e-04, 1.13449979e-03,
          1.55142760e-02, 1.32507039e-03, 2.02000663e-02,
          -2.19448525e-02, -3.02349161e-02, -2.25335099e-02,
          -1.07749896e-02, 2.78345961e-02, 1.35857621e-02,
          -1.11618424e-02, -1.05499970e-02, 3.78078967e-02,
          2.01042369e-02, 9.19476151e-03, 1.54992510e-02, 3.51852179e-02,
          8.08641538e-02, 6.30066246e-02, -6.82825269e-03,
          -5.66399656e-02, -2.18540542e-02, -1.95974596e-02,
          -3.87846678e-02, -3.68306637e-02, 4.48986329e-03,
          4.81174588e-02, 4.93601188e-02, -2.30014920e-02,
          3.22699663e-03, 2.89563388e-02, -1.08692814e-02,
          -3.22134234e-02, -1.92335602e-02, 1.52594997e-02,
          6.03046902e-02, 6.19462095e-02, 1.49190184e-02,
          -1.56909861e-02, -1.25197181e-02, -5.33953756e-02,
          -6.80626109e-02, -4.59387861e-02, -2.67630816e-02,
          1.36320740e-02, 4.85353842e-02, -1.60395559e-02,
          -4.95558698e-03, -1.70898030e-03, -8.75207223e-03,
          -1.93985272e-02, -3.82186212e-02, 1.49719766e-03,
          4.55523841e-02, 5.57179227e-02, 1.77216949e-03, 2.57841442e-02,
          8.22412781e-03, -1.59206502e-02, -3.28583792e-02,
          -5.42926826e-02, -2.19822004e-02, 9.31495056e-03,
          2.65342016e-02, -2.36198236e-03, -3.25939618e-03,
          1.54321892e-02, -1.58739481e-02, -1.93263181e-02,
          -1.33912396e-02, 2.24005561e-02, 3.84897217e-02,
          4.17498872e-02, 1.11271096e-02, 1.02941664e-02, 1.46535905e-02,
          8.35601427e-03, -1.19431987e-02, -2.44947597e-02,
          -1.87061708e-02, 2.39315517e-02, 2.73603611e-02,
          2.71833641e-03, 8.94380640e-03, 1.53586529e-02,
          -6.90819370e-03, -2.52157319e-02, -3.52239162e-02,
          7.73302652e-03, 3.08842142e-03, 2.31194366e-02, 1.38849404e-03,
          -1.11882959e-03, 2.17594150e-02, -4.33557527e-03,
          -2.99743451e-02, -5.55601902e-02, -2.18903162e-02,
          -1.37328543e-02, -3.60129587e-03, -1.02187600e-02,
          1.34774242e-02, 2.41479147e-02, -6.70713559e-03,
          -1.62183717e-02, -3.51080559e-02, -2.62585445e-03,
          1.87813267e-02, 1.96626317e-02, 1.66387949e-02, 8.62941146e-03,
          1.96911078e-02, -1.01947132e-03, -2.17512008e-02,
          -4.25562188e-02, 6.29444490e-04, -7.63686933e-03,
          1.63483154e-02, 1.65905356e-02, 2.00268961e-02, 4.79330495e-02,
          8.32861662e-03, 8.45240150e-03, -3.74218933e-02,
          -9.79375839e-03, 1.20450696e-02, 1.61814801e-02,
          3.77818034e-03, 6.71838643e-03, 6.39784290e-03,
          -1.55672757e-02, -7.80897960e-03, -1.74872559e-02,
          -1.17350677e-02, -1.94602611e-03, 5.05085289e-03,
          -3.67549434e-03, 1.75204445e-02, 1.32154766e-02,
          -7.51576736e-04, -7.93149322e-03, -2.27512904e-02,
          -3.24918563e-03, 2.94057722e-03, 3.58378217e-02,
          1.43748233e-02, -1.46131997e-03, -7.20283901e-03,
          -1.48444548e-02, -2.97870766e-02, -3.39594148e-02,
          -3.68781947e-02, -2.00524610e-02, 1.91071667e-02,
          3.11104991e-02, -1.78956203e-02, 5.06456802e-03,
          -1.55978405e-03, 4.15114779e-03, 4.35184035e-03,
          5.85962087e-03, 8.16210639e-03, 2.69609243e-02, 4.92078532e-03,
          -3.62813361e-02, 3.24521377e-03, -1.01067442e-02,
          -1.80992018e-02, -1.85319949e-02, -4.26462032e-02,
          -9.87866241e-03, 8.24461132e-03, 3.74831120e-03,
          8.62520188e-03, -4.34883079e-03, -3.47940065e-02,
          -1.12727759e-02, -2.73513049e-02, -2.08605193e-02,
          -8.51540174e-03, 2.43498981e-02, 2.95918845e-02,
          2.22829040e-02, 6.50419667e-03, -8.83647520e-03,
          -1.58210527e-02, -3.61803956e-02, -2.72613596e-02,
          -8.87137558e-03, 3.91810127e-02, 2.46071760e-02,
          -2.27478147e-02, 2.53229104e-02, 8.44316557e-03,
          -9.54934768e-03, -1.71053950e-02, -4.66215685e-02,
          -3.15770283e-02, 2.24322230e-02, 8.54612794e-03,
          -1.47834169e-02, 2.74706725e-02, -1.20600639e-02,
          -2.03883443e-02, -1.38999550e-02, -4.21146378e-02,
          -3.60255800e-02, 8.03207885e-03, 1.51995174e-03,
          1.00667812e-02, 1.82121880e-02, 1.76179316e-02, 2.17175558e-02,
          2.65990868e-02, -2.09735706e-02, -1.69571638e-02,
          3.06849424e-02, 3.55440490e-02, 1.06710857e-02, 7.43268337e-03,
          1.11817345e-02, -5.62389195e-03, 2.22195517e-02,
          -3.25763635e-02, -2.11904421e-02, 3.84033658e-02,
          4.54540029e-02, -4.76501556e-03, 4.61712554e-02,
          -7.11176917e-03, -2.86898296e-02, -1.40499873e-02,
          -4.59558070e-02, -2.74413638e-02, 2.08027251e-02,
          1.77745111e-02, 2.78283302e-02, 1.44546563e-02,
          -1.80303454e-02, -3.03551108e-02, -1.83358975e-02,
          -6.32148087e-02, -4.95549478e-03, 2.51205582e-02,
          1.94423776e-02, 2.47066282e-02, 1.89619735e-02,
          -1.07509289e-02, -3.83142605e-02, -1.33533375e-02,
          -4.02747616e-02, -2.44960077e-02, 2.84130201e-02,
          3.81803960e-02, 2.70043723e-02, 1.33085460e-03,
          -2.16602758e-02, -2.40650382e-02, -3.67301097e-03,
          -3.66206355e-02, -1.90113112e-02, 1.60418097e-02,
          3.34216096e-02, 3.03776260e-03, 1.63945369e-02, 1.10997097e-03,
          -8.23557936e-03, -8.28435365e-03, -3.92373428e-02,
          -1.40994946e-02, 4.59736735e-02, -1.02535142e-02,
          1.20253265e-02, 2.03903597e-02, 4.65735560e-03,
          -4.71619860e-04, -1.31165674e-02, -3.73865813e-02,
          -1.87470708e-02, 4.79820184e-02, 2.22306163e-03,
          4.16912325e-03, 1.25346072e-02, -1.40736867e-02,
          1.43625578e-02, 2.16844827e-02, -2.05748379e-02,
          -2.08926518e-02, 3.09338383e-02, 5.74150495e-03,
          1.40458730e-03, 1.24613149e-02, -4.58117621e-03,
          1.54926889e-02, 2.28478457e-03, -2.78712460e-03,
          -2.72793751e-02, 1.94346868e-02, 1.29376501e-02,
          4.25476953e-02, 2.19925065e-02, -1.30433245e-02,
          -3.57110910e-02, -2.57308260e-02, -4.10517268e-02,
          -1.20305680e-02, 3.49810421e-02, 2.51618046e-02,
          4.99245301e-02, 3.58789563e-02, -1.80759393e-02,
          -2.75238808e-02, 6.70418330e-03, 1.35647627e-02,
          2.19664760e-02, 3.50237489e-02, 2.44972296e-02, 1.60278082e-02,
          -3.42283910e-03, -4.04146537e-02, -2.17404645e-02,
          -1.21420734e-02, -1.60855036e-02, -1.07447123e-02,
          6.80612517e-04, 3.37832118e-03, 1.35514503e-02, 1.54079441e-02,
          -2.20580697e-02, -2.41990574e-03, 1.27979079e-02,
          -3.48702044e-04, 3.33740865e-03, 2.72985492e-02,
          1.76394843e-02, 2.46233623e-02, 2.29285378e-02,
          -1.68833323e-02, -6.49226410e-03, 1.40498104e-02,
          2.18844786e-02, 1.86848752e-02, 3.49564105e-02, 1.33253988e-02,
          -1.16368697e-04, 9.66889597e-03, -3.18825152e-03,
          1.01416688e-02, 4.56485339e-02, 2.52901427e-02,
          -1.81874924e-03, 1.36303408e-02, -5.09156194e-03,
          1.35660963e-02, 5.91562269e-03, -2.03288253e-02,
          1.24046775e-02, 6.92177285e-03, -2.29488909e-02,
          -2.53831334e-02, 2.83478554e-02, -1.77880190e-03,
          -4.53063995e-02, -1.27441678e-02, -7.78587442e-03,
          4.13447060e-03, 1.44380573e-02, -1.92961554e-04,
          -3.02343983e-02, -2.01088134e-02, -4.57659997e-02,
          3.41510773e-02, 4.72791940e-02, 3.66402529e-02, 3.03401258e-02,
          6.49954230e-02, 4.84620333e-02, 5.53146889e-03, 3.65241207e-02,
          2.58288961e-02, -1.88820378e-03, 9.18306131e-03,
          -4.50105406e-03, 9.19797271e-03, -8.77967477e-03,
          -1.16379168e-02, -4.80082221e-02, -2.73865666e-02,
          -3.06803584e-02, -1.57345310e-02, 1.13333641e-02,
          2.05470659e-02, 8.76105018e-03, 3.75040248e-02, 5.11850230e-02,
          7.39417446e-05, -4.42051515e-03, -8.51589441e-03,
          -3.30721736e-02, -1.75689273e-02, -1.65896267e-02,
          -9.72817652e-03, -4.67801903e-04, -1.04708234e-02,
          -5.06114066e-02, -4.06253487e-02, -4.39356752e-02,
          -2.05445802e-03, 1.63810402e-02, 1.38536459e-02,
          2.67400704e-02, -1.19269837e-03, -8.78371298e-03,
          -2.33462024e-02, -6.05286891e-03, -2.20803823e-02,
          -2.43638065e-02, 7.93680735e-03, 1.93536226e-02,
          2.56826989e-02, -1.88932605e-02, -2.52064019e-02,
          -4.05725166e-02, -6.83273841e-03, -1.89183094e-02,
          -9.46595042e-04, 3.02882846e-02, 1.91456731e-03,
          1.70880519e-02, -1.47472629e-02, 1.58709437e-02,
          1.37782199e-02, 1.79143418e-02, -1.27009852e-02,
          -4.18314636e-02, -7.39087723e-03, 2.11899076e-03,
          3.04906443e-02, 2.11289059e-03, 1.52897835e-02, 5.10499813e-03,
          1.49185781e-03, -2.08819937e-02, -1.77242188e-03,
          1.07714562e-02, 1.79752819e-02, -2.52155471e-03,
          -2.49276217e-02, -6.66912552e-03, -1.53332157e-02,
          1.34106195e-02, 9.60502774e-03, -1.34238033e-02,
          2.74199666e-03, 1.63573418e-02, -8.91907141e-03,
          -5.08404861e-04, 2.64143106e-02, 2.55543785e-03,
          -4.76339553e-03, 1.38064462e-03, -1.56446323e-02,
          -2.43834089e-02, 3.23751266e-03, 1.36252008e-02,
          2.39500799e-03, 1.05982190e-02, 7.52460118e-03, 8.87090992e-03,
          1.85918622e-02, -2.36791633e-02, -1.25070270e-02,
          2.91541331e-02, 1.01647303e-02, 1.14819566e-02, 3.24411206e-02,
          1.37665430e-02, -7.16115208e-03, 7.55343027e-03,
          -1.57591458e-02, -4.75130836e-03, 3.70337768e-03,
          -2.58819032e-02, -1.93794388e-02, -5.29220281e-03,
          -1.43744294e-02, -1.97012536e-02, -5.74618625e-03,
          1.00178430e-02, -8.40685237e-03, 8.89372639e-03,
          -6.46185363e-03, -3.49392667e-02, -1.69519484e-02,
          -2.83762184e-03, -2.01733992e-03, -3.68103944e-03,
          -1.23359971e-02, -1.61179993e-02, 1.48181850e-02,
          -1.74624529e-02, 1.01126032e-02, 2.10173484e-02,
          9.23687941e-04, -1.34089775e-02, -1.07229855e-02,
          2.70816870e-02, -1.31370211e-02, 1.42599912e-02,
          -7.36329705e-03, -1.41182682e-03, -6.38085278e-03,
          -1.46667560e-04, 9.47832130e-03, 1.73618328e-02,
          1.87078712e-03, 3.84986633e-05, -2.85061467e-02,
          -8.15153122e-03, -2.49171280e-03, 1.23487785e-03,
          3.51236231e-04, -9.78021137e-03, 2.59394906e-02,
          1.37165398e-05, 3.03916138e-04, -1.72885209e-02,
          -1.71955116e-02, 2.17559841e-02, 2.02464079e-03,
          -4.68070246e-03, -3.28832604e-02, -6.96576759e-03,
          2.12485716e-02, -5.57743595e-04, -8.81082658e-03,
          7.48205185e-03, 5.58996620e-03, 1.13394922e-02,
          -1.53764961e-02, -5.00732334e-03, 2.85471622e-02,
          8.31461512e-03, -2.87555368e-03, -2.18694806e-02,
          -8.54497252e-04, 1.10139186e-02, 3.51965986e-02,
          2.24443414e-04, -8.36006366e-03, 7.20700389e-03,
          -1.85171794e-02, -2.13776156e-02, -2.92495266e-02,
          -6.69437321e-03, 1.73986033e-02, 1.59897935e-02,
          -5.09399571e-04, -1.74196381e-02, -2.90498808e-02,
          2.04817224e-02, -1.10911895e-02, -1.87729634e-02,
          -2.96306983e-03, 1.96146425e-02, 1.18177978e-03,
          -1.07212756e-02, 4.43754689e-04, 6.78776018e-03,
          -8.37923959e-03, -2.11660266e-02, -3.79893184e-02,
          6.07644251e-05, 6.57501398e-04, 3.34030241e-02,
          -1.78755564e-03, -2.52329884e-03, -6.77986303e-03,
          1.83970928e-02, -2.54816841e-03, -2.09627729e-02,
          6.27101836e-05, 5.05336327e-04, 1.94742009e-02,
          -3.20780766e-03, -5.27302921e-03, 1.04759326e-02,
          3.02970838e-02, 1.16860289e-02, -1.35446219e-02,
          -1.02815693e-02, 1.69375830e-03, -1.55165195e-02,
          -2.16286704e-02, -8.44868366e-03, 1.16319815e-02,
          1.45533737e-02, 5.60922036e-03, -3.08185373e-03,
          4.26448137e-03, -1.77650210e-02, -1.58068053e-02,
          1.45511813e-02, -1.25746084e-02, 1.31872734e-02,
          2.95393765e-02, 6.93309121e-03, -1.20152840e-02,
          -2.34440924e-03, -1.78317446e-03, -5.24451258e-03,
          -8.47131293e-03, -7.69739971e-03, 3.29671614e-02,
          1.00485189e-02, 6.79532485e-03, -1.52287241e-02,
          8.47242586e-03, -1.97782498e-02, 1.21196946e-02,
          2.46791672e-02, -6.60338160e-03, -4.96330811e-03,
          -4.78972774e-03, -4.24880385e-02, -2.36716289e-02,
          6.33107629e-05, -8.57372768e-03, -6.01107767e-03,
          1.48136895e-02, -1.58222727e-02, 1.59756606e-03,
          3.52037102e-02, -8.98292474e-03, -5.71604352e-03,
          -4.01729834e-04, -1.41853960e-02, 4.28844383e-03,
          1.01936571e-02, 1.10552730e-02, 2.10925434e-02, 1.44240959e-02,
          -1.34234466e-02, -2.71472223e-02, 6.59908028e-03,
          -2.21376233e-02, 7.24899641e-04, 3.06197000e-03,
          -1.04211504e-02, -1.73096973e-02, 1.38048027e-02,
          1.67334452e-02, 9.02585685e-03, 1.47047648e-02,
          -1.83772296e-02, -7.04218866e-03, -2.44481303e-02,
          8.39200616e-03, 5.38444659e-03, 6.58341590e-03, 1.25820916e-02,
          1.35561731e-02, 2.54600830e-02, -4.33559529e-03,
          3.23476526e-03, -4.60908934e-03, 2.20805407e-03,
          -1.26258144e-02, -1.11788912e-02, 2.77621094e-02,
          1.23619149e-02, 1.78975686e-02, 2.65496108e-03,
          -6.52133673e-03, -1.08566126e-02, 1.74714334e-03,
          -3.04154623e-02, -2.26897057e-02, 1.51686920e-02,
          1.20716589e-02, 7.56607670e-03, -1.11777186e-02,
          3.45259323e-03, -3.21687423e-02, 2.87984731e-03,
          -1.47683620e-02, -2.16352623e-02, -6.66727917e-03,
          -1.01136630e-02, -3.05266958e-03, 6.57874439e-03,
          1.10984882e-02, -1.32908504e-02, 4.88176942e-03,
          -1.39702521e-02, 1.49865970e-02, 2.41809431e-02,
          1.95347960e-03, 3.05206137e-04, 2.06142608e-02, 1.21309832e-02,
          1.66857010e-03, 9.31883696e-03, 8.78913677e-04, 8.64512380e-03,
          1.58199295e-02, -2.37593204e-02, -1.20445620e-02,
          -1.52675798e-02, -6.88911369e-03, -4.82713431e-03,
          1.62677728e-02, -1.53652886e-02, -2.20959987e-02,
          -1.57288369e-02, -2.30522417e-02, -5.92307653e-03,
          3.17720650e-03, 1.62759442e-02, 9.56055429e-03,
          -7.07924133e-03, -1.53413368e-02, -1.41757531e-02,
          -8.14456772e-03, -3.06625441e-02, -1.20140864e-02,
          -2.82096211e-02, -1.93580296e-02, -4.71061049e-03,
          -1.08371684e-02, -2.63068266e-02, 1.91827456e-03,
          1.96142402e-02, -1.67969111e-02, -2.81412085e-03,
          5.03363507e-03, 7.20565906e-03, 4.46727946e-02, 3.60252783e-02,
          1.02444347e-02, 5.07663609e-03, 2.21113674e-02,
          -9.15307645e-03, -1.42983329e-02, -8.88524391e-03,
          -3.56337689e-02, 1.41730132e-02, 2.89859585e-02,
          1.57070030e-02, 7.15442607e-03, 1.07715884e-02,
          -1.56805180e-02, -5.36775682e-03, -1.84637941e-02,
          7.63678923e-04, 2.61824355e-02, 4.58172187e-02,
          -7.27535784e-03, 3.09982523e-03, 2.82997265e-02,
          -1.32431751e-02, -1.17767733e-02, -3.34315486e-02,
          -4.66724634e-02, -1.84774660e-02, 3.34414579e-02,
          -2.73347348e-02, 1.26455436e-02, 3.68338004e-02,
